
/* Species #1 : (Size 16) (AF 14.375) (Age 5)  */


/* Organism #0 Fitness: 15 Error: 0 */
genomestart 0
trait 1 0.1 0 0 0 0 0 0 0 
node 1 1 1 3
node 2 1 1 1
node 3 1 1 1
node 4 1 1 1
node 5 1 1 1
node 6 1 1 1
node 7 1 1 1
node 8 1 1 1
node 9 1 1 1
node 10 1 1 1
node 11 1 1 1
node 12 1 1 1
node 13 1 1 1
node 14 1 1 1
node 15 1 1 1
node 16 1 1 1
node 17 1 1 1
node 18 1 1 1
node 19 1 1 1
node 20 1 1 1
node 21 1 1 1
node 22 1 1 1
node 23 1 1 1
node 24 1 1 1
node 25 1 1 1
node 26 1 1 1
node 27 1 1 1
node 28 1 1 1
node 29 1 1 1
node 30 1 1 1
node 31 1 1 1
node 32 1 1 1
node 33 1 1 1
node 34 1 1 1
node 35 1 1 1
node 36 1 1 1
node 37 1 1 1
node 38 1 1 1
node 39 1 1 1
node 40 1 1 1
node 41 1 1 1
node 42 1 1 1
node 43 1 1 1
node 44 1 1 1
node 45 1 1 1
node 46 1 1 1
node 47 1 1 1
node 48 1 1 1
node 49 1 1 1
node 50 1 1 1
node 51 1 1 1
node 52 1 1 1
node 53 1 1 1
node 54 1 1 1
node 55 1 1 1
node 56 1 1 1
node 57 1 1 1
node 58 1 1 1
node 59 1 1 1
node 60 1 1 1
node 61 1 1 1
node 62 1 1 1
node 63 1 1 1
node 64 1 1 1
node 65 1 1 1
node 66 1 1 1
node 67 1 1 1
node 68 1 1 1
node 69 1 1 1
node 70 1 1 1
node 71 1 1 1
node 72 1 1 1
node 73 1 1 1
node 74 1 1 1
node 75 1 1 1
node 76 1 1 1
node 77 1 1 1
node 78 1 1 1
node 79 1 1 1
node 80 1 1 1
node 81 1 1 1
node 82 1 1 1
node 83 1 1 1
node 84 1 1 1
node 85 1 1 1
node 86 1 0 2
node 87 1 0 2
node 88 1 0 2
node 89 1 0 2
node 90 1 0 2
node 91 1 0 2
node 92 1 0 2
node 93 1 0 2
node 94 1 0 2
node 95 1 0 2
node 96 1 0 2
node 97 1 0 2
node 98 1 0 2
node 99 1 0 2
node 100 1 0 2
node 101 1 0 2
node 102 1 0 2
node 103 1 0 2
node 104 1 0 2
node 105 1 0 2
node 106 1 0 2
node 107 1 0 2
node 108 1 0 2
node 109 1 0 2
node 110 1 0 2
node 111 1 0 2
node 112 1 0 2
node 113 1 0 2
node 114 1 0 2
node 115 1 0 2
node 116 1 0 2
node 117 1 0 2
node 118 1 0 2
node 119 1 0 2
gene 1 1 86 0.387982 0 0 0.387982 1
gene 1 1 90 -0.34933 0 4 -0.34933 1
gene 1 1 91 0.354167 0 5 0.354167 1
gene 1 1 94 -0.400616 0 8 -0.400616 1
gene 1 1 99 0.357326 0 13 0.357326 1
gene 1 1 102 -0.506943 0 16 -0.506943 1
gene 1 1 106 0.397107 0 20 0.397107 1
gene 1 1 109 -0.195624 0 23 -0.195624 1
gene 1 1 114 0.795343 0 28 0.795343 1
gene 1 1 115 0.0229804 0 29 0.0229804 1
gene 1 1 118 0.563677 0 32 0.563677 1
gene 1 1 119 -0.437254 0 33 -0.437254 1
gene 1 2 87 0.237678 0 35 0.237678 1
gene 1 2 93 0.0593585 0 41 0.0593585 1
gene 1 2 99 0.952727 0 47 0.952727 1
gene 1 2 103 -0.118686 0 51 -0.118686 1
gene 1 2 105 -0.178579 0 53 -0.178579 1
gene 1 2 108 -0.403363 0 56 -0.403363 1
gene 1 2 109 -0.971862 0 57 -0.971862 1
gene 1 2 110 -0.623722 0 58 -0.623722 1
gene 1 2 114 0.124088 0 62 0.124088 1
gene 1 3 88 -0.285775 0 70 -0.285775 1
gene 1 3 89 0.586566 0 71 0.586566 1
gene 1 3 101 -0.455977 0 83 -0.455977 1
gene 1 3 107 -0.696768 0 89 -0.696768 1
gene 1 3 109 0.222602 0 91 0.222602 1
gene 1 3 111 -0.704001 0 93 -0.704001 1
gene 1 3 114 0.0691397 0 96 0.0691397 1
gene 1 3 119 0.00302133 0 101 0.00302133 1
gene 1 4 90 0.308756 0 106 0.308756 1
gene 1 4 93 0.549272 0 109 0.549272 1
gene 1 4 98 -0.317682 0 114 -0.317682 1
gene 1 4 100 0.896207 0 116 0.896207 1
gene 1 4 102 0.0292367 0 118 0.0292367 1
gene 1 4 104 0.520127 0 120 0.520127 1
gene 1 4 106 0.681539 0 122 0.681539 1
gene 1 4 109 -0.467833 0 125 -0.467833 1
gene 1 4 110 -0.172796 0 126 -0.172796 1
gene 1 4 112 -0.690603 0 128 -0.690603 1
gene 1 4 113 -0.256935 0 129 -0.256935 1
gene 1 4 117 -0.6948 0 133 -0.6948 1
gene 1 5 91 -0.606006 0 141 -0.606006 1
gene 1 5 92 0.910749 0 142 0.910749 1
gene 1 5 98 -0.706839 0 148 -0.706839 1
gene 1 5 100 -0.232795 0 150 -0.232795 1
gene 1 5 102 0.336116 0 152 0.336116 1
gene 1 5 109 0.511612 0 159 0.511612 1
gene 1 5 114 -0.523881 0 164 -0.523881 1
gene 1 5 119 -0.585742 0 169 -0.585742 1
gene 1 6 87 -0.806833 0 171 -0.806833 1
gene 1 6 88 -0.368389 0 172 -0.368389 1
gene 1 6 90 0.0227668 0 174 0.0227668 1
gene 1 6 93 -0.307871 0 177 -0.307871 1
gene 1 6 94 0.920042 0 178 0.920042 1
gene 1 6 100 0.592334 0 184 0.592334 1
gene 1 6 105 0.245079 0 189 0.245079 1
gene 1 6 115 0.716727 0 199 0.716727 1
gene 1 6 119 -0.556322 0 203 -0.556322 1
gene 1 7 90 0.277367 0 208 0.277367 1
gene 1 7 93 -0.823847 0 211 -0.823847 1
gene 1 7 95 0.438841 0 213 0.438841 1
gene 1 7 101 0.370556 0 219 0.370556 1
gene 1 7 102 -0.180837 0 220 -0.180837 1
gene 1 7 104 -0.423261 0 222 -0.423261 1
gene 1 7 108 0.523347 0 226 0.523347 1
gene 1 7 111 0.0784936 0 229 0.0784936 1
gene 1 7 114 0.0422376 0 232 0.0422376 1
gene 1 8 86 -0.230628 0 238 -0.230628 1
gene 1 8 87 0.435713 0 239 0.435713 1
gene 1 8 91 -0.422849 0 243 -0.422849 1
gene 1 8 96 0.93231 0 248 0.93231 1
gene 1 8 100 0.318735 0 252 0.318735 1
gene 1 8 101 0.754173 0 253 0.754173 1
gene 1 8 105 0.279077 0 257 0.279077 1
gene 1 8 107 0.645772 0 259 0.645772 1
gene 1 8 109 0.128346 0 261 0.128346 1
gene 1 8 113 0.534013 0 265 0.534013 1
gene 1 8 117 -0.0691702 0 269 -0.0691702 1
gene 1 9 93 -0.0119022 0 279 -0.0119022 1
gene 1 9 94 -0.132969 0 280 -0.132969 1
gene 1 9 96 -0.141469 0 282 -0.141469 1
gene 1 9 100 -0.784692 0 286 -0.784692 1
gene 1 9 107 -0.223609 0 293 -0.223609 1
gene 1 9 108 -0.49617 0 294 -0.49617 1
gene 1 9 116 0.679006 0 302 0.679006 1
gene 1 9 117 -0.381146 0 303 -0.381146 1
gene 1 9 119 -0.60564 0 305 -0.60564 1
gene 1 10 86 -0.324503 0 306 -0.324503 1
gene 1 10 88 -0.0355846 0 308 -0.0355846 1
gene 1 10 99 0.224464 0 319 0.224464 1
gene 1 10 102 -0.479171 0 322 -0.479171 1
gene 1 10 104 0.86108 0 324 0.86108 1
gene 1 10 106 -0.471084 0 326 -0.471084 1
gene 1 10 107 0.718375 0 327 0.718375 1
gene 1 10 114 -0.297952 0 334 -0.297952 1
gene 1 11 90 -0.329386 0 344 -0.329386 1
gene 1 11 97 0.438978 0 351 0.438978 1
gene 1 11 107 0.619037 0 361 0.619037 1
gene 1 11 109 0.750633 0 363 0.750633 1
gene 1 11 110 0.197546 0 364 0.197546 1
gene 1 11 112 -0.118 0 366 -0.118 1
gene 1 11 113 -0.723136 0 367 -0.723136 1
gene 1 11 115 -0.0505997 0 369 -0.0505997 1
gene 1 11 116 -0.117237 0 370 -0.117237 1
gene 1 11 117 -0.00476089 0 371 -0.00476089 1
gene 1 11 118 0.232734 0 372 0.232734 1
gene 1 12 90 -0.48291 0 378 -0.48291 1
gene 1 12 98 0.315104 0 386 0.315104 1
gene 1 12 106 -0.603076 0 394 -0.603076 1
gene 1 12 113 0.0459761 0 401 0.0459761 1
gene 1 12 116 0.316477 0 404 0.316477 1
gene 1 13 93 -0.0612506 0 415 -0.0612506 1
gene 1 13 94 0.908261 0 416 0.908261 1
gene 1 13 95 -0.747703 0 417 -0.747703 1
gene 1 13 98 -0.617664 0 420 -0.617664 1
gene 1 13 99 0.709342 0 421 0.709342 1
gene 1 13 100 0.333796 0 422 0.333796 1
gene 1 13 109 -0.0459914 0 431 -0.0459914 1
gene 1 13 117 -0.0682699 0 439 -0.0682699 1
gene 1 14 87 0.504059 0 443 0.504059 1
gene 1 14 88 -0.452223 0 444 -0.452223 1
gene 1 14 91 0.0796686 0 447 0.0796686 1
gene 1 14 100 0.188391 0 456 0.188391 1
gene 1 14 103 0.707999 0 459 0.707999 1
gene 1 14 105 -0.303262 0 461 -0.303262 1
gene 1 14 114 -0.219031 0 470 -0.219031 1
gene 1 14 117 -0.421033 0 473 -0.421033 1
gene 1 14 119 0.301508 0 475 0.301508 1
gene 1 15 91 -0.71807 0 481 -0.71807 1
gene 1 15 94 -0.416868 0 484 -0.416868 1
gene 1 15 96 -0.975372 0 486 -0.975372 1
gene 1 15 103 -0.166814 0 493 -0.166814 1
gene 1 15 105 -0.27192 0 495 -0.27192 1
gene 1 15 107 -0.0804468 0 497 -0.0804468 1
gene 1 15 110 -0.0617542 0 500 -0.0617542 1
gene 1 15 111 0.575808 0 501 0.575808 1
gene 1 15 112 -0.514924 0 502 -0.514924 1
gene 1 16 86 -0.655354 0 510 -0.655354 1
gene 1 16 93 -0.36549 0 517 -0.36549 1
gene 1 16 100 -0.743095 0 524 -0.743095 1
gene 1 16 102 0.0170751 0 526 0.0170751 1
gene 1 16 105 -0.788736 0 529 -0.788736 1
gene 1 16 109 -0.449599 0 533 -0.449599 1
gene 1 16 118 0.0732444 0 542 0.0732444 1
gene 1 17 87 -0.113834 0 545 -0.113834 1
gene 1 17 88 -0.638844 0 546 -0.638844 1
gene 1 17 89 -0.272713 0 547 -0.272713 1
gene 1 17 91 0.165899 0 549 0.165899 1
gene 1 17 92 -0.169012 0 550 -0.169012 1
gene 1 17 96 -0.489563 0 554 -0.489563 1
gene 1 17 98 0.102741 0 556 0.102741 1
gene 1 17 99 -0.840663 0 557 -0.840663 1
gene 1 17 100 -0.26545 0 558 -0.26545 1
gene 1 17 102 0.80108 0 560 0.80108 1
gene 1 17 109 0.0116123 0 567 0.0116123 1
gene 1 17 111 0.234672 0 569 0.234672 1
gene 1 18 90 0.182684 0 582 0.182684 1
gene 1 18 97 -0.195517 0 589 -0.195517 1
gene 1 18 100 -0.900052 0 592 -0.900052 1
gene 1 18 102 0.125767 0 594 0.125767 1
gene 1 18 107 0.14362 0 599 0.14362 1
gene 1 18 108 -0.0424512 0 600 -0.0424512 1
gene 1 18 110 -0.546495 0 602 -0.546495 1
gene 1 19 91 0.738823 0 617 0.738823 1
gene 1 19 92 -0.271065 0 618 -0.271065 1
gene 1 19 94 -0.55855 0 620 -0.55855 1
gene 1 19 100 0.27253 0 626 0.27253 1
gene 1 19 103 -0.173254 0 629 -0.173254 1
gene 1 19 104 -0.847774 0 630 -0.847774 1
gene 1 19 105 0.582034 0 631 0.582034 1
gene 1 19 111 0.0330515 0 637 0.0330515 1
gene 1 19 112 0.41084 0 638 0.41084 1
gene 1 19 117 0.389721 0 643 0.389721 1
gene 1 19 118 0.760781 0 644 0.760781 1
gene 1 19 119 -0.493362 0 645 -0.493362 1
gene 1 20 88 0.324686 0 648 0.324686 1
gene 1 20 90 -0.296899 0 650 -0.296899 1
gene 1 20 94 0.244545 0 654 0.244545 1
gene 1 20 96 -0.76899 0 656 -0.76899 1
gene 1 20 102 0.737846 0 662 0.737846 1
gene 1 20 106 0.106464 0 666 0.106464 1
gene 1 20 116 -0.603275 0 676 -0.603275 1
gene 1 21 89 0.36259 0 683 0.36259 1
gene 1 21 102 -0.0522324 0 696 -0.0522324 1
gene 1 21 104 -0.274087 0 698 -0.274087 1
gene 1 21 105 -0.595386 0 699 -0.595386 1
gene 1 21 106 -0.336451 0 700 -0.336451 1
gene 1 21 107 -0.465499 0 701 -0.465499 1
gene 1 21 112 0.00631733 0 706 0.00631733 1
gene 1 21 117 -0.651357 0 711 -0.651357 1
gene 1 22 87 0.720634 0 715 0.720634 1
gene 1 22 88 0.486831 0 716 0.486831 1
gene 1 22 95 -0.712668 0 723 -0.712668 1
gene 1 22 97 -0.16541 0 725 -0.16541 1
gene 1 22 102 0.794122 0 730 0.794122 1
gene 1 22 103 0.36079 0 731 0.36079 1
gene 1 22 106 -0.758049 0 734 -0.758049 1
gene 1 22 108 -0.311335 0 736 -0.311335 1
gene 1 22 109 -0.607364 0 737 -0.607364 1
gene 1 23 87 -0.824274 0 749 -0.824274 1
gene 1 23 89 0.0485397 0 751 0.0485397 1
gene 1 23 92 -0.416334 0 754 -0.416334 1
gene 1 23 93 0.11449 0 755 0.11449 1
gene 1 23 94 0.315958 0 756 0.315958 1
gene 1 23 99 -0.329966 0 761 -0.329966 1
gene 1 23 107 -0.664418 0 769 -0.664418 1
gene 1 23 116 0.299799 0 778 0.299799 1
gene 1 23 118 0.463729 0 780 0.463729 1
gene 1 24 86 -0.482864 0 782 -0.482864 1
gene 1 24 87 -0.963408 0 783 -0.963408 1
gene 1 24 89 0.333323 0 785 0.333323 1
gene 1 24 91 0.494583 0 787 0.494583 1
gene 1 24 98 0.314707 0 794 0.314707 1
gene 1 24 105 -0.560045 0 801 -0.560045 1
gene 1 24 113 0.479446 0 809 0.479446 1
gene 1 24 115 0.511521 0 811 0.511521 1
gene 1 24 116 -0.543611 0 812 -0.543611 1
gene 1 24 117 -0.478469 0 813 -0.478469 1
gene 1 25 90 -0.103336 0 820 -0.103336 1
gene 1 25 91 -0.946043 0 821 -0.946043 1
gene 1 25 92 0.294946 0 822 0.294946 1
gene 1 25 102 0.265419 0 832 0.265419 1
gene 1 25 108 0.352062 0 838 0.352062 1
gene 1 25 109 0.157506 0 839 0.157506 1
gene 1 25 111 0.0787378 0 841 0.0787378 1
gene 1 25 113 -0.81518 0 843 -0.81518 1
gene 1 26 91 0.548296 0 855 0.548296 1
gene 1 26 93 0.547395 0 857 0.547395 1
gene 1 26 95 -0.0787683 0 859 -0.0787683 1
gene 1 26 99 0.228614 0 863 0.228614 1
gene 1 26 106 0.854396 0 870 0.854396 1
gene 1 26 109 0.719169 0 873 0.719169 1
gene 1 26 110 0.404447 0 874 0.404447 1
gene 1 26 116 0.154241 0 880 0.154241 1
gene 1 27 86 0.541917 0 884 0.541917 1
gene 1 27 88 -0.554125 0 886 -0.554125 1
gene 1 27 90 -0.283212 0 888 -0.283212 1
gene 1 27 96 0.0594806 0 894 0.0594806 1
gene 1 27 99 -0.485 0 897 -0.485 1
gene 1 27 101 0.21778 0 899 0.21778 1
gene 1 27 102 0.381787 0 900 0.381787 1
gene 1 27 103 0.0256661 0 901 0.0256661 1
gene 1 27 104 -0.68334 0 902 -0.68334 1
gene 1 27 105 0.867733 0 903 0.867733 1
gene 1 27 108 0.866482 0 906 0.866482 1
gene 1 27 110 0.356197 0 908 0.356197 1
gene 1 27 113 -0.266182 0 911 -0.266182 1
gene 1 27 114 -0.347667 0 912 -0.347667 1
gene 1 27 118 -0.572893 0 916 -0.572893 1
gene 1 28 86 0.523927 0 918 0.523927 1
gene 1 28 88 -0.423688 0 920 -0.423688 1
gene 1 28 95 0.320368 0 927 0.320368 1
gene 1 28 101 0.754234 0 933 0.754234 1
gene 1 28 103 -0.218787 0 935 -0.218787 1
gene 1 28 104 0.0574664 0 936 0.0574664 1
gene 1 28 105 -0.598437 0 937 -0.598437 1
gene 1 28 106 0.709372 0 938 0.709372 1
gene 1 28 109 -0.0514695 0 941 -0.0514695 1
gene 1 28 111 -0.139103 0 943 -0.139103 1
gene 1 28 115 -0.371715 0 947 -0.371715 1
gene 1 29 88 0.423078 0 954 0.423078 1
gene 1 29 89 -0.756523 0 955 -0.756523 1
gene 1 29 98 -0.27955 0 964 -0.27955 1
gene 1 29 100 -0.737877 0 966 -0.737877 1
gene 1 29 105 0.0764794 0 971 0.0764794 1
gene 1 29 114 -0.254769 0 980 -0.254769 1
gene 1 29 115 -0.0833613 0 981 -0.0833613 1
gene 1 30 89 -0.72103 0 989 -0.72103 1
gene 1 30 92 -0.000915555 0 992 -0.000915555 1
gene 1 30 103 -0.330042 0 1003 -0.330042 1
gene 1 30 106 -0.0428938 0 1006 -0.0428938 1
gene 1 30 117 0.308512 0 1017 0.308512 1
gene 1 31 96 0.0206915 0 1030 0.0206915 1
gene 1 31 97 0.363948 0 1031 0.363948 1
gene 1 31 100 -0.472518 0 1034 -0.472518 1
gene 1 31 102 -0.0965606 0 1036 -0.0965606 1
gene 1 31 105 -0.0746178 0 1039 -0.0746178 1
gene 1 31 110 -0.142842 0 1044 -0.142842 1
gene 1 31 111 0.615436 0 1045 0.615436 1
gene 1 31 115 -0.597415 0 1049 -0.597415 1
gene 1 31 119 0.404477 0 1053 0.404477 1
gene 1 32 86 -0.0599231 0 1054 -0.0599231 1
gene 1 32 93 0.153844 0 1061 0.153844 1
gene 1 32 95 0.0942869 0 1063 0.0942869 1
gene 1 32 97 0.899106 0 1065 0.899106 1
gene 1 32 100 -0.209815 0 1068 -0.209815 1
gene 1 32 104 -0.226997 0 1072 -0.226997 1
gene 1 32 108 0.20716 0 1076 0.20716 1
gene 1 32 109 0.451064 0 1077 0.451064 1
gene 1 32 110 0.193197 0 1078 0.193197 1
gene 1 32 112 -0.346583 0 1080 -0.346583 1
gene 1 32 113 -0.307932 0 1081 -0.307932 1
gene 1 32 118 0.125431 0 1086 0.125431 1
gene 1 33 87 -0.748924 0 1089 -0.748924 1
gene 1 33 88 0.174673 0 1090 0.174673 1
gene 1 33 90 -0.16361 0 1092 -0.16361 1
gene 1 33 93 -0.278603 0 1095 -0.278603 1
gene 1 33 99 -0.439039 0 1101 -0.439039 1
gene 1 33 100 0.0333567 0 1102 0.0333567 1
gene 1 33 105 0.912381 0 1107 0.912381 1
gene 1 33 107 0.1742 0 1109 0.1742 1
gene 1 33 110 0.0594043 0 1112 0.0594043 1
gene 1 33 117 -0.21334 0 1119 -0.21334 1
gene 1 33 119 0.353587 0 1121 0.353587 1
gene 1 34 97 0.538316 0 1133 0.538316 1
gene 1 34 99 0.176901 0 1135 0.176901 1
gene 1 34 109 -0.767373 0 1145 -0.767373 1
gene 1 34 111 -0.883236 0 1147 -0.883236 1
gene 1 34 112 0.30137 0 1148 0.30137 1
gene 1 34 115 -0.160298 0 1151 -0.160298 1
gene 1 35 86 0.919736 0 1156 0.919736 1
gene 1 35 91 -0.394971 0 1161 -0.394971 1
gene 1 35 100 -0.739311 0 1170 -0.739311 1
gene 1 35 105 -0.0549944 0 1175 -0.0549944 1
gene 1 35 110 0.444533 0 1180 0.444533 1
gene 1 36 87 -0.0744652 0 1191 -0.0744652 1
gene 1 36 88 -0.115223 0 1192 -0.115223 1
gene 1 36 98 -0.0440992 0 1202 -0.0440992 1
gene 1 36 99 0.588794 0 1203 0.588794 1
gene 1 36 101 -0.409726 0 1205 -0.409726 1
gene 1 36 105 0.822748 0 1209 0.822748 1
gene 1 36 108 -0.569536 0 1212 -0.569536 1
gene 1 36 110 -0.488479 0 1214 -0.488479 1
gene 1 36 111 -0.309748 0 1215 -0.309748 1
gene 1 36 113 0.519272 0 1217 0.519272 1
gene 1 37 86 -0.832789 0 1224 -0.832789 1
gene 1 37 88 -0.545122 0 1226 -0.545122 1
gene 1 37 91 -0.779595 0 1229 -0.779595 1
gene 1 37 92 0.708335 0 1230 0.708335 1
gene 1 37 105 0.406049 0 1243 0.406049 1
gene 1 37 108 0.439283 0 1246 0.439283 1
gene 1 37 110 0.18067 0 1248 0.18067 1
gene 1 37 113 0.18302 0 1251 0.18302 1
gene 1 37 116 0.204932 0 1254 0.204932 1
gene 1 37 118 -0.553575 0 1256 -0.553575 1
gene 1 37 119 0.627094 0 1257 0.627094 1
gene 1 38 86 0.419294 0 1258 0.419294 1
gene 1 38 87 0.0860622 0 1259 0.0860622 1
gene 1 38 88 -0.188757 0 1260 -0.188757 1
gene 1 38 92 0.216391 0 1264 0.216391 1
gene 1 38 100 -0.149327 0 1272 -0.149327 1
gene 1 38 106 -0.320551 0 1278 -0.320551 1
gene 1 38 112 -0.0716269 0 1284 -0.0716269 1
gene 1 38 113 0.187735 0 1285 0.187735 1
gene 1 38 119 -0.207404 0 1291 -0.207404 1
gene 1 39 88 -0.317667 0 1294 -0.317667 1
gene 1 39 91 0.348811 0 1297 0.348811 1
gene 1 39 104 0.20069 0 1310 0.20069 1
gene 1 39 106 0.68511 0 1312 0.68511 1
gene 1 39 107 0.955687 0 1313 0.955687 1
gene 1 39 112 0.307825 0 1318 0.307825 1
gene 1 39 116 -0.112674 0 1322 -0.112674 1
gene 1 40 88 0.677908 0 1328 0.677908 1
gene 1 40 90 0.470901 0 1330 0.470901 1
gene 1 40 92 -0.475829 0 1332 -0.475829 1
gene 1 40 95 -0.131947 0 1335 -0.131947 1
gene 1 40 98 -0.462172 0 1338 -0.462172 1
gene 1 40 99 0.135075 0 1339 0.135075 1
gene 1 40 108 -0.226188 0 1348 -0.226188 1
gene 1 40 109 0.123783 0 1349 0.123783 1
gene 1 40 110 0.914548 0 1350 0.914548 1
gene 1 40 112 0.192145 0 1352 0.192145 1
gene 1 40 114 0.90463 0 1354 0.90463 1
gene 1 40 117 -0.251259 0 1357 -0.251259 1
gene 1 40 119 -0.953276 0 1359 -0.953276 1
gene 1 41 89 0.749657 0 1363 0.749657 1
gene 1 41 93 -0.227622 0 1367 -0.227622 1
gene 1 41 100 0.290994 0 1374 0.290994 1
gene 1 41 105 0.159001 0 1379 0.159001 1
gene 1 41 111 -0.281182 0 1385 -0.281182 1
gene 1 41 117 -0.775994 0 1391 -0.775994 1
gene 1 41 119 0.531327 0 1393 0.531327 1
gene 1 42 89 -0.694296 0 1397 -0.694296 1
gene 1 42 94 0.935179 0 1402 0.935179 1
gene 1 42 97 -0.463759 0 1405 -0.463759 1
gene 1 42 98 0.223823 0 1406 0.223823 1
gene 1 42 101 0.163884 0 1409 0.163884 1
gene 1 42 102 0.356578 0 1410 0.356578 1
gene 1 42 105 0.651387 0 1413 0.651387 1
gene 1 42 106 -0.476043 0 1414 -0.476043 1
gene 1 42 107 0.144368 0 1415 0.144368 1
gene 1 42 108 -0.946532 0 1416 -0.946532 1
gene 1 42 110 0.497101 0 1418 0.497101 1
gene 1 42 111 -0.00668355 0 1419 -0.00668355 1
gene 1 42 112 -0.805399 0 1420 -0.805399 1
gene 1 42 113 -0.917158 0 1421 -0.917158 1
gene 1 43 86 0.921278 0 1428 0.921278 1
gene 1 43 87 -0.0117801 0 1429 -0.0117801 1
gene 1 43 88 -0.150029 0 1430 -0.150029 1
gene 1 43 100 -0.109165 0 1442 -0.109165 1
gene 1 43 101 0.104297 0 1443 0.104297 1
gene 1 43 104 -0.215003 0 1446 -0.215003 1
gene 1 43 110 -0.946043 0 1452 -0.946043 1
gene 1 43 114 -0.666036 0 1456 -0.666036 1
gene 1 44 86 0.318613 0 1462 0.318613 1
gene 1 44 89 0.0901822 0 1465 0.0901822 1
gene 1 44 90 -0.208258 0 1466 -0.208258 1
gene 1 44 94 0.812128 0 1470 0.812128 1
gene 1 44 98 0.274148 0 1474 0.274148 1
gene 1 44 99 -0.477111 0 1475 -0.477111 1
gene 1 44 102 -0.0121464 0 1478 -0.0121464 1
gene 1 44 103 0.915494 0 1479 0.915494 1
gene 1 44 104 0.426939 0 1480 0.426939 1
gene 1 44 106 -0.412381 0 1482 -0.412381 1
gene 1 44 111 0.187017 0 1487 0.187017 1
gene 1 44 113 0.703986 0 1489 0.703986 1
gene 1 44 115 -0.988708 0 1491 -0.988708 1
gene 1 44 117 -0.693838 0 1493 -0.693838 1
gene 1 45 90 0.297113 0 1500 0.297113 1
gene 1 45 99 0.370067 0 1509 0.370067 1
gene 1 45 100 -0.634083 0 1510 -0.634083 1
gene 1 46 88 0.112323 0 1532 0.112323 1
gene 1 46 89 0.2772 0 1533 0.2772 1
gene 1 46 91 -0.00866726 0 1535 -0.00866726 1
gene 1 46 92 0.655171 0 1536 0.655171 1
gene 1 46 96 -0.291025 0 1540 -0.291025 1
gene 1 46 99 -0.298196 0 1543 -0.298196 1
gene 1 46 109 -0.385174 0 1553 -0.385174 1
gene 1 46 110 0.165502 0 1554 0.165502 1
gene 1 46 113 0.666738 0 1557 0.666738 1
gene 1 46 116 -0.568087 0 1560 -0.568087 1
gene 1 47 86 -0.443724 0 1564 -0.443724 1
gene 1 47 90 0.461211 0 1568 0.461211 1
gene 1 47 92 -0.100833 0 1570 -0.100833 1
gene 1 47 95 -0.351634 0 1573 -0.351634 1
gene 1 47 98 0.0273446 0 1576 0.0273446 1
gene 1 47 101 -0.878368 0 1579 -0.878368 1
gene 1 47 102 -0.336375 0 1580 -0.336375 1
gene 1 47 109 -0.511032 0 1587 -0.511032 1
gene 1 47 113 -0.0509812 0 1591 -0.0509812 1
gene 1 48 87 0.13187 0 1599 0.13187 1
gene 1 48 92 0.675893 0 1604 0.675893 1
gene 1 48 93 0.0833766 0 1605 0.0833766 1
gene 1 48 95 -0.560289 0 1607 -0.560289 1
gene 1 48 96 -0.653539 0 1608 -0.653539 1
gene 1 48 101 -0.58388 0 1613 -0.58388 1
gene 1 48 102 0.275658 0 1614 0.275658 1
gene 1 48 105 0.331889 0 1617 0.331889 1
gene 1 48 106 -0.4494 0 1618 -0.4494 1
gene 1 48 109 0.487075 0 1621 0.487075 1
gene 1 48 113 0.523911 0 1625 0.523911 1
gene 1 48 115 0.0601215 0 1627 0.0601215 1
gene 1 48 119 0.616993 0 1631 0.616993 1
gene 1 49 87 0.24543 0 1633 0.24543 1
gene 1 49 92 -0.591357 0 1638 -0.591357 1
gene 1 49 99 -0.0553606 0 1645 -0.0553606 1
gene 1 49 100 -0.180181 0 1646 -0.180181 1
gene 1 49 101 0.440016 0 1647 0.440016 1
gene 1 49 104 -0.286843 0 1650 -0.286843 1
gene 1 49 106 -0.526994 0 1652 -0.526994 1
gene 1 49 107 -0.142048 0 1653 -0.142048 1
gene 1 49 112 -0.0663167 0 1658 -0.0663167 1
gene 1 49 116 -0.282876 0 1662 -0.282876 1
gene 1 50 88 0.112171 0 1668 0.112171 1
gene 1 50 90 0.391781 0 1670 0.391781 1
gene 1 50 94 -0.0726798 0 1674 -0.0726798 1
gene 1 50 95 0.180212 0 1675 0.180212 1
gene 1 50 96 0.456923 0 1676 0.456923 1
gene 1 50 103 0.630253 0 1683 0.630253 1
gene 1 50 114 0.143452 0 1694 0.143452 1
gene 1 50 115 0.67275 0 1695 0.67275 1
gene 1 51 90 0.172384 0 1704 0.172384 1
gene 1 51 106 0.266015 0 1720 0.266015 1
gene 1 51 108 -0.748131 0 1722 -0.748131 1
gene 1 52 88 0.224525 0 1736 0.224525 1
gene 1 52 93 0.277749 0 1741 0.277749 1
gene 1 52 98 0.0908078 0 1746 0.0908078 1
gene 1 52 99 -0.453307 0 1747 -0.453307 1
gene 1 52 104 0.296091 0 1752 0.296091 1
gene 1 52 107 0.460158 0 1755 0.460158 1
gene 1 52 113 0.599704 0 1761 0.599704 1
gene 1 52 119 0.517121 0 1767 0.517121 1
gene 1 53 90 0.451949 0 1772 0.451949 1
gene 1 53 98 -0.47383 0 1780 -0.47383 1
gene 1 53 107 -0.194067 0 1789 -0.194067 1
gene 1 53 111 -0.674764 0 1793 -0.674764 1
gene 1 53 112 0.565996 0 1794 0.565996 1
gene 1 53 114 0.914121 0 1796 0.914121 1
gene 1 53 115 -0.633778 0 1797 -0.633778 1
gene 1 53 119 -0.190313 0 1801 -0.190313 1
gene 1 54 89 -0.0675069 0 1805 -0.0675069 1
gene 1 54 91 -0.304224 0 1807 -0.304224 1
gene 1 54 93 -0.582888 0 1809 -0.582888 1
gene 1 54 95 0.564302 0 1811 0.564302 1
gene 1 54 105 -0.641392 0 1821 -0.641392 1
gene 1 54 106 0.567553 0 1822 0.567553 1
gene 1 54 110 -0.735588 0 1826 -0.735588 1
gene 1 55 86 -0.132786 0 1836 -0.132786 1
gene 1 55 92 0.890912 0 1842 0.890912 1
gene 1 55 95 0.962615 0 1845 0.962615 1
gene 1 55 97 0.349895 0 1847 0.349895 1
gene 1 55 112 0.715049 0 1862 0.715049 1
gene 1 55 113 -0.433943 0 1863 -0.433943 1
gene 1 55 114 0.349376 0 1864 0.349376 1
gene 1 55 119 -0.0450453 0 1869 -0.0450453 1
gene 1 56 88 -0.739525 0 1872 -0.739525 1
gene 1 56 96 -0.365307 0 1880 -0.365307 1
gene 1 56 108 -0.632344 0 1892 -0.632344 1
gene 1 56 111 -0.216041 0 1895 -0.216041 1
gene 1 56 118 -0.806513 0 1902 -0.806513 1
gene 1 57 108 -0.332316 0 1926 -0.332316 1
gene 1 57 112 -0.629688 0 1930 -0.629688 1
gene 1 57 114 -0.331584 0 1932 -0.331584 1
gene 1 57 115 0.429868 0 1933 0.429868 1
gene 1 58 88 -0.350261 0 1940 -0.350261 1
gene 1 58 91 0.714927 0 1943 0.714927 1
gene 1 58 92 0.903806 0 1944 0.903806 1
gene 1 58 93 0.764061 0 1945 0.764061 1
gene 1 58 94 0.201819 0 1946 0.201819 1
gene 1 58 95 0.309748 0 1947 0.309748 1
gene 1 58 96 0.188208 0 1948 0.188208 1
gene 1 58 97 -0.675527 0 1949 -0.675527 1
gene 1 58 101 -0.00395215 0 1953 -0.00395215 1
gene 1 58 103 -0.752281 0 1955 -0.752281 1
gene 1 58 104 0.594501 0 1956 0.594501 1
gene 1 58 116 -0.0316935 0 1968 -0.0316935 1
gene 1 59 87 0.577807 0 1973 0.577807 1
gene 1 59 88 0.535981 0 1974 0.535981 1
gene 1 59 90 0.723075 0 1976 0.723075 1
gene 1 59 91 0.329447 0 1977 0.329447 1
gene 1 59 96 -0.801508 0 1982 -0.801508 1
gene 1 59 97 0.294351 0 1983 0.294351 1
gene 1 59 102 -0.948424 0 1988 -0.948424 1
gene 1 59 104 0.558687 0 1990 0.558687 1
gene 1 59 110 0.134159 0 1996 0.134159 1
gene 1 59 111 0.439131 0 1997 0.439131 1
gene 1 59 114 0.173009 0 2000 0.173009 1
gene 1 59 115 -0.0770898 0 2001 -0.0770898 1
gene 1 59 116 -0.47499 0 2002 -0.47499 1
gene 1 59 119 -0.688498 0 2005 -0.688498 1
gene 1 60 86 -0.206122 0 2006 -0.206122 1
gene 1 60 87 0.0765099 0 2007 0.0765099 1
gene 1 60 91 0.457686 0 2011 0.457686 1
gene 1 60 92 0.74633 0 2012 0.74633 1
gene 1 60 94 0.767815 0 2014 0.767815 1
gene 1 60 98 0.48413 0 2018 0.48413 1
gene 1 60 99 -0.0899533 0 2019 -0.0899533 1
gene 1 60 101 -0.372204 0 2021 -0.372204 1
gene 1 60 103 -0.106021 0 2023 -0.106021 1
gene 1 60 113 -0.590884 0 2033 -0.590884 1
gene 1 60 115 0.227897 0 2035 0.227897 1
gene 1 61 86 0.405652 0 2040 0.405652 1
gene 1 61 88 -0.309519 0 2042 -0.309519 1
gene 1 61 91 0.851955 0 2045 0.851955 1
gene 1 61 92 -0.545824 0 2046 -0.545824 1
gene 1 61 97 0.690359 0 2051 0.690359 1
gene 1 61 101 -0.209067 0 2055 -0.209067 1
gene 1 61 102 -0.940184 0 2056 -0.940184 1
gene 1 61 106 -0.435087 0 2060 -0.435087 1
gene 1 61 108 0.645131 0 2062 0.645131 1
gene 1 61 110 -0.297433 0 2064 -0.297433 1
gene 1 61 111 -0.423948 0 2065 -0.423948 1
gene 1 61 115 0.31286 0 2069 0.31286 1
gene 1 62 90 0.391675 0 2078 0.391675 1
gene 1 62 95 -0.555147 0 2083 -0.555147 1
gene 1 62 97 0.440596 0 2085 0.440596 1
gene 1 62 99 -0.525224 0 2087 -0.525224 1
gene 1 62 101 -0.708792 0 2089 -0.708792 1
gene 1 62 103 0.358776 0 2091 0.358776 1
gene 1 62 104 -0.372387 0 2092 -0.372387 1
gene 1 62 115 -0.840999 0 2103 -0.840999 1
gene 1 62 116 -0.454436 0 2104 -0.454436 1
gene 1 63 94 -0.486938 0 2116 -0.486938 1
gene 1 63 96 -0.387753 0 2118 -0.387753 1
gene 1 63 108 -0.431684 0 2130 -0.431684 1
gene 1 63 110 -0.240059 0 2132 -0.240059 1
gene 1 63 111 0.0692312 0 2133 0.0692312 1
gene 1 63 112 -0.0133366 0 2134 -0.0133366 1
gene 1 64 88 -0.101138 0 2144 -0.101138 1
gene 1 64 91 0.708777 0 2147 0.708777 1
gene 1 64 94 0.434599 0 2150 0.434599 1
gene 1 64 98 0.0775475 0 2154 0.0775475 1
gene 1 64 101 -0.0417341 0 2157 -0.0417341 1
gene 1 64 104 -0.104587 0 2160 -0.104587 1
gene 1 64 105 -0.213965 0 2161 -0.213965 1
gene 1 64 109 -0.579638 0 2165 -0.579638 1
gene 1 64 112 -0.602374 0 2168 -0.602374 1
gene 1 64 115 -0.162786 0 2171 -0.162786 1
gene 1 64 118 0.368572 0 2174 0.368572 1
gene 1 65 88 -0.025483 0 2178 -0.025483 1
gene 1 65 95 0.346812 0 2185 0.346812 1
gene 1 65 100 0.0310373 0 2190 0.0310373 1
gene 1 65 111 -0.450117 0 2201 -0.450117 1
gene 1 65 113 -0.393551 0 2203 -0.393551 1
gene 1 65 117 -0.317133 0 2207 -0.317133 1
gene 1 66 88 0.589709 0 2212 0.589709 1
gene 1 66 89 -0.0688498 0 2213 -0.0688498 1
gene 1 66 91 -0.0908689 0 2215 -0.0908689 1
gene 1 66 98 0.0317087 0 2222 0.0317087 1
gene 1 66 100 -0.168676 0 2224 -0.168676 1
gene 1 66 108 -0.963958 0 2232 -0.963958 1
gene 1 66 111 -0.433546 0 2235 -0.433546 1
gene 1 66 112 -0.0235298 0 2236 -0.0235298 1
gene 1 66 115 -0.663381 0 2239 -0.663381 1
gene 1 66 117 0.0891293 0 2241 0.0891293 1
gene 1 66 118 -0.0665761 0 2242 -0.0665761 1
gene 1 67 86 0.108493 0 2244 0.108493 1
gene 1 67 103 0.0229652 0 2261 0.0229652 1
gene 1 67 106 0.911161 0 2264 0.911161 1
gene 1 67 109 0.899319 0 2267 0.899319 1
gene 1 67 112 0.787591 0 2270 0.787591 1
gene 1 67 116 0.59743 0 2274 0.59743 1
gene 1 67 119 0.185156 0 2277 0.185156 1
gene 1 68 87 0.493149 0 2279 0.493149 1
gene 1 68 91 0.796136 0 2283 0.796136 1
gene 1 68 93 0.265755 0 2285 0.265755 1
gene 1 68 105 0.823115 0 2297 0.823115 1
gene 1 68 110 -0.654744 0 2302 -0.654744 1
gene 1 68 112 0.144566 0 2304 0.144566 1
gene 1 69 88 -0.0133213 0 2314 -0.0133213 1
gene 1 69 89 0.759392 0 2315 0.759392 1
gene 1 69 91 -0.20896 0 2317 -0.20896 1
gene 1 69 94 0.00192267 0 2320 0.00192267 1
gene 1 69 96 0.715339 0 2322 0.715339 1
gene 1 69 97 0.277169 0 2323 0.277169 1
gene 1 69 98 -0.611866 0 2324 -0.611866 1
gene 1 69 104 0.614277 0 2330 0.614277 1
gene 1 69 108 -0.14069 0 2334 -0.14069 1
gene 1 69 113 -0.0744041 0 2339 -0.0744041 1
gene 1 69 115 0.703604 0 2341 0.703604 1
gene 1 70 88 0.672567 0 2348 0.672567 1
gene 1 70 89 -0.910001 0 2349 -0.910001 1
gene 1 70 93 0.596927 0 2353 0.596927 1
gene 1 70 95 -0.408429 0 2355 -0.408429 1
gene 1 70 96 0.802942 0 2356 0.802942 1
gene 1 70 98 -0.0192267 0 2358 -0.0192267 1
gene 1 70 109 -0.542253 0 2369 -0.542253 1
gene 1 70 114 -0.482681 0 2374 -0.482681 1
gene 1 70 115 0.518967 0 2375 0.518967 1
gene 1 70 119 0.990844 0 2379 0.990844 1
gene 1 71 86 -0.357799 0 2380 -0.357799 1
gene 1 71 87 -0.603412 0 2381 -0.603412 1
gene 1 71 88 -0.256935 0 2382 -0.256935 1
gene 1 71 91 0.236396 0 2385 0.236396 1
gene 1 71 97 -0.00350963 0 2391 -0.00350963 1
gene 1 71 98 -0.0180822 0 2392 -0.0180822 1
gene 1 71 100 0.561052 0 2394 0.561052 1
gene 1 71 106 -0.797067 0 2400 -0.797067 1
gene 1 71 108 0.750511 0 2402 0.750511 1
gene 1 71 110 0.0376751 0 2404 0.0376751 1
gene 1 71 111 0.442793 0 2405 0.442793 1
gene 1 71 112 -0.274117 0 2406 -0.274117 1
gene 1 72 86 0.136052 0 2414 0.136052 1
gene 1 72 94 -0.651021 0 2422 -0.651021 1
gene 1 72 97 -0.831385 0 2425 -0.831385 1
gene 1 72 101 -0.132023 0 2429 -0.132023 1
gene 1 72 105 0.467696 0 2433 0.467696 1
gene 1 72 107 -0.206214 0 2435 -0.206214 1
gene 1 72 112 0.45468 0 2440 0.45468 1
gene 1 72 114 0.171361 0 2442 0.171361 1
gene 1 73 95 0.951903 0 2457 0.951903 1
gene 1 73 97 -0.157735 0 2459 -0.157735 1
gene 1 73 100 0.820627 0 2462 0.820627 1
gene 1 73 111 0.340037 0 2473 0.340037 1
gene 1 73 113 0.42465 0 2475 0.42465 1
gene 1 73 115 0.690802 0 2477 0.690802 1
gene 1 73 116 0.547472 0 2478 0.547472 1
gene 1 73 117 0.718009 0 2479 0.718009 1
gene 1 74 89 0.847774 0 2485 0.847774 1
gene 1 74 95 0.381542 0 2491 0.381542 1
gene 1 74 100 -0.311136 0 2496 -0.311136 1
gene 1 74 101 0.0574511 0 2497 0.0574511 1
gene 1 74 107 0.0778222 0 2503 0.0778222 1
gene 1 74 111 -0.141591 0 2507 -0.141591 1
gene 1 74 116 -0.056093 0 2512 -0.056093 1
gene 1 75 91 0.25782 0 2521 0.25782 1
gene 1 75 95 -0.730186 0 2525 -0.730186 1
gene 1 75 100 0.212653 0 2530 0.212653 1
gene 1 75 103 -0.203192 0 2533 -0.203192 1
gene 1 75 107 0.239677 0 2537 0.239677 1
gene 1 75 108 -0.315073 0 2538 -0.315073 1
gene 1 75 111 0.636158 0 2541 0.636158 1
gene 1 75 114 -0.814035 0 2544 -0.814035 1
gene 1 75 117 -0.316233 0 2547 -0.316233 1
gene 1 76 86 0.373577 0 2550 0.373577 1
gene 1 76 87 0.253304 0 2551 0.253304 1
gene 1 76 94 -0.85876 0 2558 -0.85876 1
gene 1 76 99 0.111011 0 2563 0.111011 1
gene 1 76 104 -0.213645 0 2568 -0.213645 1
gene 1 76 106 0.0970489 0 2570 0.0970489 1
gene 1 76 112 0.924375 0 2576 0.924375 1
gene 1 76 118 -0.725364 0 2582 -0.725364 1
gene 1 77 87 -0.379589 0 2585 -0.379589 1
gene 1 77 90 0.644475 0 2588 0.644475 1
gene 1 77 93 -0.28959 0 2591 -0.28959 1
gene 1 77 95 0.744652 0 2593 0.744652 1
gene 1 77 100 -0.0857418 0 2598 -0.0857418 1
gene 1 77 102 -0.343333 0 2600 -0.343333 1
gene 1 77 104 0.005768 0 2602 0.005768 1
gene 1 77 107 0.706503 0 2605 0.706503 1
gene 1 77 111 -0.633473 0 2609 -0.633473 1
gene 1 77 114 0.151067 0 2612 0.151067 1
gene 1 78 89 -0.644368 0 2621 -0.644368 1
gene 1 78 92 0.0854213 0 2624 0.0854213 1
gene 1 78 94 0.61005 0 2626 0.61005 1
gene 1 78 99 0.0988495 0 2631 0.0988495 1
gene 1 78 102 -0.831965 0 2634 -0.831965 1
gene 1 78 103 0.207038 0 2635 0.207038 1
gene 1 78 104 0.0976592 0 2636 0.0976592 1
gene 1 78 105 0.42375 0 2637 0.42375 1
gene 1 78 106 0.211829 0 2638 0.211829 1
gene 1 78 110 0.143925 0 2642 0.143925 1
gene 1 79 89 -0.564714 0 2655 -0.564714 1
gene 1 79 94 0.595721 0 2660 0.595721 1
gene 1 79 95 -0.209922 0 2661 -0.209922 1
gene 1 79 102 -0.601947 0 2668 -0.601947 1
gene 1 79 105 0.102512 0 2671 0.102512 1
gene 1 79 111 -0.555559 0 2677 -0.555559 1
gene 1 79 115 -0.451079 0 2681 -0.451079 1
gene 1 79 117 -0.688894 0 2683 -0.688894 1
gene 1 79 118 -0.201727 0 2684 -0.201727 1
gene 1 79 119 0.685446 0 2685 0.685446 1
gene 1 80 88 0.469955 0 2688 0.469955 1
gene 1 80 93 -0.0413068 0 2693 -0.0413068 1
gene 1 80 95 -0.300974 0 2695 -0.300974 1
gene 1 80 108 0.197287 0 2708 0.197287 1
gene 1 80 109 0.850032 0 2709 0.850032 1
gene 1 80 115 0.26809 0 2715 0.26809 1
gene 1 80 119 -0.766228 0 2719 -0.766228 1
gene 1 81 88 0.184576 0 2722 0.184576 1
gene 1 81 89 -0.685919 0 2723 -0.685919 1
gene 1 81 92 -0.338633 0 2726 -0.338633 1
gene 1 81 100 0.633427 0 2734 0.633427 1
gene 1 81 102 0.493469 0 2736 0.493469 1
gene 1 81 108 -0.0195929 0 2742 -0.0195929 1
gene 1 81 114 0.24308 0 2748 0.24308 1
gene 1 82 86 -0.658742 0 2754 -0.658742 1
gene 1 82 87 -0.456648 0 2755 -0.456648 1
gene 1 82 91 -0.883297 0 2759 -0.883297 1
gene 1 82 94 -0.136845 0 2762 -0.136845 1
gene 1 82 97 -0.270302 0 2765 -0.270302 1
gene 1 82 98 -0.780908 0 2766 -0.780908 1
gene 1 82 107 0.609043 0 2775 0.609043 1
gene 1 82 108 0.458373 0 2776 0.458373 1
gene 1 82 111 0.926145 0 2779 0.926145 1
gene 1 82 116 -0.396664 0 2784 -0.396664 1
gene 1 83 87 0.294259 0 2789 0.294259 1
gene 1 83 93 -0.445631 0 2795 -0.445631 1
gene 1 83 111 -0.852443 0 2813 -0.852443 1
gene 1 83 113 0.838832 0 2815 0.838832 1
gene 1 84 88 -0.974609 0 2824 -0.974609 1
gene 1 84 92 0.0713981 0 2828 0.0713981 1
gene 1 84 94 0.0527665 0 2830 0.0527665 1
gene 1 84 102 -0.702322 0 2838 -0.702322 1
gene 1 84 104 0.416898 0 2840 0.416898 1
gene 1 84 106 0.657567 0 2842 0.657567 1
gene 1 84 109 -0.982727 0 2845 -0.982727 1
gene 1 85 86 -0.752617 0 2856 -0.752617 1
gene 1 85 87 0.152501 0 2857 0.152501 1
gene 1 85 90 -0.228339 0 2860 -0.228339 1
gene 1 85 96 -0.212775 0 2866 -0.212775 1
gene 1 85 100 -0.18688 0 2870 -0.18688 1
gene 1 85 105 0.517975 0 2875 0.517975 1
gene 1 85 112 -0.418958 0 2882 -0.418958 1
gene 1 85 114 -0.465835 0 2884 -0.465835 1
gene 1 85 115 0.168249 0 2885 0.168249 1
genomeend 0

/* Organism #1 Fitness: 5 Error: 0 */
genomestart 1
trait 1 0.1 0 0 0 0 0 0 0 
node 1 1 1 3
node 2 1 1 1
node 3 1 1 1
node 4 1 1 1
node 5 1 1 1
node 6 1 1 1
node 7 1 1 1
node 8 1 1 1
node 9 1 1 1
node 10 1 1 1
node 11 1 1 1
node 12 1 1 1
node 13 1 1 1
node 14 1 1 1
node 15 1 1 1
node 16 1 1 1
node 17 1 1 1
node 18 1 1 1
node 19 1 1 1
node 20 1 1 1
node 21 1 1 1
node 22 1 1 1
node 23 1 1 1
node 24 1 1 1
node 25 1 1 1
node 26 1 1 1
node 27 1 1 1
node 28 1 1 1
node 29 1 1 1
node 30 1 1 1
node 31 1 1 1
node 32 1 1 1
node 33 1 1 1
node 34 1 1 1
node 35 1 1 1
node 36 1 1 1
node 37 1 1 1
node 38 1 1 1
node 39 1 1 1
node 40 1 1 1
node 41 1 1 1
node 42 1 1 1
node 43 1 1 1
node 44 1 1 1
node 45 1 1 1
node 46 1 1 1
node 47 1 1 1
node 48 1 1 1
node 49 1 1 1
node 50 1 1 1
node 51 1 1 1
node 52 1 1 1
node 53 1 1 1
node 54 1 1 1
node 55 1 1 1
node 56 1 1 1
node 57 1 1 1
node 58 1 1 1
node 59 1 1 1
node 60 1 1 1
node 61 1 1 1
node 62 1 1 1
node 63 1 1 1
node 64 1 1 1
node 65 1 1 1
node 66 1 1 1
node 67 1 1 1
node 68 1 1 1
node 69 1 1 1
node 70 1 1 1
node 71 1 1 1
node 72 1 1 1
node 73 1 1 1
node 74 1 1 1
node 75 1 1 1
node 76 1 1 1
node 77 1 1 1
node 78 1 1 1
node 79 1 1 1
node 80 1 1 1
node 81 1 1 1
node 82 1 1 1
node 83 1 1 1
node 84 1 1 1
node 85 1 1 1
node 86 1 0 2
node 87 1 0 2
node 88 1 0 2
node 89 1 0 2
node 90 1 0 2
node 91 1 0 2
node 92 1 0 2
node 93 1 0 2
node 94 1 0 2
node 95 1 0 2
node 96 1 0 2
node 97 1 0 2
node 98 1 0 2
node 99 1 0 2
node 100 1 0 2
node 101 1 0 2
node 102 1 0 2
node 103 1 0 2
node 104 1 0 2
node 105 1 0 2
node 106 1 0 2
node 107 1 0 2
node 108 1 0 2
node 109 1 0 2
node 110 1 0 2
node 111 1 0 2
node 112 1 0 2
node 113 1 0 2
node 114 1 0 2
node 115 1 0 2
node 116 1 0 2
node 117 1 0 2
node 118 1 0 2
node 119 1 0 2
node 120 1 0 0
gene 1 1 86 1.71998 0 0 1.71998 1
gene 1 1 90 -0.531831 0 4 -0.531831 1
gene 1 1 91 -0.621128 0 5 -0.621128 1
gene 1 1 94 0.337626 0 8 0.337626 1
gene 1 1 99 -1.24938 0 13 -1.24938 1
gene 1 1 102 -2.82101 0 16 -2.82101 1
gene 1 1 106 2.03565 0 20 2.03565 1
gene 1 1 109 -1.46611 0 23 -1.46611 1
gene 1 1 114 -1.45921 0 28 -1.45921 1
gene 1 1 115 -0.59418 0 29 -0.59418 1
gene 1 1 118 -1.82562 0 32 -1.82562 1
gene 1 1 119 -1.55264 0 33 -1.55264 1
gene 1 2 87 2.51352 0 35 2.51352 1
gene 1 2 93 2.10564 0 41 2.10564 1
gene 1 2 99 -1.41331 0 47 -1.41331 1
gene 1 2 103 1.15874 0 51 1.15874 1
gene 1 2 105 0.331156 0 53 0.331156 1
gene 1 2 108 -2.41125 0 56 -2.41125 1
gene 1 2 109 -2.19131 0 57 -2.19131 1
gene 1 2 110 -2.8213 0 58 -2.8213 1
gene 1 2 114 -1.7441 0 62 -1.7441 1
gene 1 3 88 -1.94682 0 70 -1.94682 1
gene 1 3 89 -1.58345 0 71 -1.58345 1
gene 1 3 101 0.47354 0 83 0.47354 1
gene 1 3 107 0.239692 0 89 0.239692 1
gene 1 3 109 -0.0128483 0 91 -0.0128483 1
gene 1 3 111 -2.77972 0 93 -2.77972 1
gene 1 3 114 1.7936 0 96 1.7936 1
gene 1 3 119 -1.70891 0 101 -1.70891 1
gene 1 4 90 1.66335 0 106 1.66335 1
gene 1 4 93 -1.31755 0 109 -1.31755 1
gene 1 4 98 -0.280313 0 114 -0.280313 1
gene 1 4 100 1.69025 0 116 1.69025 1
gene 1 4 102 2.50787 0 118 2.50787 1
gene 1 4 104 2.35398 0 120 2.35398 1
gene 1 4 106 1.54694 0 122 1.54694 1
gene 1 4 109 0.123844 0 125 0.123844 1
gene 1 4 110 0.0963775 0 126 0.0963775 1
gene 1 4 112 1.24969 0 128 1.24969 1
gene 1 4 113 1.16984 0 129 1.16984 1
gene 1 4 117 0.0817438 0 133 0.0817438 1
gene 1 5 91 -0.609973 0 141 -0.609973 1
gene 1 5 92 3.07498 0 142 3.07498 1
gene 1 5 98 0.098468 0 148 0.098468 1
gene 1 5 100 -0.404782 0 150 -0.404782 1
gene 1 5 102 -1.05498 0 152 -1.05498 1
gene 1 5 109 0.542695 0 159 0.542695 1
gene 1 5 114 -2.60189 0 164 -2.60189 1
gene 1 5 119 -2.98732 0 169 -2.98732 1
gene 1 6 87 -0.109317 0 171 -0.109317 1
gene 1 6 88 1.5175 0 172 1.5175 1
gene 1 6 90 -0.552889 0 174 -0.552889 1
gene 1 6 93 0.0671255 0 177 0.0671255 1
gene 1 6 94 1.78089 0 178 1.78089 1
gene 1 6 100 -1.33644 0 184 -1.33644 1
gene 1 6 105 -2.11393 0 189 -2.11393 1
gene 1 6 115 0.562761 0 199 0.562761 1
gene 1 6 119 -1.03081 0 203 -1.03081 1
gene 1 7 90 -2.47853 0 208 -2.47853 1
gene 1 7 93 -3.31881 0 211 -3.31881 1
gene 1 7 95 -0.101093 0 213 -0.101093 1
gene 1 7 101 2.29368 0 219 2.29368 1
gene 1 7 102 -1.00247 0 220 -1.00247 1
gene 1 7 104 -0.0738243 0 222 -0.0738243 1
gene 1 7 108 -0.876766 0 226 -0.876766 1
gene 1 7 111 -2.18479 0 229 -2.18479 1
gene 1 7 114 1.73518 0 232 1.73518 1
gene 1 8 86 0.314341 0 238 0.314341 1
gene 1 8 87 2.71773 0 239 2.71773 1
gene 1 8 91 1.46007 0 243 1.46007 1
gene 1 8 96 0.46614 0 248 0.46614 1
gene 1 8 100 -1.63819 0 252 -1.63819 1
gene 1 8 101 -1.35183 0 253 -1.35183 1
gene 1 8 105 0.586047 0 257 0.586047 1
gene 1 8 107 1.53661 0 259 1.53661 1
gene 1 8 109 -0.4803 0 261 -0.4803 1
gene 1 8 113 1.93497 0 265 1.93497 1
gene 1 8 117 -0.382473 0 269 -0.382473 1
gene 1 9 93 1.61089 0 279 1.61089 1
gene 1 9 94 -0.84283 0 280 -0.84283 1
gene 1 9 96 1.32261 0 282 1.32261 1
gene 1 9 100 -2.44726 0 286 -2.44726 1
gene 1 9 107 0.0987426 0 293 0.0987426 1
gene 1 9 108 0.597537 0 294 0.597537 1
gene 1 9 116 -1.32705 0 302 -1.32705 1
gene 1 9 117 -1.31143 0 303 -1.31143 1
gene 1 9 119 1.12613 0 305 1.12613 1
gene 1 10 86 1.05989 0 306 1.05989 1
gene 1 10 88 -0.0360424 0 308 -0.0360424 1
gene 1 10 99 -2.19965 0 319 -2.19965 1
gene 1 10 102 -0.701575 0 322 -0.701575 1
gene 1 10 104 2.42004 0 324 2.42004 1
gene 1 10 106 -1.30729 0 326 -1.30729 1
gene 1 10 107 0.396863 0 327 0.396863 1
gene 1 10 114 -1.78832 0 334 -1.78832 1
gene 1 11 90 -2.77439 0 344 -2.77439 1
gene 1 11 97 -0.348704 0 351 -0.348704 1
gene 1 11 107 1.37414 0 361 1.37414 1
gene 1 11 109 1.34231 0 363 1.34231 1
gene 1 11 110 2.37616 0 364 2.37616 0
gene 1 11 112 0.969298 0 366 0.969298 1
gene 1 11 113 -0.55269 0 367 -0.55269 1
gene 1 11 115 2.52036 0 369 2.52036 1
gene 1 11 116 0.730644 0 370 0.730644 1
gene 1 11 117 -2.55287 0 371 -2.55287 1
gene 1 11 118 0.598422 0 372 0.598422 1
gene 1 12 90 -1.33219 0 378 -1.33219 1
gene 1 12 98 0.216849 0 386 0.216849 1
gene 1 12 106 -2.0585 0 394 -2.0585 1
gene 1 12 113 -1.58332 0 401 -1.58332 1
gene 1 12 116 2.14545 0 404 2.14545 1
gene 1 13 93 -0.322077 0 415 -0.322077 1
gene 1 13 94 0.27401 0 416 0.27401 1
gene 1 13 95 0.951949 0 417 0.951949 1
gene 1 13 98 -2.18586 0 420 -2.18586 1
gene 1 13 99 -1.26177 0 421 -1.26177 1
gene 1 13 100 0.173559 0 422 0.173559 1
gene 1 13 109 -1.32929 0 431 -1.32929 1
gene 1 13 117 -0.235664 0 439 -0.235664 1
gene 1 14 87 -0.942518 0 443 -0.942518 1
gene 1 14 88 1.31297 0 444 1.31297 1
gene 1 14 91 2.06796 0 447 2.06796 1
gene 1 14 100 1.19314 0 456 1.19314 1
gene 1 14 103 2.6072 0 459 2.6072 1
gene 1 14 105 -2.78533 0 461 -2.78533 1
gene 1 14 114 -1.22724 0 470 -1.22724 1
gene 1 14 117 -1.3301 0 473 -1.3301 1
gene 1 14 119 2.3513 0 475 2.3513 1
gene 1 15 91 0.497955 0 481 0.497955 1
gene 1 15 94 -0.80459 0 484 -0.80459 1
gene 1 15 96 0.0938444 0 486 0.0938444 1
gene 1 15 103 -2.0667 0 493 -2.0667 1
gene 1 15 105 0.0457778 0 495 0.0457778 1
gene 1 15 107 2.67061 0 497 2.67061 1
gene 1 15 110 -2.01656 0 500 -2.01656 1
gene 1 15 111 1.98231 0 501 1.98231 1
gene 1 15 112 -2.43136 0 502 -2.43136 1
gene 1 16 86 -0.486663 0 510 -0.486663 1
gene 1 16 93 -0.955718 0 517 -0.955718 1
gene 1 16 100 1.4959 0 524 1.4959 1
gene 1 16 102 1.28864 0 526 1.28864 1
gene 1 16 105 -0.880337 0 529 -0.880337 1
gene 1 16 109 -2.05452 0 533 -2.05452 1
gene 1 16 118 2.7024 0 542 2.7024 1
gene 1 17 87 2.38212 0 545 2.38212 1
gene 1 17 88 -0.740242 0 546 -0.740242 1
gene 1 17 89 -0.531693 0 547 -0.531693 1
gene 1 17 91 2.25483 0 549 2.25483 1
gene 1 17 92 -2.72546 0 550 -2.72546 1
gene 1 17 96 -2.12558 0 554 -2.12558 1
gene 1 17 98 1.4019 0 556 1.4019 1
gene 1 17 99 -2.57396 0 557 -2.57396 1
gene 1 17 100 1.47159 0 558 1.47159 1
gene 1 17 102 2.23927 0 560 2.23927 1
gene 1 17 109 -1.59301 0 567 -1.59301 1
gene 1 17 111 1.88995 0 569 1.88995 1
gene 1 18 90 1.58516 0 582 1.58516 1
gene 1 18 97 1.83686 0 589 1.83686 1
gene 1 18 100 -2.68447 0 592 -2.68447 1
gene 1 18 102 -2.07439 0 594 -2.07439 1
gene 1 18 107 2.47699 0 599 2.47699 1
gene 1 18 108 -1.2046 0 600 -1.2046 1
gene 1 18 110 0.118046 0 602 0.118046 1
gene 1 19 91 -0.143315 0 617 -0.143315 1
gene 1 19 92 -2.04413 0 618 -2.04413 1
gene 1 19 94 -2.55889 0 620 -2.55889 1
gene 1 19 100 -0.507828 0 626 -0.507828 1
gene 1 19 103 -0.977767 0 629 -0.977767 1
gene 1 19 104 -2.14496 0 630 -2.14496 1
gene 1 19 105 2.84204 0 631 2.84204 1
gene 1 19 111 -0.822199 0 637 -0.822199 1
gene 1 19 112 1.53507 0 638 1.53507 1
gene 1 19 117 -1.1037 0 643 -1.1037 1
gene 1 19 118 0.918607 0 644 0.918607 1
gene 1 19 119 -0.930158 0 645 -0.930158 1
gene 1 20 88 -0.965361 0 648 -0.965361 1
gene 1 20 90 -0.325755 0 650 -0.325755 1
gene 1 20 94 1.30444 0 654 1.30444 1
gene 1 20 96 -0.698874 0 656 -0.698874 1
gene 1 20 102 3.19771 0 662 3.19771 1
gene 1 20 106 -1.31445 0 666 -1.31445 1
gene 1 20 116 -1.49118 0 676 -1.49118 1
gene 1 21 89 2.40603 0 683 2.40603 1
gene 1 21 102 1.04118 0 696 1.04118 1
gene 1 21 104 0.930937 0 698 0.930937 1
gene 1 21 105 -1.31715 0 699 -1.31715 1
gene 1 21 106 0.907132 0 700 0.907132 1
gene 1 21 107 0.942885 0 701 0.942885 1
gene 1 21 112 1.16581 0 706 1.16581 1
gene 1 21 117 0.844127 0 711 0.844127 1
gene 1 22 87 -0.902966 0 715 -0.902966 1
gene 1 22 88 2.02039 0 716 2.02039 1
gene 1 22 95 -0.714423 0 723 -0.714423 1
gene 1 22 97 1.47183 0 725 1.47183 1
gene 1 22 102 2.71099 0 730 2.71099 1
gene 1 22 103 -1.45216 0 731 -1.45216 1
gene 1 22 106 -2.21158 0 734 -2.21158 1
gene 1 22 108 -2.0231 0 736 -2.0231 1
gene 1 22 109 -0.638936 0 737 -0.638936 1
gene 1 23 87 1.01584 0 749 1.01584 1
gene 1 23 89 -0.288217 0 751 -0.288217 1
gene 1 23 92 -1.50569 0 754 -1.50569 1
gene 1 23 93 -2.1634 0 755 -2.1634 1
gene 1 23 94 -0.00387585 0 756 -0.00387585 1
gene 1 23 99 -1.88511 0 761 -1.88511 1
gene 1 23 107 -2.92721 0 769 -2.92721 1
gene 1 23 116 1.1409 0 778 1.1409 1
gene 1 23 118 0.380566 0 780 0.380566 1
gene 1 24 86 0.172369 0 782 0.172369 1
gene 1 24 87 1.19166 0 783 1.19166 1
gene 1 24 89 0.384747 0 785 0.384747 1
gene 1 24 91 -0.404798 0 787 -0.404798 1
gene 1 24 98 0.816538 0 794 0.816538 1
gene 1 24 105 0.151662 0 801 0.151662 1
gene 1 24 113 -0.0825526 0 809 -0.0825526 1
gene 1 24 115 -2.01886 0 811 -2.01886 1
gene 1 24 116 0.681433 0 812 0.681433 1
gene 1 24 117 0.948119 0 813 0.948119 1
gene 1 25 90 0.0927305 0 820 0.0927305 1
gene 1 25 91 0.389294 0 821 0.389294 1
gene 1 25 92 -1.25158 0 822 -1.25158 1
gene 1 25 102 -1.66129 0 832 -1.66129 1
gene 1 25 108 -0.0652638 0 838 -0.0652638 1
gene 1 25 109 -0.757057 0 839 -0.757057 1
gene 1 25 111 -0.161611 0 841 -0.161611 1
gene 1 25 113 0.696936 0 843 0.696936 1
gene 1 26 91 2.91333 0 855 2.91333 1
gene 1 26 93 0.00529496 0 857 0.00529496 1
gene 1 26 95 1.02295 0 859 1.02295 1
gene 1 26 99 1.83374 0 863 1.83374 1
gene 1 26 106 0.527161 0 870 0.527161 1
gene 1 26 109 0.449156 0 873 0.449156 1
gene 1 26 110 0.929304 0 874 0.929304 1
gene 1 26 116 0.901578 0 880 0.901578 1
gene 1 27 86 1.7358 0 884 1.7358 1
gene 1 27 88 -1.0441 0 886 -1.0441 1
gene 1 27 90 -1.14727 0 888 -1.14727 1
gene 1 27 96 -0.693625 0 894 -0.693625 1
gene 1 27 99 1.52342 0 897 1.52342 1
gene 1 27 101 1.01924 0 899 1.01924 1
gene 1 27 102 -1.5371 0 900 -1.5371 1
gene 1 27 103 2.16082 0 901 2.16082 1
gene 1 27 104 -1.10808 0 902 -1.10808 1
gene 1 27 105 -1.48054 0 903 -1.48054 1
gene 1 27 108 -1.27424 0 906 -1.27424 1
gene 1 27 110 -0.530168 0 908 -0.530168 1
gene 1 27 113 -0.246574 0 911 -0.246574 1
gene 1 27 114 1.45659 0 912 1.45659 1
gene 1 27 118 -1.85902 0 916 -1.85902 1
gene 1 28 86 0.17304 0 918 0.17304 1
gene 1 28 88 0.726356 0 920 0.726356 1
gene 1 28 95 0.409574 0 927 0.409574 1
gene 1 28 101 -1.48408 0 933 -1.48408 1
gene 1 28 103 -1.1021 0 935 -1.1021 1
gene 1 28 104 -1.18969 0 936 -1.18969 1
gene 1 28 105 1.66131 0 937 1.66131 1
gene 1 28 106 1.47884 0 938 1.47884 1
gene 1 28 109 -1.00696 0 941 -1.00696 1
gene 1 28 111 1.90907 0 943 1.90907 1
gene 1 28 115 -3.31372 0 947 -3.31372 1
gene 1 29 88 0.786554 0 954 0.786554 1
gene 1 29 89 -0.802301 0 955 -0.802301 1
gene 1 29 98 1.23959 0 964 1.23959 1
gene 1 29 100 -2.39976 0 966 -2.39976 1
gene 1 29 105 1.67588 0 971 1.67588 1
gene 1 29 114 -1.68468 0 980 -1.68468 1
gene 1 29 115 2.61275 0 981 2.61275 1
gene 1 30 89 -3.01984 0 989 -3.01984 1
gene 1 30 92 -0.0983917 0 992 -0.0983917 1
gene 1 30 103 -1.85127 0 1003 -1.85127 1
gene 1 30 106 -0.0352641 0 1006 -0.0352641 1
gene 1 30 117 0.954665 0 1017 0.954665 1
gene 1 31 96 1.61074 0 1030 1.61074 1
gene 1 31 97 0.90994 0 1031 0.90994 1
gene 1 31 100 -1.77512 0 1034 -1.77512 1
gene 1 31 102 2.39253 0 1036 2.39253 1
gene 1 31 105 2.01247 0 1039 2.01247 1
gene 1 31 110 2.41465 0 1044 2.41465 1
gene 1 31 111 0.160024 0 1045 0.160024 1
gene 1 31 115 -0.014771 0 1049 -0.014771 1
gene 1 31 119 -1.01646 0 1053 -1.01646 1
gene 1 32 86 -3.02532 0 1054 -3.02532 1
gene 1 32 93 1.22214 0 1061 1.22214 1
gene 1 32 95 -1.67258 0 1063 -1.67258 1
gene 1 32 97 1.50986 0 1065 1.50986 1
gene 1 32 100 0.373241 0 1068 0.373241 1
gene 1 32 104 0.406949 0 1072 0.406949 1
gene 1 32 108 -2.31521 0 1076 -2.31521 1
gene 1 32 109 1.93146 0 1077 1.93146 1
gene 1 32 110 -1.66468 0 1078 -1.66468 1
gene 1 32 112 -1.40204 0 1080 -1.40204 1
gene 1 32 113 -1.17046 0 1081 -1.17046 1
gene 1 32 118 1.57494 0 1086 1.57494 1
gene 1 33 87 1.04846 0 1089 1.04846 1
gene 1 33 88 1.35958 0 1090 1.35958 1
gene 1 33 90 1.51598 0 1092 1.51598 1
gene 1 33 93 1.052 0 1095 1.052 1
gene 1 33 99 -2.40695 0 1101 -2.40695 1
gene 1 33 100 -0.221625 0 1102 -0.221625 1
gene 1 33 105 -0.497726 0 1107 -0.497726 1
gene 1 33 107 -2.20556 0 1109 -2.20556 1
gene 1 33 110 1.11966 0 1112 1.11966 1
gene 1 33 117 -2.85008 0 1119 -2.85008 1
gene 1 33 119 -0.391461 0 1121 -0.391461 1
gene 1 34 97 -0.281716 0 1133 -0.281716 1
gene 1 34 99 2.34446 0 1135 2.34446 1
gene 1 34 109 -0.55707 0 1145 -0.55707 1
gene 1 34 111 1.08414 0 1147 1.08414 1
gene 1 34 112 -1.30653 0 1148 -1.30653 1
gene 1 34 115 1.12035 0 1151 1.12035 1
gene 1 35 86 -0.988815 0 1156 -0.988815 1
gene 1 35 91 -0.52559 0 1161 -0.52559 1
gene 1 35 100 -3.06017 0 1170 -3.06017 1
gene 1 35 105 1.15445 0 1175 1.15445 1
gene 1 35 110 -1.71853 0 1180 -1.71853 1
gene 1 36 87 -0.0689718 0 1191 -0.0689718 1
gene 1 36 88 0.924299 0 1192 0.924299 1
gene 1 36 98 0.0923185 0 1202 0.0923185 1
gene 1 36 99 -1.12926 0 1203 -1.12926 1
gene 1 36 101 1.70791 0 1205 1.70791 1
gene 1 36 105 1.71488 0 1209 1.71488 1
gene 1 36 108 1.10654 0 1212 1.10654 1
gene 1 36 110 1.12474 0 1214 1.12474 1
gene 1 36 111 0.958571 0 1215 0.958571 1
gene 1 36 113 1.01779 0 1217 1.01779 1
gene 1 37 86 0.44113 0 1224 0.44113 1
gene 1 37 88 1.82368 0 1226 1.82368 1
gene 1 37 91 -1.76679 0 1229 -1.76679 1
gene 1 37 92 -0.650578 0 1230 -0.650578 1
gene 1 37 105 -1.37692 0 1243 -1.37692 1
gene 1 37 108 0.756188 0 1246 0.756188 1
gene 1 37 110 1.71201 0 1248 1.71201 1
gene 1 37 113 -2.49922 0 1251 -2.49922 1
gene 1 37 116 -1.07067 0 1254 -1.07067 1
gene 1 37 118 0.860424 0 1256 0.860424 1
gene 1 37 119 -0.749596 0 1257 -0.749596 1
gene 1 38 86 1.2307 0 1258 1.2307 1
gene 1 38 87 0.942869 0 1259 0.942869 1
gene 1 38 88 2.03932 0 1260 2.03932 1
gene 1 38 92 -0.998795 0 1264 -0.998795 1
gene 1 38 100 1.4593 0 1272 1.4593 1
gene 1 38 106 2.40628 0 1278 2.40628 1
gene 1 38 112 1.84623 0 1284 1.84623 1
gene 1 38 113 1.2007 0 1285 1.2007 1
gene 1 38 119 -1.31339 0 1291 -1.31339 1
gene 1 39 88 1.92784 0 1294 1.92784 1
gene 1 39 91 2.15764 0 1297 2.15764 1
gene 1 39 104 -1.74029 0 1310 -1.74029 1
gene 1 39 106 -1.69274 0 1312 -1.69274 1
gene 1 39 107 1.68104 0 1313 1.68104 1
gene 1 39 112 2.54758 0 1318 2.54758 1
gene 1 39 116 -1.07073 0 1322 -1.07073 1
gene 1 40 88 2.04201 0 1328 2.04201 1
gene 1 40 90 1.26164 0 1330 1.26164 1
gene 1 40 92 -2.63062 0 1332 -2.63062 1
gene 1 40 95 -0.13126 0 1335 -0.13126 1
gene 1 40 98 -2.13054 0 1338 -2.13054 1
gene 1 40 99 -0.254494 0 1339 -0.254494 1
gene 1 40 108 0.93408 0 1348 0.93408 1
gene 1 40 109 1.11779 0 1349 1.11779 1
gene 1 40 110 0.441359 0 1350 0.441359 1
gene 1 40 112 -0.380657 0 1352 -0.380657 1
gene 1 40 114 -0.703085 0 1354 -0.703085 1
gene 1 40 117 1.44572 0 1357 1.44572 1
gene 1 40 119 -2.30631 0 1359 -2.30631 1
gene 1 41 89 2.59977 0 1363 2.59977 1
gene 1 41 93 -2.45331 0 1367 -2.45331 1
gene 1 41 100 1.26199 0 1374 1.26199 1
gene 1 41 105 -2.69085 0 1379 -2.69085 1
gene 1 41 111 1.68365 0 1385 1.68365 1
gene 1 41 117 -3.12989 0 1391 -3.12989 1
gene 1 41 119 -1.07974 0 1393 -1.07974 1
gene 1 42 89 1.77351 0 1397 1.77351 1
gene 1 42 94 2.43913 0 1402 2.43913 1
gene 1 42 97 0.0587176 0 1405 0.0587176 1
gene 1 42 98 -1.9644 0 1406 -1.9644 1
gene 1 42 101 2.28561 0 1409 2.28561 1
gene 1 42 102 1.11878 0 1410 1.11878 1
gene 1 42 105 -0.282861 0 1413 -0.282861 1
gene 1 42 106 -0.310999 0 1414 -0.310999 1
gene 1 42 107 -0.82609 0 1415 -0.82609 1
gene 1 42 108 0.817438 0 1416 0.817438 1
gene 1 42 110 -1.28446 0 1418 -1.28446 1
gene 1 42 111 0.852168 0 1419 0.852168 1
gene 1 42 112 -2.12571 0 1420 -2.12571 1
gene 1 42 113 -2.34686 0 1421 -2.34686 1
gene 1 43 86 2.38261 0 1428 2.38261 1
gene 1 43 87 1.98138 0 1429 1.98138 1
gene 1 43 88 -2.1084 0 1430 -2.1084 1
gene 1 43 100 -0.775552 0 1442 -0.775552 1
gene 1 43 101 -2.0228 0 1443 -2.0228 1
gene 1 43 104 -0.0865963 0 1446 -0.0865963 1
gene 1 43 110 -3.40873 0 1452 -3.40873 1
gene 1 43 114 1.51482 0 1456 1.51482 1
gene 1 44 86 0.316904 0 1462 0.316904 1
gene 1 44 89 -1.61039 0 1465 -1.61039 1
gene 1 44 90 -0.842296 0 1466 -0.842296 1
gene 1 44 94 -0.519089 0 1470 -0.519089 1
gene 1 44 98 1.89709 0 1474 1.89709 1
gene 1 44 99 -0.597903 0 1475 -0.597903 1
gene 1 44 102 1.70136 0 1478 1.70136 1
gene 1 44 103 1.54532 0 1479 1.54532 1
gene 1 44 104 0.763115 0 1480 0.763115 1
gene 1 44 106 -0.938826 0 1482 -0.938826 1
gene 1 44 111 1.42584 0 1487 1.42584 1
gene 1 44 113 0.354869 0 1489 0.354869 1
gene 1 44 115 -0.727088 0 1491 -0.727088 1
gene 1 44 117 -1.51395 0 1493 -1.51395 1
gene 1 45 90 2.56478 0 1500 2.56478 1
gene 1 45 99 0.440916 0 1509 0.440916 1
gene 1 45 100 0.711173 0 1510 0.711173 1
gene 1 46 88 -0.46173 0 1532 -0.46173 1
gene 1 46 89 -1.55971 0 1533 -1.55971 1
gene 1 46 91 -0.684668 0 1535 -0.684668 1
gene 1 46 92 1.5705 0 1536 1.5705 1
gene 1 46 96 -0.877911 0 1540 -0.877911 1
gene 1 46 99 -2.1789 0 1543 -2.1789 1
gene 1 46 109 -0.729652 0 1553 -0.729652 1
gene 1 46 110 -0.160405 0 1554 -0.160405 1
gene 1 46 113 1.32037 0 1557 1.32037 1
gene 1 46 116 -0.661504 0 1560 -0.661504 1
gene 1 47 86 -0.208502 0 1564 -0.208502 1
gene 1 47 90 -0.274071 0 1568 -0.274071 1
gene 1 47 92 -1.39108 0 1570 -1.39108 1
gene 1 47 95 -1.46793 0 1573 -1.46793 1
gene 1 47 98 -1.25387 0 1576 -1.25387 1
gene 1 47 101 -0.231849 0 1579 -0.231849 1
gene 1 47 102 -1.99948 0 1580 -1.99948 1
gene 1 47 109 0.0853755 0 1587 0.0853755 1
gene 1 47 113 1.48874 0 1591 1.48874 1
gene 1 48 87 0.673421 0 1599 0.673421 1
gene 1 48 92 -1.20832 0 1604 -1.20832 1
gene 1 48 93 -1.05863 0 1605 -1.05863 1
gene 1 48 95 -0.114109 0 1607 -0.114109 1
gene 1 48 96 -2.43583 0 1608 -2.43583 1
gene 1 48 101 -2.18206 0 1613 -2.18206 1
gene 1 48 102 3.03049 0 1614 3.03049 1
gene 1 48 105 1.83622 0 1617 1.83622 1
gene 1 48 106 1.21317 0 1618 1.21317 1
gene 1 48 109 0.54651 0 1621 0.54651 1
gene 1 48 113 -0.76397 0 1625 -0.76397 1
gene 1 48 115 -1.8775 0 1627 -1.8775 1
gene 1 48 119 -1.8489 0 1631 -1.8489 1
gene 1 49 87 -1.01074 0 1633 -1.01074 1
gene 1 49 92 -2.3274 0 1638 -2.3274 1
gene 1 49 99 0.327784 0 1645 0.327784 1
gene 1 49 100 -1.53008 0 1646 -1.53008 1
gene 1 49 101 1.66472 0 1647 1.66472 1
gene 1 49 104 1.5925 0 1650 1.5925 1
gene 1 49 106 1.58473 0 1652 1.58473 1
gene 1 49 107 -2.00784 0 1653 -2.00784 1
gene 1 49 112 1.57978 0 1658 1.57978 1
gene 1 49 116 -0.150609 0 1662 -0.150609 1
gene 1 50 88 -2.33349 0 1668 -2.33349 1
gene 1 50 90 -0.79664 0 1670 -0.79664 1
gene 1 50 94 2.20798 0 1674 2.20798 1
gene 1 50 95 0.403378 0 1675 0.403378 1
gene 1 50 96 0.986343 0 1676 0.986343 1
gene 1 50 103 1.44194 0 1683 1.44194 1
gene 1 50 114 2.83409 0 1694 2.83409 1
gene 1 50 115 -0.0567186 0 1695 -0.0567186 1
gene 1 51 90 -1.17151 0 1704 -1.17151 1
gene 1 51 106 -1.31716 0 1720 -1.31716 1
gene 1 51 108 -2.8385 0 1722 -2.8385 1
gene 1 52 88 -1.2766 0 1736 -1.2766 1
gene 1 52 93 0.545473 0 1741 0.545473 1
gene 1 52 98 -0.937193 0 1746 -0.937193 1
gene 1 52 99 -0.245567 0 1747 -0.245567 1
gene 1 52 104 -2.25126 0 1752 -2.25126 1
gene 1 52 107 -1.18773 0 1755 -1.18773 1
gene 1 52 113 -0.292138 0 1761 -0.292138 1
gene 1 52 119 0.105411 0 1767 0.105411 1
gene 1 53 90 1.89517 0 1772 1.89517 1
gene 1 53 98 -0.892773 0 1780 -0.892773 1
gene 1 53 107 -2.64039 0 1789 -2.64039 1
gene 1 53 111 -1.62587 0 1793 -1.62587 1
gene 1 53 112 2.36644 0 1794 2.36644 1
gene 1 53 114 2.63186 0 1796 2.63186 1
gene 1 53 115 1.11547 0 1797 1.11547 1
gene 1 53 119 -1.34033 0 1801 -1.34033 1
gene 1 54 89 0.545167 0 1805 0.545167 1
gene 1 54 91 0.379879 0 1807 0.379879 1
gene 1 54 93 -2.1193 0 1809 -2.1193 1
gene 1 54 95 1.31581 0 1811 1.31581 1
gene 1 54 105 -0.987381 0 1821 -0.987381 1
gene 1 54 106 2.09149 0 1822 2.09149 1
gene 1 54 110 -3.22071 0 1826 -3.22071 1
gene 1 55 86 -0.241279 0 1836 -0.241279 1
gene 1 55 92 -0.091937 0 1842 -0.091937 1
gene 1 55 95 1.87054 0 1845 1.87054 1
gene 1 55 97 -2.08884 0 1847 -2.08884 1
gene 1 55 112 2.55432 0 1862 2.55432 1
gene 1 55 113 -0.315851 0 1863 -0.315851 1
gene 1 55 114 2.22956 0 1864 2.22956 1
gene 1 55 119 -0.211783 0 1869 -0.211783 1
gene 1 56 88 0.559725 0 1872 0.559725 1
gene 1 56 96 -1.1652 0 1880 -1.1652 1
gene 1 56 108 -2.641 0 1892 -2.641 1
gene 1 56 111 2.33489 0 1895 2.33489 1
gene 1 56 118 1.43454 0 1902 1.43454 1
gene 1 57 108 1.19903 0 1926 1.19903 1
gene 1 57 112 -2.4875 0 1930 -2.4875 1
gene 1 57 114 -2.46205 0 1932 -2.46205 1
gene 1 57 115 2.35002 0 1933 2.35002 1
gene 1 58 88 -2.12232 0 1940 -2.12232 1
gene 1 58 91 0.729499 0 1943 0.729499 1
gene 1 58 92 -1.08837 0 1944 -1.08837 1
gene 1 58 93 -1.07704 0 1945 -1.07704 1
gene 1 58 94 1.13141 0 1946 1.13141 1
gene 1 58 95 1.43678 0 1947 1.43678 1
gene 1 58 96 -1.03803 0 1948 -1.03803 1
gene 1 58 97 0.908658 0 1949 0.908658 1
gene 1 58 101 -0.0622272 0 1953 -0.0622272 1
gene 1 58 103 -2.44926 0 1955 -2.44926 1
gene 1 58 104 -1.06655 0 1956 -1.06655 1
gene 1 58 116 0.300684 0 1968 0.300684 1
gene 1 59 87 0.680044 0 1973 0.680044 1
gene 1 59 88 0.411954 0 1974 0.411954 1
gene 1 59 90 0.975234 0 1976 0.975234 1
gene 1 59 91 -1.27949 0 1977 -1.27949 1
gene 1 59 96 1.65165 0 1982 1.65165 1
gene 1 59 97 -1.84698 0 1983 -1.84698 1
gene 1 59 102 -2.3892 0 1988 -2.3892 1
gene 1 59 104 1.42004 0 1990 1.42004 1
gene 1 59 110 -1.03244 0 1996 -1.03244 1
gene 1 59 111 2.38148 0 1997 2.38148 1
gene 1 59 114 2.6386 0 2000 2.6386 1
gene 1 59 115 0.116657 0 2001 0.116657 1
gene 1 59 116 -0.506745 0 2002 -0.506745 1
gene 1 59 119 -0.605564 0 2005 -0.605564 1
gene 1 60 86 0.96968 0 2006 0.96968 1
gene 1 60 87 0.00236518 0 2007 0.00236518 1
gene 1 60 91 -1.36132 0 2011 -1.36132 1
gene 1 60 92 0.669271 0 2012 0.669271 1
gene 1 60 94 2.11124 0 2014 2.11124 1
gene 1 60 98 2.0155 0 2018 2.0155 1
gene 1 60 99 -0.545717 0 2019 -0.545717 1
gene 1 60 101 -0.611393 0 2021 -0.611393 1
gene 1 60 103 -0.358104 0 2023 -0.358104 1
gene 1 60 113 -0.769066 0 2033 -0.769066 1
gene 1 60 115 -0.522889 0 2035 -0.522889 1
gene 1 61 86 -0.850734 0 2040 -0.850734 1
gene 1 61 88 -0.180883 0 2042 -0.180883 1
gene 1 61 91 -0.137532 0 2045 -0.137532 1
gene 1 61 92 -2.84417 0 2046 -2.84417 1
gene 1 61 97 0.121433 0 2051 0.121433 1
gene 1 61 101 -1.14837 0 2055 -1.14837 1
gene 1 61 102 -0.684591 0 2056 -0.684591 1
gene 1 61 106 -0.864971 0 2060 -0.864971 1
gene 1 61 108 -1.54595 0 2062 -1.54595 1
gene 1 61 110 -2.12702 0 2064 -2.12702 1
gene 1 61 111 1.83319 0 2065 1.83319 1
gene 1 61 115 0.462264 0 2069 0.462264 1
gene 1 62 90 1.53528 0 2078 1.53528 1
gene 1 62 95 -0.243477 0 2083 -0.243477 1
gene 1 62 97 2.69095 0 2085 2.69095 1
gene 1 62 99 0.618152 0 2087 0.618152 1
gene 1 62 101 1.11957 0 2089 1.11957 1
gene 1 62 103 1.66723 0 2091 1.66723 1
gene 1 62 104 -2.63527 0 2092 -2.63527 1
gene 1 62 115 -2.21334 0 2103 -2.21334 1
gene 1 62 116 -1.41537 0 2104 -1.41537 1
gene 1 63 94 -1.40365 0 2116 -1.40365 1
gene 1 63 96 -2.31704 0 2118 -2.31704 1
gene 1 63 108 -0.864742 0 2130 -0.864742 1
gene 1 63 110 -1.22094 0 2132 -1.22094 1
gene 1 63 111 -1.49525 0 2133 -1.49525 1
gene 1 63 112 -1.45305 0 2134 -1.45305 1
gene 1 64 88 1.35322 0 2144 1.35322 1
gene 1 64 91 1.14211 0 2147 1.14211 1
gene 1 64 94 2.4781 0 2150 2.4781 1
gene 1 64 98 -1.05675 0 2154 -1.05675 1
gene 1 64 101 -0.808924 0 2157 -0.808924 1
gene 1 64 104 -2.78964 0 2160 -2.78964 1
gene 1 64 105 -1.0108 0 2161 -1.0108 1
gene 1 64 109 1.65218 0 2165 1.65218 1
gene 1 64 112 0.233299 0 2168 0.233299 1
gene 1 64 115 0.281182 0 2171 0.281182 1
gene 1 64 118 -0.218406 0 2174 -0.218406 1
gene 1 65 88 -2.24189 0 2178 -2.24189 1
gene 1 65 95 -2.25538 0 2185 -2.25538 1
gene 1 65 100 -2.34277 0 2190 -2.34277 1
gene 1 65 111 2.15497 0 2201 2.15497 1
gene 1 65 113 -2.61295 0 2203 -2.61295 1
gene 1 65 117 -2.16532 0 2207 -2.16532 1
gene 1 66 88 -1.63498 0 2212 -1.63498 1
gene 1 66 89 -0.843715 0 2213 -0.843715 1
gene 1 66 91 -1.62687 0 2215 -1.62687 1
gene 1 66 98 1.78019 0 2222 1.78019 1
gene 1 66 100 2.27593 0 2224 2.27593 1
gene 1 66 108 -1.42303 0 2232 -1.42303 1
gene 1 66 111 -3.176 0 2235 -3.176 1
gene 1 66 112 -0.247765 0 2236 -0.247765 1
gene 1 66 115 -0.275491 0 2239 -0.275491 1
gene 1 66 117 -2.06063 0 2241 -2.06063 1
gene 1 66 118 3.06528 0 2242 3.06528 1
gene 1 67 86 -1.42204 0 2244 -1.42204 1
gene 1 67 103 2.97111 0 2261 2.97111 1
gene 1 67 106 3.11765 0 2264 3.11765 1
gene 1 67 109 3.3601 0 2267 3.3601 1
gene 1 67 112 -1.83467 0 2270 -1.83467 1
gene 1 67 116 2.92503 0 2274 2.92503 1
gene 1 67 119 0.132435 0 2277 0.132435 1
gene 1 68 87 1.35888 0 2279 1.35888 1
gene 1 68 91 2.78694 0 2283 2.78694 1
gene 1 68 93 2.66947 0 2285 2.66947 1
gene 1 68 105 2.18912 0 2297 2.18912 1
gene 1 68 110 2.33161 0 2302 2.33161 1
gene 1 68 112 2.55876 0 2304 2.55876 1
gene 1 69 88 -0.892117 0 2314 -0.892117 1
gene 1 69 89 3.17272 0 2315 3.17272 1
gene 1 69 91 -2.51822 0 2317 -2.51822 1
gene 1 69 94 -0.675924 0 2320 -0.675924 1
gene 1 69 96 2.4653 0 2322 2.4653 1
gene 1 69 97 0.277169 0 2323 0.277169 1
gene 1 69 98 -0.611866 0 2324 -0.611866 1
gene 1 69 104 -0.44969 0 2330 -0.44969 1
gene 1 69 108 1.25668 0 2334 1.25668 1
gene 1 69 113 2.37304 0 2339 2.37304 1
gene 1 69 115 0.725517 0 2341 0.725517 1
gene 1 70 88 -1.11567 0 2348 -1.11567 1
gene 1 70 89 -2.80512 0 2349 -2.80512 1
gene 1 70 93 0.673086 0 2353 0.673086 1
gene 1 70 95 -0.795892 0 2355 -0.795892 1
gene 1 70 96 0.901059 0 2356 0.901059 1
gene 1 70 98 -0.0344096 0 2358 -0.0344096 1
gene 1 70 109 -0.176489 0 2369 -0.176489 1
gene 1 70 114 0.195929 0 2374 0.195929 1
gene 1 70 115 0.905515 0 2375 0.905515 1
gene 1 70 119 0.990844 0 2379 0.990844 1
gene 1 71 86 -0.357799 0 2380 -0.357799 1
gene 1 71 87 -2.49236 0 2381 -2.49236 1
gene 1 71 88 -0.256935 0 2382 -0.256935 1
gene 1 71 91 0.444685 0 2385 0.444685 1
gene 1 71 97 1.7407 0 2391 1.7407 1
gene 1 71 98 -1.31574 0 2392 -1.31574 1
gene 1 71 100 2.97119 0 2394 2.97119 1
gene 1 71 106 -2.44046 0 2400 -2.44046 1
gene 1 71 108 0.750511 0 2402 0.750511 1
gene 1 71 110 0.119877 0 2404 0.119877 1
gene 1 71 111 -2.22625 0 2405 -2.22625 1
gene 1 71 112 0.825388 0 2406 0.825388 1
gene 1 72 86 -0.688482 0 2414 -0.688482 1
gene 1 72 94 -0.0655995 0 2422 -0.0655995 1
gene 1 72 97 -0.831385 0 2425 -0.831385 1
gene 1 72 101 -1.8318 0 2429 -1.8318 1
gene 1 72 105 2.68464 0 2433 2.68464 1
gene 1 72 107 -0.0527207 0 2435 -0.0527207 1
gene 1 72 112 0.767968 0 2440 0.767968 1
gene 1 72 114 -1.18786 0 2442 -1.18786 1
gene 1 73 95 1.63384 0 2457 1.63384 1
gene 1 73 97 1.92688 0 2459 1.92688 1
gene 1 73 100 0.766533 0 2462 0.766533 1
gene 1 73 111 -0.799738 0 2473 -0.799738 1
gene 1 73 113 0.153172 0 2475 0.153172 1
gene 1 73 115 1.47636 0 2477 1.47636 1
gene 1 73 116 0.147252 0 2478 0.147252 1
gene 1 73 117 -0.962645 0 2479 -0.962645 1
gene 1 74 89 -1.16027 0 2485 -1.16027 1
gene 1 74 95 0.840693 0 2491 0.840693 1
gene 1 74 100 -0.311136 0 2496 -0.311136 1
gene 1 74 101 0.589175 0 2497 0.589175 1
gene 1 74 107 -1.49289 0 2503 -1.49289 1
gene 1 74 111 -1.98263 0 2507 -1.98263 1
gene 1 74 116 0.265267 0 2512 0.265267 1
gene 1 75 91 0.25782 0 2521 0.25782 1
gene 1 75 95 0.300119 0 2525 0.300119 1
gene 1 75 100 -1.79365 0 2530 -1.79365 1
gene 1 75 103 0.91229 0 2533 0.91229 1
gene 1 75 107 -0.253059 0 2537 -0.253059 1
gene 1 75 108 1.54508 0 2538 1.54508 1
gene 1 75 111 0.0138096 0 2541 0.0138096 1
gene 1 75 114 -0.521149 0 2544 -0.521149 1
gene 1 75 117 -0.316233 0 2547 -0.316233 1
gene 1 76 86 1.35484 0 2550 1.35484 1
gene 1 76 87 0.253304 0 2551 0.253304 1
gene 1 76 94 1.45233 0 2558 1.45233 1
gene 1 76 99 -0.769616 0 2563 -0.769616 1
gene 1 76 104 0.127033 0 2568 0.127033 1
gene 1 76 106 0.606067 0 2570 0.606067 1
gene 1 76 112 2.05013 0 2576 2.05013 1
gene 1 76 118 -2.40556 0 2582 -2.40556 1
gene 1 77 87 -1.09212 0 2585 -1.09212 1
gene 1 77 90 -1.57144 0 2588 -1.57144 1
gene 1 77 93 1.86952 0 2591 1.86952 1
gene 1 77 95 0.744652 0 2593 0.744652 1
gene 1 77 100 0.903775 0 2598 0.903775 1
gene 1 77 102 -1.74787 0 2600 -1.74787 1
gene 1 77 104 1.04068 0 2602 1.04068 1
gene 1 77 107 -1.32582 0 2605 -1.32582 1
gene 1 77 111 -0.633473 0 2609 -0.633473 1
gene 1 77 114 1.41903 0 2612 1.41903 1
gene 1 78 89 -0.644368 0 2621 -0.644368 1
gene 1 78 92 0.499481 0 2624 0.499481 1
gene 1 78 94 -1.84797 0 2626 -1.84797 1
gene 1 78 99 -1.02031 0 2631 -1.02031 1
gene 1 78 102 -0.916349 0 2634 -0.916349 1
gene 1 78 103 -0.00430311 0 2635 -0.00430311 1
gene 1 78 104 2.16834 0 2636 2.16834 1
gene 1 78 105 0.42375 0 2637 0.42375 1
gene 1 78 106 0.234016 0 2638 0.234016 1
gene 1 78 110 0.834864 0 2642 0.834864 1
gene 1 79 89 2.02231 0 2655 2.02231 1
gene 1 79 94 -1.07782 0 2660 -1.07782 1
gene 1 79 95 -2.40249 0 2661 -2.40249 1
gene 1 79 102 -0.333384 0 2668 -0.333384 1
gene 1 79 105 -0.623493 0 2671 -0.623493 1
gene 1 79 111 0.0192267 0 2677 0.0192267 1
gene 1 79 115 -2.32894 0 2681 -2.32894 1
gene 1 79 117 2.20748 0 2683 2.20748 1
gene 1 79 118 1.52066 0 2684 1.52066 1
gene 1 79 119 -0.536134 0 2685 -0.536134 1
gene 1 80 88 -1.23742 0 2688 -1.23742 1
gene 1 80 93 1.57666 0 2693 1.57666 1
gene 1 80 95 0.238166 0 2695 0.238166 1
gene 1 80 108 -0.236457 0 2708 -0.236457 1
gene 1 80 109 1.15903 0 2709 1.15903 1
gene 1 80 115 -1.52063 0 2715 -1.52063 1
gene 1 80 119 -2.16626 0 2719 -2.16626 1
gene 1 81 88 -1.64304 0 2722 -1.64304 1
gene 1 81 89 0.930662 0 2723 0.930662 1
gene 1 81 92 -1.98407 0 2726 -1.98407 1
gene 1 81 100 0.479476 0 2734 0.479476 1
gene 1 81 102 0.35374 0 2736 0.35374 1
gene 1 81 108 -1.59445 0 2742 -1.59445 1
gene 1 81 114 0.450911 0 2748 0.450911 1
gene 1 82 86 -0.40849 0 2754 -0.40849 1
gene 1 82 87 -1.75979 0 2755 -1.75979 1
gene 1 82 91 -0.883297 0 2759 -0.883297 1
gene 1 82 94 -0.460906 0 2762 -0.460906 1
gene 1 82 97 0.868023 0 2765 0.868023 1
gene 1 82 98 -0.780908 0 2766 -0.780908 1
gene 1 82 107 0.981445 0 2775 0.981445 1
gene 1 82 108 1.262 0 2776 1.262 1
gene 1 82 111 2.38937 0 2779 2.38937 1
gene 1 82 116 -0.174886 0 2784 -0.174886 1
gene 1 83 87 0.294259 0 2789 0.294259 1
gene 1 83 93 -1.13665 0 2795 -1.13665 1
gene 1 83 111 -2.52547 0 2813 -2.52547 1
gene 1 83 113 -1.09696 0 2815 -1.09696 1
gene 1 84 88 -3.0649 0 2824 -3.0649 1
gene 1 84 92 0.510514 0 2828 0.510514 1
gene 1 84 94 0.0527665 0 2830 0.0527665 1
gene 1 84 102 -2.49515 0 2838 -2.49515 1
gene 1 84 104 -0.281152 0 2840 -0.281152 1
gene 1 84 106 -0.587909 0 2842 -0.587909 1
gene 1 84 109 0.529313 0 2845 0.529313 1
gene 1 85 86 -1.93452 0 2856 -1.93452 1
gene 1 85 87 0.0379955 0 2857 0.0379955 1
gene 1 85 90 -0.228339 0 2860 -0.228339 1
gene 1 85 96 -0.849025 0 2866 -0.849025 1
gene 1 85 100 0.933103 0 2870 0.933103 1
gene 1 85 105 1.45039 0 2875 1.45039 1
gene 1 85 112 -0.297876 0 2882 -0.297876 1
gene 1 85 114 2.10074 0 2884 2.10074 1
gene 1 85 115 0.0163274 0 2885 0.0163274 1
gene 1 11 120 1 0 2886 1 1
gene 1 120 110 -0.13422 0 2887 -0.13422 1
genomeend 1

/* Organism #2 Fitness: 5 Error: 0 */
genomestart 2
trait 1 0.1 0 0 0 0 0 0 0 
node 1 1 1 3
node 2 1 1 1
node 3 1 1 1
node 4 1 1 1
node 5 1 1 1
node 6 1 1 1
node 7 1 1 1
node 8 1 1 1
node 9 1 1 1
node 10 1 1 1
node 11 1 1 1
node 12 1 1 1
node 13 1 1 1
node 14 1 1 1
node 15 1 1 1
node 16 1 1 1
node 17 1 1 1
node 18 1 1 1
node 19 1 1 1
node 20 1 1 1
node 21 1 1 1
node 22 1 1 1
node 23 1 1 1
node 24 1 1 1
node 25 1 1 1
node 26 1 1 1
node 27 1 1 1
node 28 1 1 1
node 29 1 1 1
node 30 1 1 1
node 31 1 1 1
node 32 1 1 1
node 33 1 1 1
node 34 1 1 1
node 35 1 1 1
node 36 1 1 1
node 37 1 1 1
node 38 1 1 1
node 39 1 1 1
node 40 1 1 1
node 41 1 1 1
node 42 1 1 1
node 43 1 1 1
node 44 1 1 1
node 45 1 1 1
node 46 1 1 1
node 47 1 1 1
node 48 1 1 1
node 49 1 1 1
node 50 1 1 1
node 51 1 1 1
node 52 1 1 1
node 53 1 1 1
node 54 1 1 1
node 55 1 1 1
node 56 1 1 1
node 57 1 1 1
node 58 1 1 1
node 59 1 1 1
node 60 1 1 1
node 61 1 1 1
node 62 1 1 1
node 63 1 1 1
node 64 1 1 1
node 65 1 1 1
node 66 1 1 1
node 67 1 1 1
node 68 1 1 1
node 69 1 1 1
node 70 1 1 1
node 71 1 1 1
node 72 1 1 1
node 73 1 1 1
node 74 1 1 1
node 75 1 1 1
node 76 1 1 1
node 77 1 1 1
node 78 1 1 1
node 79 1 1 1
node 80 1 1 1
node 81 1 1 1
node 82 1 1 1
node 83 1 1 1
node 84 1 1 1
node 85 1 1 1
node 86 1 0 2
node 87 1 0 2
node 88 1 0 2
node 89 1 0 2
node 90 1 0 2
node 91 1 0 2
node 92 1 0 2
node 93 1 0 2
node 94 1 0 2
node 95 1 0 2
node 96 1 0 2
node 97 1 0 2
node 98 1 0 2
node 99 1 0 2
node 100 1 0 2
node 101 1 0 2
node 102 1 0 2
node 103 1 0 2
node 104 1 0 2
node 105 1 0 2
node 106 1 0 2
node 107 1 0 2
node 108 1 0 2
node 109 1 0 2
node 110 1 0 2
node 111 1 0 2
node 112 1 0 2
node 113 1 0 2
node 114 1 0 2
node 115 1 0 2
node 116 1 0 2
node 117 1 0 2
node 118 1 0 2
node 119 1 0 2
gene 1 1 86 0.190527 0 0 0.190527 1
gene 1 1 90 -3.29025 0 4 -3.29025 1
gene 1 1 91 0.904035 0 5 0.904035 1
gene 1 1 94 -1.8623 0 8 -1.8623 1
gene 1 1 99 1.26365 0 13 1.26365 1
gene 1 1 102 -3.11849 0 16 -3.11849 1
gene 1 1 106 -1.01353 0 20 -1.01353 1
gene 1 1 109 2.07823 0 23 2.07823 1
gene 1 1 114 0.215796 0 28 0.215796 1
gene 1 1 115 -0.96765 0 29 -0.96765 1
gene 1 1 118 0.172658 0 32 0.172658 1
gene 1 1 119 1.88832 0 33 1.88832 1
gene 1 2 87 0.671957 0 35 0.671957 1
gene 1 2 93 1.41919 0 41 1.41919 1
gene 1 2 99 2.05107 0 47 2.05107 1
gene 1 2 103 -1.24261 0 51 -1.24261 1
gene 1 2 105 0.348704 0 53 0.348704 1
gene 1 2 108 -0.0438551 0 56 -0.0438551 1
gene 1 2 109 -1.39798 0 57 -1.39798 1
gene 1 2 110 -2.01315 0 58 -2.01315 1
gene 1 2 114 -2.15633 0 62 -2.15633 1
gene 1 3 88 1.8863 0 70 1.8863 1
gene 1 3 89 -0.535524 0 71 -0.535524 1
gene 1 3 101 -0.7369 0 83 -0.7369 1
gene 1 3 107 -2.56389 0 89 -2.56389 1
gene 1 3 109 -0.742164 0 91 -0.742164 1
gene 1 3 111 -3.04935 0 93 -3.04935 1
gene 1 3 114 -1.31433 0 96 -1.31433 1
gene 1 3 119 -2.44815 0 101 -2.44815 1
gene 1 4 90 1.1189 0 106 1.1189 1
gene 1 4 93 -1.80706 0 109 -1.80706 1
gene 1 4 98 -1.39233 0 114 -1.39233 1
gene 1 4 100 -1.29888 0 116 -1.29888 1
gene 1 4 102 0.492508 0 118 0.492508 1
gene 1 4 104 -0.834056 0 120 -0.834056 1
gene 1 4 106 3.04509 0 122 3.04509 1
gene 1 4 109 -0.531236 0 125 -0.531236 1
gene 1 4 110 -2.41621 0 126 -2.41621 1
gene 1 4 112 1.09832 0 128 1.09832 1
gene 1 4 113 -1.07526 0 129 -1.07526 1
gene 1 4 117 1.56037 0 133 1.56037 1
gene 1 5 91 0.671499 0 141 0.671499 1
gene 1 5 92 -0.233985 0 142 -0.233985 1
gene 1 5 98 0.942305 0 148 0.942305 1
gene 1 5 100 1.63753 0 150 1.63753 1
gene 1 5 102 1.68366 0 152 1.68366 1
gene 1 5 109 3.10617 0 159 3.10617 1
gene 1 5 114 0.634144 0 164 0.634144 1
gene 1 5 119 -0.907025 0 169 -0.907025 1
gene 1 6 87 -0.0898618 0 171 -0.0898618 1
gene 1 6 88 1.17356 0 172 1.17356 1
gene 1 6 90 -1.251 0 174 -1.251 1
gene 1 6 93 0.402066 0 177 0.402066 1
gene 1 6 94 -0.916562 0 178 -0.916562 1
gene 1 6 100 0.92407 0 184 0.92407 1
gene 1 6 105 -1.7075 0 189 -1.7075 1
gene 1 6 115 -0.328532 0 199 -0.328532 1
gene 1 6 119 -0.927427 0 203 -0.927427 1
gene 1 7 90 0.490844 0 208 0.490844 1
gene 1 7 93 -2.86599 0 211 -2.86599 1
gene 1 7 95 2.4951 0 213 2.4951 1
gene 1 7 101 -1.42676 0 219 -1.42676 1
gene 1 7 102 -1.82746 0 220 -1.82746 1
gene 1 7 104 -2.51759 0 222 -2.51759 1
gene 1 7 108 0.519532 0 226 0.519532 1
gene 1 7 111 2.13404 0 229 2.13404 1
gene 1 7 114 0.489563 0 232 0.489563 1
gene 1 8 86 -2.4082 0 238 -2.4082 1
gene 1 8 87 2.42964 0 239 2.42964 1
gene 1 8 91 1.15877 0 243 1.15877 1
gene 1 8 96 2.25269 0 248 2.25269 1
gene 1 8 100 -1.87059 0 252 -1.87059 1
gene 1 8 101 2.19938 0 253 2.19938 1
gene 1 8 105 -0.15894 0 257 -0.15894 1
gene 1 8 107 1.68279 0 259 1.68279 1
gene 1 8 109 -2.04045 0 261 -2.04045 1
gene 1 8 113 0.410947 0 265 0.410947 1
gene 1 8 117 1.05602 0 269 1.05602 1
gene 1 9 93 1.50903 0 279 1.50903 1
gene 1 9 94 -0.0237129 0 280 -0.0237129 1
gene 1 9 96 -0.151463 0 282 -0.151463 1
gene 1 9 100 -1.74969 0 286 -1.74969 1
gene 1 9 107 1.05504 0 293 1.05504 1
gene 1 9 108 1.77441 0 294 1.77441 1
gene 1 9 116 -1.38076 0 302 -1.38076 1
gene 1 9 117 0.477111 0 303 0.477111 1
gene 1 9 119 -1.58177 0 305 -1.58177 1
gene 1 10 86 -1.31597 0 306 -1.31597 1
gene 1 10 88 -2.32485 0 308 -2.32485 1
gene 1 10 99 2.64512 0 319 2.64512 1
gene 1 10 102 -1.46644 0 322 -1.46644 1
gene 1 10 104 0.782952 0 324 0.782952 1
gene 1 10 106 -2.40634 0 326 -2.40634 1
gene 1 10 107 -1.66474 0 327 -1.66474 1
gene 1 10 114 0.290216 0 334 0.290216 1
gene 1 11 90 -2.56838 0 344 -2.56838 1
gene 1 11 97 0.705405 0 351 0.705405 1
gene 1 11 107 0.0320902 0 361 0.0320902 1
gene 1 11 109 1.74424 0 363 1.74424 1
gene 1 11 110 0.0461745 0 364 0.0461745 1
gene 1 11 112 1.47003 0 366 1.47003 1
gene 1 11 113 -1.01962 0 367 -1.01962 1
gene 1 11 115 0.934004 0 369 0.934004 1
gene 1 11 116 -0.469878 0 370 -0.469878 1
gene 1 11 117 -2.36824 0 371 -2.36824 1
gene 1 11 118 1.24404 0 372 1.24404 1
gene 1 12 90 -1.12693 0 378 -1.12693 1
gene 1 12 98 -1.55078 0 386 -1.55078 1
gene 1 12 106 -2.70992 0 394 -2.70992 1
gene 1 12 113 1.32485 0 401 1.32485 1
gene 1 12 116 2.04237 0 404 2.04237 1
gene 1 13 93 -2.52345 0 415 -2.52345 1
gene 1 13 94 2.85839 0 416 2.85839 1
gene 1 13 95 0.759224 0 417 0.759224 1
gene 1 13 98 -0.317286 0 420 -0.317286 1
gene 1 13 99 1.37808 0 421 1.37808 1
gene 1 13 100 -0.0200812 0 422 -0.0200812 1
gene 1 13 109 -1.82209 0 431 -1.82209 1
gene 1 13 117 -0.238334 0 439 -0.238334 1
gene 1 14 87 1.69085 0 443 1.69085 1
gene 1 14 88 -0.4391 0 444 -0.4391 1
gene 1 14 91 2.55855 0 447 2.55855 1
gene 1 14 100 1.52869 0 456 1.52869 1
gene 1 14 103 -1.22924 0 459 -1.22924 1
gene 1 14 105 -1.80538 0 461 -1.80538 1
gene 1 14 114 0.629505 0 470 0.629505 1
gene 1 14 117 1.92409 0 473 1.92409 1
gene 1 14 119 -0.220344 0 475 -0.220344 1
gene 1 15 91 -3.34791 0 481 -3.34791 1
gene 1 15 94 -0.709082 0 484 -0.709082 1
gene 1 15 96 -2.13233 0 486 -2.13233 1
gene 1 15 103 -2.58815 0 493 -2.58815 1
gene 1 15 105 0.818888 0 495 0.818888 1
gene 1 15 107 1.5895 0 497 1.5895 1
gene 1 15 110 0.829981 0 500 0.829981 1
gene 1 15 111 -0.879101 0 501 -0.879101 1
gene 1 15 112 1.52269 0 502 1.52269 1
gene 1 16 86 -0.118992 0 510 -0.118992 1
gene 1 16 93 0.293634 0 517 0.293634 1
gene 1 16 100 -1.47798 0 524 -1.47798 1
gene 1 16 102 1.63419 0 526 1.63419 1
gene 1 16 105 0.600803 0 529 0.600803 1
gene 1 16 109 2.18831 0 533 2.18831 1
gene 1 16 118 -2.35496 0 542 -2.35496 1
gene 1 17 87 0.441679 0 545 0.441679 1
gene 1 17 88 -2.89927 0 546 -2.89927 1
gene 1 17 89 1.90185 0 547 1.90185 1
gene 1 17 91 0.625446 0 549 0.625446 1
gene 1 17 92 1.00755 0 550 1.00755 1
gene 1 17 96 -2.92074 0 554 -2.92074 1
gene 1 17 98 -1.95041 0 556 -1.95041 1
gene 1 17 99 -2.16829 0 557 -2.16829 1
gene 1 17 100 -1.39639 0 558 -1.39639 1
gene 1 17 102 -1.30447 0 560 -1.30447 1
gene 1 17 109 2.98569 0 567 2.98569 1
gene 1 17 111 1.86917 0 569 1.86917 1
gene 1 18 90 0.0118564 0 582 0.0118564 1
gene 1 18 97 0.99089 0 589 0.99089 1
gene 1 18 100 -0.981384 0 592 -0.981384 1
gene 1 18 102 -1.2526 0 594 -1.2526 1
gene 1 18 107 1.22459 0 599 1.22459 1
gene 1 18 108 1.43625 0 600 1.43625 1
gene 1 18 110 -2.14788 0 602 -2.14788 1
gene 1 19 91 0.462554 0 617 0.462554 1
gene 1 19 92 1.78259 0 618 1.78259 1
gene 1 19 94 0.453673 0 620 0.453673 1
gene 1 19 100 -1.20228 0 626 -1.20228 1
gene 1 19 103 0.200827 0 629 0.200827 1
gene 1 19 104 -2.53346 0 630 -2.53346 1
gene 1 19 105 2.12241 0 631 2.12241 1
gene 1 19 111 -0.956786 0 637 -0.956786 1
gene 1 19 112 -0.948607 0 638 -0.948607 1
gene 1 19 117 2.81266 0 643 2.81266 1
gene 1 19 118 2.34107 0 644 2.34107 1
gene 1 19 119 1.84352 0 645 1.84352 1
gene 1 20 88 0.61298 0 648 0.61298 1
gene 1 20 90 -0.537385 0 650 -0.537385 1
gene 1 20 94 0.787072 0 654 0.787072 1
gene 1 20 96 -2.12432 0 656 -2.12432 1
gene 1 20 102 -1.5882 0 662 -1.5882 1
gene 1 20 106 -0.00817896 0 666 -0.00817896 1
gene 1 20 116 0.961516 0 676 0.961516 1
gene 1 21 89 -0.0494858 0 683 -0.0494858 1
gene 1 21 102 -0.409207 0 696 -0.409207 1
gene 1 21 104 -0.217399 0 698 -0.217399 1
gene 1 21 105 -2.91449 0 699 -2.91449 1
gene 1 21 106 -2.76733 0 700 -2.76733 1
gene 1 21 107 -0.551149 0 701 -0.551149 1
gene 1 21 112 -2.34941 0 706 -2.34941 1
gene 1 21 117 -2.63346 0 711 -2.63346 1
gene 1 22 87 -1.24049 0 715 -1.24049 1
gene 1 22 88 0.0356151 0 716 0.0356151 1
gene 1 22 95 -1.17357 0 723 -1.17357 1
gene 1 22 97 -1.85072 0 725 -1.85072 1
gene 1 22 102 1.28516 0 730 1.28516 1
gene 1 22 103 0.366207 0 731 0.366207 1
gene 1 22 106 -1.98041 0 734 -1.98041 1
gene 1 22 108 -0.553026 0 736 -0.553026 1
gene 1 22 109 -2.49271 0 737 -2.49271 1
gene 1 23 87 0.150792 0 749 0.150792 1
gene 1 23 89 -1.74725 0 751 -1.74725 1
gene 1 23 92 1.18184 0 754 1.18184 1
gene 1 23 93 1.70643 0 755 1.70643 1
gene 1 23 94 0.746422 0 756 0.746422 1
gene 1 23 99 -2.41346 0 761 -2.41346 1
gene 1 23 107 -2.31623 0 769 -2.31623 1
gene 1 23 116 0.899564 0 778 0.899564 1
gene 1 23 118 1.35983 0 780 1.35983 1
gene 1 24 86 -0.901883 0 782 -0.901883 1
gene 1 24 87 -3.02181 0 783 -3.02181 1
gene 1 24 89 2.54996 0 785 2.54996 1
gene 1 24 91 1.15775 0 787 1.15775 1
gene 1 24 98 -2.12868 0 794 -2.12868 1
gene 1 24 105 -1.82975 0 801 -1.82975 1
gene 1 24 113 0.767769 0 809 0.767769 1
gene 1 24 115 2.11328 0 811 2.11328 1
gene 1 24 116 0.660955 0 812 0.660955 1
gene 1 24 117 -0.810434 0 813 -0.810434 1
gene 1 25 90 -2.09978 0 820 -2.09978 1
gene 1 25 91 1.02767 0 821 1.02767 1
gene 1 25 92 -2.4991 0 822 -2.4991 1
gene 1 25 102 -0.16039 0 832 -0.16039 1
gene 1 25 108 1.5004 0 838 1.5004 1
gene 1 25 109 1.48659 0 839 1.48659 1
gene 1 25 111 0.120243 0 841 0.120243 1
gene 1 25 113 0.135929 0 843 0.135929 1
gene 1 26 91 1.53832 0 855 1.53832 1
gene 1 26 93 0.149586 0 857 0.149586 1
gene 1 26 95 0.765145 0 859 0.765145 1
gene 1 26 99 -1.97459 0 863 -1.97459 1
gene 1 26 106 -1.16395 0 870 -1.16395 1
gene 1 26 109 -1.52493 0 873 -1.52493 1
gene 1 26 110 1.73933 0 874 1.73933 1
gene 1 26 116 -0.846599 0 880 -0.846599 1
gene 1 27 86 2.83554 0 884 2.83554 1
gene 1 27 88 1.18284 0 886 1.18284 1
gene 1 27 90 -0.914335 0 888 -0.914335 1
gene 1 27 96 2.11872 0 894 2.11872 1
gene 1 27 99 -0.232688 0 897 -0.232688 1
gene 1 27 101 -0.940123 0 899 -0.940123 1
gene 1 27 102 0.886944 0 900 0.886944 1
gene 1 27 103 -1.15525 0 901 -1.15525 1
gene 1 27 104 -0.70249 0 902 -0.70249 1
gene 1 27 105 -0.684088 0 903 -0.684088 1
gene 1 27 108 2.97211 0 906 2.97211 1
gene 1 27 110 0.546098 0 908 0.546098 1
gene 1 27 113 1.45399 0 911 1.45399 1
gene 1 27 114 -2.16092 0 912 -2.16092 1
gene 1 27 118 0.915647 0 916 0.915647 1
gene 1 28 86 -0.659581 0 918 -0.659581 1
gene 1 28 88 1.37072 0 920 1.37072 1
gene 1 28 95 0.126576 0 927 0.126576 1
gene 1 28 101 -1.67534 0 933 -1.67534 1
gene 1 28 103 0.605792 0 935 0.605792 1
gene 1 28 104 0.864605 0 936 0.864605 1
gene 1 28 105 -2.14687 0 937 -2.14687 1
gene 1 28 106 -1.02736 0 938 -1.02736 1
gene 1 28 109 1.7637 0 941 1.7637 1
gene 1 28 111 -1.40135 0 943 -1.40135 1
gene 1 28 115 -0.129246 0 947 -0.129246 1
gene 1 29 88 -1.63959 0 954 -1.63959 1
gene 1 29 89 -1.64347 0 955 -1.64347 1
gene 1 29 98 -0.693915 0 964 -0.693915 1
gene 1 29 100 -0.267586 0 966 -0.267586 1
gene 1 29 105 2.29373 0 971 2.29373 1
gene 1 29 114 1.18113 0 980 1.18113 1
gene 1 29 115 0.498321 0 981 0.498321 1
gene 1 30 89 -2.289 0 989 -2.289 1
gene 1 30 92 3.09095 0 992 3.09095 1
gene 1 30 103 -0.334269 0 1003 -0.334269 1
gene 1 30 106 1.91556 0 1006 1.91556 1
gene 1 30 117 -0.517014 0 1017 -0.517014 1
gene 1 31 96 3.20083 0 1030 3.20083 1
gene 1 31 97 -0.307306 0 1031 -0.307306 1
gene 1 31 100 -0.0453352 0 1034 -0.0453352 1
gene 1 31 102 1.20322 0 1036 1.20322 1
gene 1 31 105 -1.24722 0 1039 -1.24722 1
gene 1 31 110 1.79467 0 1044 1.79467 1
gene 1 31 111 0.986999 0 1045 0.986999 1
gene 1 31 115 1.52904 0 1049 1.52904 1
gene 1 31 119 1.28341 0 1053 1.28341 1
gene 1 32 86 2.35264 0 1054 2.35264 1
gene 1 32 93 2.64255 0 1061 2.64255 1
gene 1 32 95 1.0293 0 1063 1.0293 1
gene 1 32 97 -0.747673 0 1065 -0.747673 1
gene 1 32 100 0.204093 0 1068 0.204093 1
gene 1 32 104 -1.82861 0 1072 -1.82861 1
gene 1 32 108 1.35817 0 1076 1.35817 1
gene 1 32 109 3.33309 0 1077 3.33309 1
gene 1 32 110 -1.36384 0 1078 -1.36384 1
gene 1 32 112 1.57527 0 1080 1.57527 1
gene 1 32 113 0.520569 0 1081 0.520569 1
gene 1 32 118 -0.79928 0 1086 -0.79928 1
gene 1 33 87 -2.43072 0 1089 -2.43072 1
gene 1 33 88 0.286752 0 1090 0.286752 1
gene 1 33 90 -2.10642 0 1092 -2.10642 1
gene 1 33 93 1.0781 0 1095 1.0781 1
gene 1 33 99 -1.74493 0 1101 -1.74493 1
gene 1 33 100 0.13155 0 1102 0.13155 1
gene 1 33 105 -0.300195 0 1107 -0.300195 1
gene 1 33 107 2.21833 0 1109 2.21833 1
gene 1 33 110 1.95923 0 1112 1.95923 1
gene 1 33 117 1.16892 0 1119 1.16892 1
gene 1 33 119 1.07793 0 1121 1.07793 1
gene 1 34 97 1.09482 0 1133 1.09482 1
gene 1 34 99 -0.295923 0 1135 -0.295923 1
gene 1 34 109 -2.38559 0 1145 -2.38559 1
gene 1 34 111 0.294092 0 1147 0.294092 1
gene 1 34 112 -1.18384 0 1148 -1.18384 1
gene 1 34 115 1.36541 0 1151 1.36541 1
gene 1 35 86 2.82638 0 1156 2.82638 1
gene 1 35 91 -1.72542 0 1161 -1.72542 1
gene 1 35 100 -2.86042 0 1170 -2.86042 1
gene 1 35 105 1.50328 0 1175 1.50328 1
gene 1 35 110 -1.79888 0 1180 -1.79888 1
gene 1 36 87 1.60596 0 1191 1.60596 1
gene 1 36 88 -2.15149 0 1192 -2.15149 1
gene 1 36 98 1.99225 0 1202 1.99225 1
gene 1 36 99 -0.946379 0 1203 -0.946379 1
gene 1 36 101 -2.25129 0 1205 -2.25129 1
gene 1 36 105 -0.804575 0 1209 -0.804575 1
gene 1 36 108 -1.56398 0 1212 -1.56398 1
gene 1 36 110 -1.77155 0 1214 -1.77155 1
gene 1 36 111 0.391842 0 1215 0.391842 1
gene 1 36 113 -1.54332 0 1217 -1.54332 1
gene 1 37 86 1.29382 0 1224 1.29382 1
gene 1 37 88 1.23052 0 1226 1.23052 1
gene 1 37 91 -1.23005 0 1229 -1.23005 1
gene 1 37 92 1.37585 0 1230 1.37585 1
gene 1 37 105 0.0440229 0 1243 0.0440229 1
gene 1 37 108 -1.06795 0 1246 -1.06795 1
gene 1 37 110 2.14064 0 1248 2.14064 1
gene 1 37 113 -1.05443 0 1251 -1.05443 1
gene 1 37 116 -1.97302 0 1254 -1.97302 1
gene 1 37 118 1.13417 0 1256 1.13417 1
gene 1 37 119 0.656011 0 1257 0.656011 1
gene 1 38 86 2.2691 0 1258 2.2691 1
gene 1 38 87 -0.825602 0 1259 -0.825602 1
gene 1 38 88 -1.9042 0 1260 -1.9042 1
gene 1 38 92 -2.02536 0 1264 -2.02536 1
gene 1 38 100 -0.575442 0 1272 -0.575442 1
gene 1 38 106 2.00397 0 1278 2.00397 1
gene 1 38 112 -2.06113 0 1284 -2.06113 1
gene 1 38 113 -0.526475 0 1285 -0.526475 1
gene 1 38 119 -1.5052 0 1291 -1.5052 1
gene 1 39 88 -0.971877 0 1294 -0.971877 1
gene 1 39 91 2.0715 0 1297 2.0715 1
gene 1 39 104 0.225562 0 1310 0.225562 1
gene 1 39 106 1.19713 0 1312 1.19713 1
gene 1 39 107 2.41874 0 1313 2.41874 1
gene 1 39 112 1.9868 0 1318 1.9868 1
gene 1 39 116 2.29661 0 1322 2.29661 1
gene 1 40 88 1.82868 0 1328 1.82868 1
gene 1 40 90 2.35862 0 1330 2.35862 1
gene 1 40 92 -2.83552 0 1332 -2.83552 1
gene 1 40 95 1.74891 0 1335 1.74891 1
gene 1 40 98 -2.85246 0 1338 -2.85246 1
gene 1 40 99 2.39566 0 1339 2.39566 1
gene 1 40 108 0.842647 0 1348 0.842647 1
gene 1 40 109 3.15162 0 1349 3.15162 1
gene 1 40 110 -1.14911 0 1350 -1.14911 1
gene 1 40 112 -1.14156 0 1352 -1.14156 1
gene 1 40 114 1.37736 0 1354 1.37736 1
gene 1 40 117 -0.152303 0 1357 -0.152303 1
gene 1 40 119 1.02089 0 1359 1.02089 1
gene 1 41 89 1.89616 0 1363 1.89616 1
gene 1 41 93 0.670721 0 1367 0.670721 1
gene 1 41 100 -1.97153 0 1374 -1.97153 1
gene 1 41 105 -0.54796 0 1379 -0.54796 1
gene 1 41 111 -1.46106 0 1385 -1.46106 1
gene 1 41 117 -2.19984 0 1391 -2.19984 1
gene 1 41 119 -0.965072 0 1393 -0.965072 1
gene 1 42 89 0.747856 0 1397 0.747856 1
gene 1 42 94 -1.13169 0 1402 -1.13169 1
gene 1 42 97 -1.7479 0 1405 -1.7479 1
gene 1 42 98 1.79072 0 1406 1.79072 1
gene 1 42 101 -2.10303 0 1409 -2.10303 1
gene 1 42 102 -0.899258 0 1410 -0.899258 1
gene 1 42 105 -0.939085 0 1413 -0.939085 1
gene 1 42 106 0.183859 0 1414 0.183859 1
gene 1 42 107 -1.5004 0 1415 -1.5004 1
gene 1 42 108 -2.17971 0 1416 -2.17971 1
gene 1 42 110 3.1353 0 1418 3.1353 1
gene 1 42 111 -1.64972 0 1419 -1.64972 1
gene 1 42 112 -0.360286 0 1420 -0.360286 1
gene 1 42 113 1.11843 0 1421 1.11843 1
gene 1 43 86 1.78716 0 1428 1.78716 1
gene 1 43 87 -2.43709 0 1429 -2.43709 1
gene 1 43 88 1.1718 0 1430 1.1718 1
gene 1 43 100 2.40539 0 1442 2.40539 1
gene 1 43 101 0.787194 0 1443 0.787194 1
gene 1 43 104 -1.44314 0 1446 -1.44314 1
gene 1 43 110 -3.4053 0 1452 -3.4053 1
gene 1 43 114 -1.85519 0 1456 -1.85519 1
gene 1 44 86 0.159764 0 1462 0.159764 1
gene 1 44 89 -1.82867 0 1465 -1.82867 1
gene 1 44 90 -1.37651 0 1466 -1.37651 1
gene 1 44 94 0.334208 0 1470 0.334208 1
gene 1 44 98 0.374325 0 1474 0.374325 1
gene 1 44 99 -2.00397 0 1475 -2.00397 1
gene 1 44 102 -1.55425 0 1478 -1.55425 1
gene 1 44 103 0.323359 0 1479 0.323359 1
gene 1 44 104 -1.27117 0 1480 -1.27117 1
gene 1 44 106 1.60367 0 1482 1.60367 1
gene 1 44 111 2.45553 0 1487 2.45553 1
gene 1 44 113 -0.91081 0 1489 -0.91081 1
gene 1 44 115 -1.44336 0 1491 -1.44336 1
gene 1 44 117 -0.871303 0 1493 -0.871303 1
gene 1 45 90 -1.64531 0 1500 -1.64531 1
gene 1 45 99 2.25588 0 1509 2.25588 1
gene 1 45 100 -0.644993 0 1510 -0.644993 1
gene 1 46 88 1.2644 0 1532 1.2644 1
gene 1 46 89 2.156 0 1533 2.156 1
gene 1 46 91 -1.90434 0 1535 -1.90434 1
gene 1 46 92 -1.26185 0 1536 -1.26185 1
gene 1 46 96 0.541063 0 1540 0.541063 1
gene 1 46 99 1.12633 0 1543 1.12633 1
gene 1 46 109 -1.86219 0 1553 -1.86219 1
gene 1 46 110 2.66156 0 1554 2.66156 1
gene 1 46 113 2.03404 0 1557 2.03404 1
gene 1 46 116 -0.047853 0 1560 -0.047853 1
gene 1 47 86 1.34916 0 1564 1.34916 1
gene 1 47 90 0.25016 0 1568 0.25016 1
gene 1 47 92 0.975249 0 1570 0.975249 1
gene 1 47 95 0.916639 0 1573 0.916639 1
gene 1 47 98 0.876095 0 1576 0.876095 1
gene 1 47 101 -2.10804 0 1579 -2.10804 1
gene 1 47 102 -1.54498 0 1580 -1.54498 1
gene 1 47 109 -1.24493 0 1587 -1.24493 1
gene 1 47 113 0.0671865 0 1591 0.0671865 1
gene 1 48 87 1.49399 0 1599 1.49399 1
gene 1 48 92 1.66828 0 1604 1.66828 1
gene 1 48 93 1.35257 0 1605 1.35257 1
gene 1 48 95 -0.567766 0 1607 -0.567766 1
gene 1 48 96 -2.59857 0 1608 -2.59857 1
gene 1 48 101 -0.256111 0 1613 -0.256111 1
gene 1 48 102 2.34542 0 1614 2.34542 1
gene 1 48 105 -1.00337 0 1617 -1.00337 1
gene 1 48 106 -0.614429 0 1618 -0.614429 1
gene 1 48 109 0.822169 0 1621 0.822169 1
gene 1 48 113 2.4758 0 1625 2.4758 1
gene 1 48 115 -0.528581 0 1627 -0.528581 1
gene 1 48 119 0.765007 0 1631 0.765007 1
gene 1 49 87 1.17792 0 1633 1.17792 1
gene 1 49 92 -1.68926 0 1638 -1.68926 1
gene 1 49 99 2.63369 0 1645 2.63369 1
gene 1 49 100 -0.721946 0 1646 -0.721946 1
gene 1 49 101 -0.825358 0 1647 -0.825358 1
gene 1 49 104 0.715995 0 1650 0.715995 1
gene 1 49 106 -0.778085 0 1652 -0.778085 1
gene 1 49 107 -1.06139 0 1653 -1.06139 1
gene 1 49 112 -2.56235 0 1658 -2.56235 1
gene 1 49 116 -0.0531022 0 1662 -0.0531022 1
gene 1 50 88 -1.3096 0 1668 -1.3096 1
gene 1 50 90 -0.976058 0 1670 -0.976058 1
gene 1 50 94 0.925367 0 1674 0.925367 1
gene 1 50 95 -0.22454 0 1675 -0.22454 1
gene 1 50 96 -1.27279 0 1676 -1.27279 1
gene 1 50 103 -0.899213 0 1683 -0.899213 1
gene 1 50 114 -1.6138 0 1694 -1.6138 1
gene 1 50 115 0.757744 0 1695 0.757744 1
gene 1 51 90 0.612064 0 1704 0.612064 1
gene 1 51 106 0.943037 0 1720 0.943037 1
gene 1 51 108 -0.740425 0 1722 -0.740425 1
gene 1 52 88 2.02687 0 1736 2.02687 1
gene 1 52 93 0.302774 0 1741 0.302774 1
gene 1 52 98 -2.18419 0 1746 -2.18419 1
gene 1 52 99 -0.280435 0 1747 -0.280435 1
gene 1 52 104 0.0360729 0 1752 0.0360729 1
gene 1 52 107 -0.57149 0 1755 -0.57149 1
gene 1 52 113 1.58673 0 1761 1.58673 1
gene 1 52 119 1.34593 0 1767 1.34593 1
gene 1 53 90 0.382977 0 1772 0.382977 1
gene 1 53 98 1.92973 0 1780 1.92973 1
gene 1 53 107 -0.0281991 0 1789 -0.0281991 1
gene 1 53 111 -2.33131 0 1793 -2.33131 1
gene 1 53 112 1.62552 0 1794 1.62552 1
gene 1 53 114 1.40867 0 1796 1.40867 1
gene 1 53 115 1.77039 0 1797 1.77039 1
gene 1 53 119 1.54169 0 1801 1.54169 1
gene 1 54 89 1.02673 0 1805 1.02673 1
gene 1 54 91 0.185629 0 1807 0.185629 1
gene 1 54 93 -0.530274 0 1809 -0.530274 1
gene 1 54 95 -1.41911 0 1811 -1.41911 1
gene 1 54 105 0.833811 0 1821 0.833811 1
gene 1 54 106 0.0990936 0 1822 0.0990936 1
gene 1 54 110 -1.05634 0 1826 -1.05634 1
gene 1 55 86 -1.26861 0 1836 -1.26861 1
gene 1 55 92 2.67388 0 1842 2.67388 1
gene 1 55 95 3.26531 0 1845 3.26531 1
gene 1 55 97 0.168462 0 1847 0.168462 1
gene 1 55 112 -1.63884 0 1862 -1.63884 1
gene 1 55 113 0.397595 0 1863 0.397595 1
gene 1 55 114 0.915204 0 1864 0.915204 1
gene 1 55 119 2.12746 0 1869 2.12746 1
gene 1 56 88 -2.96402 0 1872 -2.96402 1
gene 1 56 96 -0.420774 0 1880 -0.420774 1
gene 1 56 108 -1.31626 0 1892 -1.31626 1
gene 1 56 111 1.79826 0 1895 1.79826 1
gene 1 56 118 -0.322642 0 1902 -0.322642 1
gene 1 57 108 -1.58586 0 1926 -1.58586 1
gene 1 57 112 1.77731 0 1930 1.77731 1
gene 1 57 114 0.576067 0 1932 0.576067 1
gene 1 57 115 0.877575 0 1933 0.877575 1
gene 1 58 88 1.99799 0 1940 1.99799 1
gene 1 58 91 3.05081 0 1943 3.05081 1
gene 1 58 92 0.175176 0 1944 0.175176 1
gene 1 58 93 2.58708 0 1945 2.58708 1
gene 1 58 94 -0.865413 0 1946 -0.865413 1
gene 1 58 95 -1.7192 0 1947 -1.7192 1
gene 1 58 96 2.43002 0 1948 2.43002 1
gene 1 58 97 -1.79597 0 1949 -1.79597 1
gene 1 58 101 1.10891 0 1953 1.10891 1
gene 1 58 103 0.201193 0 1955 0.201193 1
gene 1 58 104 3.0623 0 1956 3.0623 1
gene 1 58 116 -1.95196 0 1968 -1.95196 1
gene 1 59 87 -0.790567 0 1973 -0.790567 1
gene 1 59 88 2.66984 0 1974 2.66984 1
gene 1 59 90 0.499298 0 1976 0.499298 1
gene 1 59 91 -1.09622 0 1977 -1.09622 1
gene 1 59 96 1.51523 0 1982 1.51523 1
gene 1 59 97 2.59056 0 1983 2.59056 1
gene 1 59 102 -2.83897 0 1988 -2.83897 1
gene 1 59 104 2.76324 0 1990 2.76324 1
gene 1 59 110 -0.868633 0 1996 -0.868633 1
gene 1 59 111 -1.77537 0 1997 -1.77537 1
gene 1 59 114 1.89769 0 2000 1.89769 1
gene 1 59 115 -1.48514 0 2001 -1.48514 1
gene 1 59 116 -0.62241 0 2002 -0.62241 1
gene 1 59 119 1.33457 0 2005 1.33457 1
gene 1 60 86 -2.37751 0 2006 -2.37751 1
gene 1 60 87 -2.32987 0 2007 -2.32987 1
gene 1 60 91 2.42186 0 2011 2.42186 1
gene 1 60 92 -0.7828 0 2012 -0.7828 1
gene 1 60 94 2.4445 0 2014 2.4445 1
gene 1 60 98 0.964873 0 2018 0.964873 1
gene 1 60 99 0.90022 0 2019 0.90022 1
gene 1 60 101 -0.897504 0 2021 -0.897504 1
gene 1 60 103 -0.106174 0 2023 -0.106174 1
gene 1 60 113 -1.00421 0 2033 -1.00421 1
gene 1 60 115 1.09478 0 2035 1.09478 1
gene 1 61 86 -1.75996 0 2040 -1.75996 1
gene 1 61 88 -1.33708 0 2042 -1.33708 1
gene 1 61 91 1.27349 0 2045 1.27349 1
gene 1 61 92 -0.0732444 0 2046 -0.0732444 1
gene 1 61 97 0.504746 0 2051 0.504746 1
gene 1 61 101 -0.791894 0 2055 -0.791894 1
gene 1 61 102 -2.83287 0 2056 -2.83287 1
gene 1 61 106 1.49487 0 2060 1.49487 1
gene 1 61 108 -0.577593 0 2062 -0.577593 1
gene 1 61 110 1.44357 0 2064 1.44357 1
gene 1 61 111 -0.69808 0 2065 -0.69808 1
gene 1 61 115 -1.10739 0 2069 -1.10739 1
gene 1 62 90 2.141 0 2078 2.141 1
gene 1 62 95 -0.695685 0 2083 -0.695685 1
gene 1 62 97 2.15528 0 2085 2.15528 1
gene 1 62 99 -1.51753 0 2087 -1.51753 1
gene 1 62 101 0.737709 0 2089 0.737709 1
gene 1 62 103 1.74299 0 2091 1.74299 1
gene 1 62 104 0.975311 0 2092 0.975311 1
gene 1 62 115 1.53761 0 2103 1.53761 1
gene 1 62 116 -1.59223 0 2104 -1.59223 1
gene 1 63 94 0.358867 0 2116 0.358867 1
gene 1 63 96 -2.66504 0 2118 -2.66504 1
gene 1 63 108 1.3744 0 2130 1.3744 1
gene 1 63 110 -0.249763 0 2132 -0.249763 1
gene 1 63 111 1.03275 0 2133 1.03275 1
gene 1 63 112 -2.23043 0 2134 -2.23043 1
gene 1 64 88 0.307657 0 2144 0.307657 1
gene 1 64 91 -1.20168 0 2147 -1.20168 1
gene 1 64 94 1.29719 0 2150 1.29719 1
gene 1 64 98 0.717444 0 2154 0.717444 1
gene 1 64 101 1.99889 0 2157 1.99889 1
gene 1 64 104 1.64832 0 2160 1.64832 1
gene 1 64 105 -1.94086 0 2161 -1.94086 1
gene 1 64 109 -1.80229 0 2165 -1.80229 1
gene 1 64 112 0.485229 0 2168 0.485229 1
gene 1 64 115 1.79254 0 2171 1.79254 1
gene 1 64 118 0.292093 0 2174 0.292093 1
gene 1 65 88 2.13317 0 2178 2.13317 1
gene 1 65 95 0.0662709 0 2185 0.0662709 1
gene 1 65 100 0.305094 0 2190 0.305094 1
gene 1 65 111 0.0863216 0 2201 0.0863216 1
gene 1 65 113 -2.01028 0 2203 -2.01028 1
gene 1 65 117 -1.3247 0 2207 -1.3247 1
gene 1 66 88 1.39505 0 2212 1.39505 1
gene 1 66 89 0.526719 0 2213 0.526719 1
gene 1 66 91 -2.41325 0 2215 -2.41325 1
gene 1 66 98 1.15792 0 2222 1.15792 1
gene 1 66 100 -1.44458 0 2224 -1.44458 1
gene 1 66 108 -0.402341 0 2232 -0.402341 1
gene 1 66 111 -0.119419 0 2235 -0.119419 1
gene 1 66 112 0.252968 0 2236 0.252968 1
gene 1 66 115 1.2351 0 2239 1.2351 1
gene 1 66 117 0.758522 0 2241 0.758522 1
gene 1 66 118 2.14469 0 2242 2.14469 1
gene 1 67 86 1.13434 0 2244 1.13434 1
gene 1 67 103 2.94166 0 2261 2.94166 1
gene 1 67 106 0.852718 0 2264 0.852718 1
gene 1 67 109 -1.04639 0 2267 -1.04639 1
gene 1 67 112 0.653813 0 2270 0.653813 1
gene 1 67 116 2.02535 0 2274 2.02535 1
gene 1 67 119 -2.14112 0 2277 -2.14112 1
gene 1 68 87 -1.37527 0 2279 -1.37527 1
gene 1 68 91 2.40934 0 2283 2.40934 1
gene 1 68 93 0.265755 0 2285 0.265755 1
gene 1 68 105 0.823115 0 2297 0.823115 1
gene 1 68 110 0.915403 0 2302 0.915403 1
gene 1 68 112 3.16768 0 2304 3.16768 1
gene 1 69 88 0.928098 0 2314 0.928098 1
gene 1 69 89 -0.838862 0 2315 -0.838862 1
gene 1 69 91 -0.20896 0 2317 -0.20896 1
gene 1 69 94 0.00192267 0 2320 0.00192267 1
gene 1 69 96 -1.74352 0 2322 -1.74352 1
gene 1 69 97 2.52707 0 2323 2.52707 1
gene 1 69 98 -2.23209 0 2324 -2.23209 1
gene 1 69 104 2.20336 0 2330 2.20336 1
gene 1 69 108 2.27477 0 2334 2.27477 1
gene 1 69 113 -1.13263 0 2339 -1.13263 1
gene 1 69 115 -1.02106 0 2341 -1.02106 1
gene 1 70 88 0.179922 0 2348 0.179922 1
gene 1 70 89 0.0603351 0 2349 0.0603351 1
gene 1 70 93 3.06908 0 2353 3.06908 1
gene 1 70 95 -0.686331 0 2355 -0.686331 1
gene 1 70 96 -0.198599 0 2356 -0.198599 1
gene 1 70 98 -0.0192267 0 2358 -0.0192267 1
gene 1 70 109 0.919279 0 2369 0.919279 1
gene 1 70 114 -2.63126 0 2374 -2.63126 1
gene 1 70 115 1.70454 0 2375 1.70454 1
gene 1 70 119 -0.817896 0 2379 -0.817896 1
gene 1 71 86 -0.357799 0 2380 -0.357799 1
gene 1 71 87 0.949828 0 2381 0.949828 1
gene 1 71 88 0.256005 0 2382 0.256005 1
gene 1 71 91 2.29754 0 2385 2.29754 1
gene 1 71 97 -0.00350963 0 2391 -0.00350963 1
gene 1 71 98 -2.22213 0 2392 -2.22213 1
gene 1 71 100 2.10086 0 2394 2.10086 1
gene 1 71 106 -1.0831 0 2400 -1.0831 1
gene 1 71 108 -1.10387 0 2402 -1.10387 1
gene 1 71 110 0.977279 0 2404 0.977279 1
gene 1 71 111 0.0257881 0 2405 0.0257881 1
gene 1 71 112 0.624195 0 2406 0.624195 1
gene 1 72 86 0.136052 0 2414 0.136052 1
gene 1 72 94 -0.651021 0 2422 -0.651021 1
gene 1 72 97 -0.831385 0 2425 -0.831385 1
gene 1 72 101 -0.132023 0 2429 -0.132023 1
gene 1 72 105 2.34298 0 2433 2.34298 1
gene 1 72 107 0.235542 0 2435 0.235542 1
gene 1 72 112 -1.44414 0 2440 -1.44414 1
gene 1 72 114 0.171361 0 2442 0.171361 1
gene 1 73 95 0.951903 0 2457 0.951903 1
gene 1 73 97 0.722114 0 2459 0.722114 1
gene 1 73 100 2.00627 0 2462 2.00627 1
gene 1 73 111 -1.45421 0 2473 -1.45421 1
gene 1 73 113 1.02571 0 2475 1.02571 1
gene 1 73 115 -1.53111 0 2477 -1.53111 1
gene 1 73 116 2.92303 0 2478 2.92303 1
gene 1 73 117 2.88177 0 2479 2.88177 1
gene 1 74 89 -0.889157 0 2485 -0.889157 1
gene 1 74 95 0.381542 0 2491 0.381542 1
gene 1 74 100 -0.19303 0 2496 -0.19303 1
gene 1 74 101 0.29107 0 2497 0.29107 1
gene 1 74 107 0.0778222 0 2503 0.0778222 1
gene 1 74 111 -0.656529 0 2507 -0.656529 1
gene 1 74 116 2.2009 0 2512 2.2009 1
gene 1 75 91 2.47604 0 2521 2.47604 1
gene 1 75 95 -0.730186 0 2525 -0.730186 1
gene 1 75 100 2.55249 0 2530 2.55249 1
gene 1 75 103 -1.57881 0 2533 -1.57881 1
gene 1 75 107 -0.253059 0 2537 -0.253059 1
gene 1 75 108 0.283547 0 2538 0.283547 1
gene 1 75 111 2.92033 0 2541 2.92033 1
gene 1 75 114 1.09325 0 2544 1.09325 1
gene 1 75 117 -0.258553 0 2547 -0.258553 1
gene 1 76 86 0.373577 0 2550 0.373577 1
gene 1 76 87 0.476394 0 2551 0.476394 1
gene 1 76 94 -0.5992 0 2558 -0.5992 1
gene 1 76 99 1.95836 0 2563 1.95836 1
gene 1 76 104 -0.815424 0 2568 -0.815424 1
gene 1 76 106 0.606067 0 2570 0.606067 1
gene 1 76 112 1.26313 0 2576 1.26313 1
gene 1 76 118 0.787439 0 2582 0.787439 1
gene 1 77 87 -0.379589 0 2585 -0.379589 1
gene 1 77 90 0.644475 0 2588 0.644475 1
gene 1 77 93 2.4659 0 2591 2.4659 1
gene 1 77 95 -2.35855 0 2593 -2.35855 1
gene 1 77 100 1.71859 0 2598 1.71859 1
gene 1 77 102 -0.343333 0 2600 -0.343333 1
gene 1 77 104 0.005768 0 2602 0.005768 1
gene 1 77 107 0.63303 0 2605 0.63303 1
gene 1 77 111 1.29965 0 2609 1.29965 1
gene 1 77 114 0.151067 0 2612 0.151067 1
gene 1 78 89 -2.07767 0 2621 -2.07767 1
gene 1 78 92 0.280969 0 2624 0.280969 1
gene 1 78 94 3.04321 0 2626 3.04321 1
gene 1 78 99 0.391171 0 2631 0.391171 1
gene 1 78 102 0.433409 0 2634 0.433409 1
gene 1 78 103 0.548235 0 2635 0.548235 1
gene 1 78 104 1.28925 0 2636 1.28925 1
gene 1 78 105 0.42375 0 2637 0.42375 1
gene 1 78 106 -1.96767 0 2638 -1.96767 1
gene 1 78 110 0.143925 0 2642 0.143925 1
gene 1 79 89 -1.21897 0 2655 -1.21897 1
gene 1 79 94 0.219504 0 2660 0.219504 1
gene 1 79 95 2.03696 0 2661 2.03696 1
gene 1 79 102 -3.0493 0 2668 -3.0493 1
gene 1 79 105 -2.20423 0 2671 -2.20423 1
gene 1 79 111 -0.479141 0 2677 -0.479141 1
gene 1 79 115 -0.4944 0 2681 -0.4944 1
gene 1 79 117 -0.603427 0 2683 -0.603427 1
gene 1 79 118 -0.568941 0 2684 -0.568941 1
gene 1 79 119 -1.37402 0 2685 -1.37402 1
gene 1 80 88 0.469955 0 2688 0.469955 1
gene 1 80 93 0.242164 0 2693 0.242164 1
gene 1 80 95 -0.300974 0 2695 -0.300974 1
gene 1 80 108 -0.641362 0 2708 -0.641362 1
gene 1 80 109 0.850032 0 2709 0.850032 1
gene 1 80 115 0.26809 0 2715 0.26809 1
gene 1 80 119 -1.15192 0 2719 -1.15192 1
gene 1 81 88 0.363079 0 2722 0.363079 1
gene 1 81 89 -0.941343 0 2723 -0.941343 1
gene 1 81 92 -1.25065 0 2726 -1.25065 1
gene 1 81 100 2.2989 0 2734 2.2989 1
gene 1 81 102 -0.849681 0 2736 -0.849681 1
gene 1 81 108 -1.0822 0 2742 -1.0822 1
gene 1 81 114 1.64792 0 2748 1.64792 1
gene 1 82 86 -0.658742 0 2754 -0.658742 1
gene 1 82 87 -1.22539 0 2755 -1.22539 1
gene 1 82 91 -0.359905 0 2759 -0.359905 1
gene 1 82 94 -0.136845 0 2762 -0.136845 1
gene 1 82 97 -2.37371 0 2765 -2.37371 1
gene 1 82 98 -2.51451 0 2766 -2.51451 1
gene 1 82 107 2.3645 0 2775 2.3645 1
gene 1 82 108 2.03671 0 2776 2.03671 1
gene 1 82 111 -0.502792 0 2779 -0.502792 1
gene 1 82 116 -2.68854 0 2784 -2.68854 1
gene 1 83 87 -1.41905 0 2789 -1.41905 1
gene 1 83 93 -2.61863 0 2795 -2.61863 1
gene 1 83 111 -0.835582 0 2813 -0.835582 1
gene 1 83 113 1.18476 0 2815 1.18476 1
gene 1 84 88 -0.974609 0 2824 -0.974609 1
gene 1 84 92 -0.847026 0 2828 -0.847026 1
gene 1 84 94 -1.22295 0 2830 -1.22295 1
gene 1 84 102 0.0894803 0 2838 0.0894803 1
gene 1 84 104 -1.46945 0 2840 -1.46945 1
gene 1 84 106 -1.08704 0 2842 -1.08704 1
gene 1 84 109 1.8878 0 2845 1.8878 1
gene 1 85 86 -0.752617 0 2856 -0.752617 1
gene 1 85 87 2.47581 0 2857 2.47581 1
gene 1 85 90 -0.400769 0 2860 -0.400769 1
gene 1 85 96 0.69921 0 2866 0.69921 1
gene 1 85 100 -1.13173 0 2870 -1.13173 1
gene 1 85 105 -0.818506 0 2875 -0.818506 1
gene 1 85 112 1.77174 0 2882 1.77174 1
gene 1 85 114 -0.416776 0 2884 -0.416776 1
gene 1 85 115 0.571093 0 2885 0.571093 1
genomeend 2

/* Organism #3 Fitness: 45 Error: 0 */
genomestart 3
trait 1 0.1 0 0 0 0 0 0 0 
node 1 1 1 3
node 2 1 1 1
node 3 1 1 1
node 4 1 1 1
node 5 1 1 1
node 6 1 1 1
node 7 1 1 1
node 8 1 1 1
node 9 1 1 1
node 10 1 1 1
node 11 1 1 1
node 12 1 1 1
node 13 1 1 1
node 14 1 1 1
node 15 1 1 1
node 16 1 1 1
node 17 1 1 1
node 18 1 1 1
node 19 1 1 1
node 20 1 1 1
node 21 1 1 1
node 22 1 1 1
node 23 1 1 1
node 24 1 1 1
node 25 1 1 1
node 26 1 1 1
node 27 1 1 1
node 28 1 1 1
node 29 1 1 1
node 30 1 1 1
node 31 1 1 1
node 32 1 1 1
node 33 1 1 1
node 34 1 1 1
node 35 1 1 1
node 36 1 1 1
node 37 1 1 1
