
/* Species #1 : (Size 9) (AF 18.8889) (Age 10)  */


/* Organism #0 Fitness: 50 Error: 0 */
genomestart 0
trait 1 0.1 0 0 0 0 0 0 0 
node 1 1 1 3
node 2 1 1 1
node 3 1 1 1
node 4 1 1 1
node 5 1 1 1
node 6 1 1 1
node 7 1 1 1
node 8 1 1 1
node 9 1 1 1
node 10 1 1 1
node 11 1 1 1
node 12 1 1 1
node 13 1 1 1
node 14 1 1 1
node 15 1 1 1
node 16 1 1 1
node 17 1 1 1
node 18 1 1 1
node 19 1 1 1
node 20 1 1 1
node 21 1 1 1
node 22 1 1 1
node 23 1 1 1
node 24 1 1 1
node 25 1 1 1
node 26 1 1 1
node 27 1 1 1
node 28 1 1 1
node 29 1 1 1
node 30 1 1 1
node 31 1 1 1
node 32 1 1 1
node 33 1 1 1
node 34 1 1 1
node 35 1 1 1
node 36 1 1 1
node 37 1 1 1
node 38 1 1 1
node 39 1 1 1
node 40 1 1 1
node 41 1 1 1
node 42 1 1 1
node 43 1 1 1
node 44 1 1 1
node 45 1 1 1
node 46 1 1 1
node 47 1 1 1
node 48 1 1 1
node 49 1 1 1
node 50 1 1 1
node 51 1 1 1
node 52 1 1 1
node 53 1 1 1
node 54 1 1 1
node 55 1 1 1
node 56 1 1 1
node 57 1 1 1
node 58 1 1 1
node 59 1 1 1
node 60 1 1 1
node 61 1 1 1
node 62 1 1 1
node 63 1 1 1
node 64 1 1 1
node 65 1 1 1
node 66 1 1 1
node 67 1 1 1
node 68 1 1 1
node 69 1 1 1
node 70 1 1 1
node 71 1 1 1
node 72 1 1 1
node 73 1 1 1
node 74 1 1 1
node 75 1 1 1
node 76 1 1 1
node 77 1 1 1
node 78 1 1 1
node 79 1 1 1
node 80 1 1 1
node 81 1 1 1
node 82 1 1 1
node 83 1 1 1
node 84 1 1 1
node 85 1 1 1
node 86 1 0 2
node 87 1 0 2
node 88 1 0 2
node 89 1 0 2
node 90 1 0 2
node 91 1 0 2
node 92 1 0 2
node 93 1 0 2
node 94 1 0 2
node 95 1 0 2
node 96 1 0 2
node 97 1 0 2
node 98 1 0 2
node 99 1 0 2
node 100 1 0 2
node 101 1 0 2
node 102 1 0 2
node 103 1 0 2
node 104 1 0 2
node 105 1 0 2
node 106 1 0 2
node 107 1 0 2
node 108 1 0 2
node 109 1 0 2
node 110 1 0 2
node 111 1 0 2
node 112 1 0 2
node 113 1 0 2
node 114 1 0 2
node 115 1 0 2
node 116 1 0 2
node 117 1 0 2
node 118 1 0 2
node 119 1 0 2
gene 1 1 86 0.608112 0 0 0.608112 1
gene 1 1 90 -0.823359 0 4 -0.823359 1
gene 1 1 91 0.354167 0 5 0.354167 1
gene 1 1 94 -0.400616 0 8 -0.400616 1
gene 1 1 99 0.571581 0 13 0.571581 1
gene 1 1 102 -0.875759 0 16 -0.875759 1
gene 1 1 106 0.397107 0 20 0.397107 1
gene 1 1 109 -0.195624 0 23 -0.195624 1
gene 1 1 114 0.795343 0 28 0.795343 1
gene 1 1 115 0.0229804 0 29 0.0229804 1
gene 1 1 118 0.563677 0 32 0.563677 1
gene 1 1 119 -0.031373 0 33 -0.031373 1
gene 1 2 87 0.237678 0 35 0.237678 1
gene 1 2 93 0.303751 0 41 0.303751 1
gene 1 2 99 0.92822 0 47 0.92822 1
gene 1 2 103 -0.115787 0 51 -0.115787 1
gene 1 2 105 -0.621174 0 53 -0.621174 1
gene 1 2 108 -0.88525 0 56 -0.88525 1
gene 1 2 109 -0.971862 0 57 -0.971862 1
gene 1 2 110 -0.568499 0 58 -0.568499 1
gene 1 2 114 0.124088 0 62 0.124088 1
gene 1 3 88 -0.285775 0 70 -0.285775 1
gene 1 3 89 0.586566 0 71 0.586566 1
gene 1 3 101 -0.455977 0 83 -0.455977 1
gene 1 3 107 -0.696768 0 89 -0.696768 1
gene 1 3 109 0.222602 0 91 0.222602 1
gene 1 3 111 -0.704001 0 93 -0.704001 1
gene 1 3 114 0.451857 0 96 0.451857 1
gene 1 3 119 0.00302133 0 101 0.00302133 1
gene 1 4 90 -0.0844447 0 106 -0.0844447 1
gene 1 4 93 0.549272 0 109 0.549272 1
gene 1 4 98 0.121921 0 114 0.121921 1
gene 1 4 100 0.986724 0 116 0.986724 1
gene 1 4 102 0.0292367 0 118 0.0292367 1
gene 1 4 104 0.520127 0 120 0.520127 1
gene 1 4 106 0.834407 0 122 0.834407 1
gene 1 4 109 -0.0627766 0 125 -0.0627766 1
gene 1 4 110 -0.706717 0 126 -0.706717 1
gene 1 4 112 -0.690603 0 128 -0.690603 1
gene 1 4 113 0.29487 0 129 0.29487 1
gene 1 4 117 -0.934141 0 133 -0.934141 1
gene 1 5 91 -0.606006 0 141 -0.606006 1
gene 1 5 92 0.940062 0 142 0.940062 1
gene 1 5 98 -0.706839 0 148 -0.706839 1
gene 1 5 100 0.0326243 0 150 0.0326243 1
gene 1 5 102 0.0285043 0 152 0.0285043 1
gene 1 5 109 0.707114 0 159 0.707114 1
gene 1 5 114 -0.556383 0 164 -0.556383 1
gene 1 5 119 -0.585742 0 169 -0.585742 1
gene 1 6 87 -0.685354 0 171 -0.685354 1
gene 1 6 88 -0.368389 0 172 -0.368389 1
gene 1 6 90 0.0227668 0 174 0.0227668 1
gene 1 6 93 -0.307871 0 177 -0.307871 1
gene 1 6 94 0.920042 0 178 0.920042 1
gene 1 6 100 0.242592 0 184 0.242592 1
gene 1 6 105 0.0133671 0 189 0.0133671 1
gene 1 6 115 0.716727 0 199 0.716727 1
gene 1 6 119 -0.556322 0 203 -0.556322 1
gene 1 7 90 -0.219398 0 208 -0.219398 1
gene 1 7 93 -0.823847 0 211 -0.823847 1
gene 1 7 95 0.0747703 0 213 0.0747703 1
gene 1 7 101 0.370556 0 219 0.370556 1
gene 1 7 102 -0.0132145 0 220 -0.0132145 1
gene 1 7 104 -0.423261 0 222 -0.423261 1
gene 1 7 108 0.955718 0 226 0.955718 1
gene 1 7 111 -0.189642 0 229 -0.189642 1
gene 1 7 114 0.0422376 0 232 0.0422376 1
gene 1 8 86 0.364391 0 238 0.364391 1
gene 1 8 87 0.435713 0 239 0.435713 1
gene 1 8 91 -0.613514 0 243 -0.613514 1
gene 1 8 96 0.93231 0 248 0.93231 1
gene 1 8 100 0.318735 0 252 0.318735 1
gene 1 8 101 0.90997 0 253 0.90997 1
gene 1 8 105 -0.362774 0 257 -0.362774 1
gene 1 8 107 0.645772 0 259 0.645772 1
gene 1 8 109 -0.236763 0 261 -0.236763 1
gene 1 8 113 0.534013 0 265 0.534013 1
gene 1 8 117 -0.251473 0 269 -0.251473 1
gene 1 9 93 -0.235481 0 279 -0.235481 1
gene 1 9 94 -0.132969 0 280 -0.132969 1
gene 1 9 96 0.29017 0 282 0.29017 1
gene 1 9 100 -0.784692 0 286 -0.784692 1
gene 1 9 107 -0.223609 0 293 -0.223609 1
gene 1 9 108 -0.49617 0 294 -0.49617 1
gene 1 9 116 0.679006 0 302 0.679006 1
gene 1 9 117 -0.381146 0 303 -0.381146 1
gene 1 9 119 -0.60564 0 305 -0.60564 1
gene 1 10 86 -0.324503 0 306 -0.324503 1
gene 1 10 88 -0.0355846 0 308 -0.0355846 1
gene 1 10 99 -0.220985 0 319 -0.220985 1
gene 1 10 102 -0.479171 0 322 -0.479171 1
gene 1 10 104 0.785699 0 324 0.785699 1
gene 1 10 106 -0.471084 0 326 -0.471084 1
gene 1 10 107 0.718375 0 327 0.718375 1
gene 1 10 114 -0.297952 0 334 -0.297952 1
gene 1 11 90 -0.502213 0 344 -0.502213 1
gene 1 11 97 0.438978 0 351 0.438978 1
gene 1 11 107 0.619037 0 361 0.619037 1
gene 1 11 109 0.750633 0 363 0.750633 1
gene 1 11 110 0.461348 0 364 0.461348 1
gene 1 11 112 -0.926664 0 366 -0.926664 1
gene 1 11 113 -0.723136 0 367 -0.723136 1
gene 1 11 115 0.264809 0 369 0.264809 1
gene 1 11 116 0.550432 0 370 0.550432 1
gene 1 11 117 -0.271615 0 371 -0.271615 1
gene 1 11 118 0.232734 0 372 0.232734 1
gene 1 12 90 -0.135868 0 378 -0.135868 1
gene 1 12 98 0.716971 0 386 0.716971 1
gene 1 12 106 -0.603076 0 394 -0.603076 1
gene 1 12 113 -0.724601 0 401 -0.724601 1
gene 1 12 116 -0.280923 0 404 -0.280923 1
gene 1 13 93 -0.753838 0 415 -0.753838 1
gene 1 13 94 0.908261 0 416 0.908261 1
gene 1 13 95 -0.747703 0 417 -0.747703 1
gene 1 13 98 -0.617664 0 420 -0.617664 1
gene 1 13 99 0.709342 0 421 0.709342 1
gene 1 13 100 0.723807 0 422 0.723807 1
gene 1 13 109 -0.0459914 0 431 -0.0459914 1
gene 1 13 117 -0.0682699 0 439 -0.0682699 1
gene 1 14 87 0.922544 0 443 0.922544 1
gene 1 14 88 -0.452223 0 444 -0.452223 1
gene 1 14 91 0.406079 0 447 0.406079 1
gene 1 14 100 0.188391 0 456 0.188391 1
gene 1 14 103 0.683157 0 459 0.683157 1
gene 1 14 105 -0.303262 0 461 -0.303262 1
gene 1 14 114 0.129765 0 470 0.129765 1
gene 1 14 117 -0.421033 0 473 -0.421033 1
gene 1 14 119 0.516984 0 475 0.516984 1
gene 1 15 91 -0.860347 0 481 -0.860347 1
gene 1 15 94 -0.131809 0 484 -0.131809 1
gene 1 15 96 -0.975372 0 486 -0.975372 1
gene 1 15 103 -0.0958892 0 493 -0.0958892 1
gene 1 15 105 -0.27192 0 495 -0.27192 1
gene 1 15 107 0.662496 0 497 0.662496 1
gene 1 15 110 0.330699 0 500 0.330699 1
gene 1 15 111 0.773095 0 501 0.773095 1
gene 1 15 112 -0.0679342 0 502 -0.0679342 1
gene 1 16 86 -0.655354 0 510 -0.655354 1
gene 1 16 93 -0.36549 0 517 -0.36549 1
gene 1 16 100 -0.743095 0 524 -0.743095 1
gene 1 16 102 -0.601215 0 526 -0.601215 1
gene 1 16 105 -0.69982 0 529 -0.69982 1
gene 1 16 109 -0.111026 0 533 -0.111026 1
gene 1 16 118 0.827113 0 542 0.827113 1
gene 1 17 87 -0.113834 0 545 -0.113834 1
gene 1 17 88 -0.638844 0 546 -0.638844 1
gene 1 17 89 0.130558 0 547 0.130558 1
gene 1 17 91 0.883023 0 549 0.883023 1
gene 1 17 92 -0.428632 0 550 -0.428632 1
gene 1 17 96 -0.79162 0 554 -0.79162 1
gene 1 17 98 -0.523057 0 556 -0.523057 1
gene 1 17 99 -0.840663 0 557 -0.840663 1
gene 1 17 100 -0.26545 0 558 -0.26545 1
gene 1 17 102 0.80108 0 560 0.80108 1
gene 1 17 109 0.552141 0 567 0.552141 1
gene 1 17 111 0.361888 0 569 0.361888 1
gene 1 18 90 0.182684 0 582 0.182684 1
gene 1 18 97 -0.106784 0 589 -0.106784 1
gene 1 18 100 -0.900052 0 592 -0.900052 1
gene 1 18 102 0.125767 0 594 0.125767 1
gene 1 18 107 0.14362 0 599 0.14362 1
gene 1 18 108 -0.0424512 0 600 -0.0424512 1
gene 1 18 110 -0.546495 0 602 -0.546495 1
gene 1 19 91 0.738823 0 617 0.738823 1
gene 1 19 92 -0.707877 0 618 -0.707877 1
gene 1 19 94 -0.55855 0 620 -0.55855 1
gene 1 19 100 0.27253 0 626 0.27253 1
gene 1 19 103 -0.269967 0 629 -0.269967 1
gene 1 19 104 -0.847774 0 630 -0.847774 1
gene 1 19 105 0.570086 0 631 0.570086 1
gene 1 19 111 0.789636 0 637 0.789636 1
gene 1 19 112 0.41084 0 638 0.41084 1
gene 1 19 117 0.389721 0 643 0.389721 1
gene 1 19 118 0.929136 0 644 0.929136 1
gene 1 19 119 -0.493362 0 645 -0.493362 1
gene 1 20 88 -0.260994 0 648 -0.260994 1
gene 1 20 90 0.080752 0 650 0.080752 1
gene 1 20 94 0.0225837 0 654 0.0225837 1
gene 1 20 96 -0.842463 0 656 -0.842463 1
gene 1 20 102 0.737846 0 662 0.737846 1
gene 1 20 106 -0.279794 0 666 -0.279794 1
gene 1 20 116 -0.994873 0 676 -0.994873 1
gene 1 21 89 0.36259 0 683 0.36259 1
gene 1 21 102 -0.612079 0 696 -0.612079 1
gene 1 21 104 -0.274087 0 698 -0.274087 1
gene 1 21 105 -0.595386 0 699 -0.595386 1
gene 1 21 106 -0.27546 0 700 -0.27546 1
gene 1 21 107 -0.167608 0 701 -0.167608 1
gene 1 21 112 -0.220649 0 706 -0.220649 1
gene 1 21 117 -0.651357 0 711 -0.651357 1
gene 1 22 87 0.752586 0 715 0.752586 1
gene 1 22 88 0.486831 0 716 0.486831 1
gene 1 22 95 -0.712668 0 723 -0.712668 1
gene 1 22 97 -0.16541 0 725 -0.16541 1
gene 1 22 102 0.794122 0 730 0.794122 1
gene 1 22 103 0.36079 0 731 0.36079 1
gene 1 22 106 -0.970855 0 734 -0.970855 1
gene 1 22 108 0.0382702 0 736 0.0382702 1
gene 1 22 109 -0.732933 0 737 -0.732933 1
gene 1 23 87 -0.824274 0 749 -0.824274 1
gene 1 23 89 -0.659932 0 751 -0.659932 1
gene 1 23 92 -0.416334 0 754 -0.416334 1
gene 1 23 93 -0.363414 0 755 -0.363414 1
gene 1 23 94 0.315958 0 756 0.315958 1
gene 1 23 99 -0.329966 0 761 -0.329966 1
gene 1 23 107 -0.664418 0 769 -0.664418 1
gene 1 23 116 0.695486 0 778 0.695486 1
gene 1 23 118 0.463729 0 780 0.463729 1
gene 1 24 86 -0.482864 0 782 -0.482864 1
gene 1 24 87 -0.963408 0 783 -0.963408 1
gene 1 24 89 0.333323 0 785 0.333323 1
gene 1 24 91 0.494583 0 787 0.494583 1
gene 1 24 98 0.263619 0 794 0.263619 1
gene 1 24 105 -0.532792 0 801 -0.532792 1
gene 1 24 113 0.479446 0 809 0.479446 1
gene 1 24 115 0.270028 0 811 0.270028 1
gene 1 24 116 -0.776971 0 812 -0.776971 1
gene 1 24 117 -0.478469 0 813 -0.478469 1
gene 1 25 90 -0.563494 0 820 -0.563494 1
gene 1 25 91 -0.946043 0 821 -0.946043 1
gene 1 25 92 -0.0284738 0 822 -0.0284738 1
gene 1 25 102 0.265419 0 832 0.265419 1
gene 1 25 108 0.4962 0 838 0.4962 1
gene 1 25 109 -0.258309 0 839 -0.258309 1
gene 1 25 111 0.491256 0 841 0.491256 1
gene 1 25 113 -0.81518 0 843 -0.81518 1
gene 1 26 91 0.548296 0 855 0.548296 1
gene 1 26 93 0.432478 0 857 0.432478 1
gene 1 26 95 -0.297128 0 859 -0.297128 1
gene 1 26 99 0.228614 0 863 0.228614 1
gene 1 26 106 0.854396 0 870 0.854396 1
gene 1 26 109 0.719169 0 873 0.719169 1
gene 1 26 110 0.0531938 0 874 0.0531938 1
gene 1 26 116 -0.13361 0 880 -0.13361 1
gene 1 27 86 0.541917 0 884 0.541917 1
gene 1 27 88 -0.554125 0 886 -0.554125 1
gene 1 27 90 -0.283212 0 888 -0.283212 1
gene 1 27 96 0.657735 0 894 0.657735 1
gene 1 27 99 -0.485 0 897 -0.485 1
gene 1 27 101 0.343486 0 899 0.343486 1
gene 1 27 102 0.493912 0 900 0.493912 1
gene 1 27 103 0.0256661 0 901 0.0256661 1
gene 1 27 104 -0.68334 0 902 -0.68334 1
gene 1 27 105 0.873959 0 903 0.873959 1
gene 1 27 108 0.866482 0 906 0.866482 1
gene 1 27 110 0.782281 0 908 0.782281 1
gene 1 27 113 -0.266182 0 911 -0.266182 1
gene 1 27 114 -0.347667 0 912 -0.347667 1
gene 1 27 118 -0.572893 0 916 -0.572893 1
gene 1 28 86 0.639821 0 918 0.639821 1
gene 1 28 88 0.12125 0 920 0.12125 1
gene 1 28 95 0.0428175 0 927 0.0428175 1
gene 1 28 101 0.717521 0 933 0.717521 1
gene 1 28 103 -0.950957 0 935 -0.950957 1
gene 1 28 104 -0.148473 0 936 -0.148473 1
gene 1 28 105 -0.598437 0 937 -0.598437 1
gene 1 28 106 0.903256 0 938 0.903256 1
gene 1 28 109 -0.806146 0 941 -0.806146 1
gene 1 28 111 -0.139103 0 943 -0.139103 1
gene 1 28 115 -0.92465 0 947 -0.92465 1
gene 1 29 88 0.423078 0 954 0.423078 1
gene 1 29 89 -0.756523 0 955 -0.756523 1
gene 1 29 98 -0.27955 0 964 -0.27955 1
gene 1 29 100 -0.737877 0 966 -0.737877 1
gene 1 29 105 0.0764794 0 971 0.0764794 1
gene 1 29 114 -0.161351 0 980 -0.161351 1
gene 1 29 115 0.280221 0 981 0.280221 1
gene 1 30 89 -0.72103 0 989 -0.72103 1
gene 1 30 92 0.610858 0 992 0.610858 1
gene 1 30 103 -0.160924 0 1003 -0.160924 1
gene 1 30 106 0.12946 0 1006 0.12946 1
gene 1 30 117 0.308512 0 1017 0.308512 1
gene 1 31 96 0.787805 0 1030 0.787805 1
gene 1 31 97 0.273934 0 1031 0.273934 1
gene 1 31 100 -0.472518 0 1034 -0.472518 1
gene 1 31 102 -0.0965606 0 1036 -0.0965606 1
gene 1 31 105 -0.0746178 0 1039 -0.0746178 1
gene 1 31 110 0.620319 0 1044 0.620319 1
gene 1 31 111 0.615436 0 1045 0.615436 1
gene 1 31 115 -0.878292 0 1049 -0.878292 1
gene 1 31 119 0.960753 0 1053 0.960753 1
gene 1 32 86 -0.768853 0 1054 -0.768853 1
gene 1 32 93 0.153844 0 1061 0.153844 1
gene 1 32 95 -0.303751 0 1063 -0.303751 1
gene 1 32 97 0.899106 0 1065 0.899106 1
gene 1 32 100 -0.209815 0 1068 -0.209815 1
gene 1 32 104 -0.226997 0 1072 -0.226997 1
gene 1 32 108 0.16541 0 1076 0.16541 1
gene 1 32 109 0.872463 0 1077 0.872463 1
gene 1 32 110 0.452773 0 1078 0.452773 1
gene 1 32 112 -0.39668 0 1080 -0.39668 1
gene 1 32 113 -0.307932 0 1081 -0.307932 1
gene 1 32 118 -0.585009 0 1086 -0.585009 1
gene 1 33 87 -0.748924 0 1089 -0.748924 1
gene 1 33 88 0.150975 0 1090 0.150975 1
gene 1 33 90 -0.16361 0 1092 -0.16361 1
gene 1 33 93 -0.278603 0 1095 -0.278603 1
gene 1 33 99 -0.439039 0 1101 -0.439039 1
gene 1 33 100 0.0333567 0 1102 0.0333567 1
gene 1 33 105 0.912381 0 1107 0.912381 1
gene 1 33 107 0.1742 0 1109 0.1742 1
gene 1 33 110 0.926023 0 1112 0.926023 1
gene 1 33 117 -0.396466 0 1119 -0.396466 1
gene 1 33 119 0.266976 0 1121 0.266976 1
gene 1 34 97 0.538316 0 1133 0.538316 1
gene 1 34 99 0.272561 0 1135 0.272561 1
gene 1 34 109 -0.780999 0 1145 -0.780999 1
gene 1 34 111 -0.883236 0 1147 -0.883236 1
gene 1 34 112 0.374432 0 1148 0.374432 1
gene 1 34 115 -0.423811 0 1151 -0.423811 1
gene 1 35 86 0.919736 0 1156 0.919736 1
gene 1 35 91 -0.394971 0 1161 -0.394971 1
gene 1 35 100 -0.739311 0 1170 -0.739311 1
gene 1 35 105 -0.0549944 0 1175 -0.0549944 1
gene 1 35 110 0.366344 0 1180 0.366344 1
gene 1 36 87 -0.0744652 0 1191 -0.0744652 1
gene 1 36 88 0.6845 0 1192 0.6845 1
gene 1 36 98 -0.0440992 0 1202 -0.0440992 1
gene 1 36 99 0.749382 0 1203 0.749382 1
gene 1 36 101 -0.117405 0 1205 -0.117405 1
gene 1 36 105 0.822748 0 1209 0.822748 1
gene 1 36 108 -0.569536 0 1212 -0.569536 1
gene 1 36 110 -0.651051 0 1214 -0.651051 1
gene 1 36 111 -0.553087 0 1215 -0.553087 1
gene 1 36 113 0.519272 0 1217 0.519272 1
gene 1 37 86 -0.832789 0 1224 -0.832789 1
gene 1 37 88 -0.11127 0 1226 -0.11127 1
gene 1 37 91 -0.779595 0 1229 -0.779595 1
gene 1 37 92 0.708335 0 1230 0.708335 1
gene 1 37 105 0.406049 0 1243 0.406049 1
gene 1 37 108 0.756493 0 1246 0.756493 1
gene 1 37 110 0.723899 0 1248 0.723899 1
gene 1 37 113 -0.334544 0 1251 -0.334544 1
gene 1 37 116 0.204932 0 1254 0.204932 1
gene 1 37 118 -0.553575 0 1256 -0.553575 1
gene 1 37 119 0.627094 0 1257 0.627094 1
gene 1 38 86 0.419294 0 1258 0.419294 1
gene 1 38 87 0.0860622 0 1259 0.0860622 1
gene 1 38 88 -0.188757 0 1260 -0.188757 1
gene 1 38 92 0.454573 0 1264 0.454573 1
gene 1 38 100 -0.75222 0 1272 -0.75222 1
gene 1 38 106 -0.0697653 0 1278 -0.0697653 1
gene 1 38 112 -0.0716269 0 1284 -0.0716269 1
gene 1 38 113 0.930998 0 1285 0.930998 1
gene 1 38 119 -0.207404 0 1291 -0.207404 1
gene 1 39 88 0.18775 0 1294 0.18775 1
gene 1 39 91 0.963836 0 1297 0.963836 1
gene 1 39 104 0.20069 0 1310 0.20069 1
gene 1 39 106 0.68511 0 1312 0.68511 1
gene 1 39 107 0.955687 0 1313 0.955687 1
gene 1 39 112 0.233131 0 1318 0.233131 1
gene 1 39 116 -0.112674 0 1322 -0.112674 1
gene 1 40 88 0.677908 0 1328 0.677908 1
gene 1 40 90 0.470901 0 1330 0.470901 1
gene 1 40 92 -0.732292 0 1332 -0.732292 1
gene 1 40 95 -0.130802 0 1335 -0.130802 1
gene 1 40 98 -0.462172 0 1338 -0.462172 1
gene 1 40 99 0.135075 0 1339 0.135075 1
gene 1 40 108 -0.302988 0 1348 -0.302988 1
gene 1 40 109 0.868984 0 1349 0.868984 1
gene 1 40 110 0.914548 0 1350 0.914548 1
gene 1 40 112 0.00189215 0 1352 0.00189215 1
gene 1 40 114 0.90463 0 1354 0.90463 1
gene 1 40 117 -0.251259 0 1357 -0.251259 1
gene 1 40 119 -0.953276 0 1359 -0.953276 1
gene 1 41 89 0.749657 0 1363 0.749657 1
gene 1 41 93 -0.368358 0 1367 -0.368358 1
gene 1 41 100 0.297067 0 1374 0.297067 1
gene 1 41 105 -0.604602 0 1379 -0.604602 1
gene 1 41 111 0.278878 0 1385 0.278878 1
gene 1 41 117 -0.775994 0 1391 -0.775994 1
gene 1 41 119 0.531327 0 1393 0.531327 1
gene 1 42 89 -0.694296 0 1397 -0.694296 1
gene 1 42 94 0.935179 0 1402 0.935179 1
gene 1 42 97 -0.463759 0 1405 -0.463759 1
gene 1 42 98 -0.0195318 0 1406 -0.0195318 1
gene 1 42 101 0.163884 0 1409 0.163884 1
gene 1 42 102 0.356578 0 1410 0.356578 1
gene 1 42 105 0.651387 0 1413 0.651387 1
gene 1 42 106 0.0281381 0 1414 0.0281381 1
gene 1 42 107 -0.0122379 0 1415 -0.0122379 1
gene 1 42 108 -0.946532 0 1416 -0.946532 1
gene 1 42 110 0.695883 0 1418 0.695883 1
gene 1 42 111 0.309397 0 1419 0.309397 1
gene 1 42 112 -0.861782 0 1420 -0.861782 1
gene 1 42 113 -0.971313 0 1421 -0.971313 1
gene 1 43 86 0.970519 0 1428 0.970519 1
gene 1 43 87 -0.0117801 0 1429 -0.0117801 1
gene 1 43 88 -0.150029 0 1430 -0.150029 1
gene 1 43 100 0.282754 0 1442 0.282754 1
gene 1 43 101 -0.368694 0 1443 -0.368694 1
gene 1 43 104 -0.215003 0 1446 -0.215003 1
gene 1 43 110 -0.946043 0 1452 -0.946043 1
gene 1 43 114 -0.666036 0 1456 -0.666036 1
gene 1 44 86 0.432875 0 1462 0.432875 1
gene 1 44 89 0.0901822 0 1465 0.0901822 1
gene 1 44 90 0.391644 0 1466 0.391644 1
gene 1 44 94 0.812128 0 1470 0.812128 1
gene 1 44 98 -0.108432 0 1474 -0.108432 1
gene 1 44 99 -0.68511 0 1475 -0.68511 1
gene 1 44 102 0.768029 0 1478 0.768029 1
gene 1 44 103 0.915494 0 1479 0.915494 1
gene 1 44 104 0.122684 0 1480 0.122684 1
gene 1 44 106 -0.334178 0 1482 -0.334178 1
gene 1 44 111 0.187017 0 1487 0.187017 1
gene 1 44 113 0.896878 0 1489 0.896878 1
gene 1 44 115 -0.988708 0 1491 -0.988708 1
gene 1 44 117 -0.693838 0 1493 -0.693838 1
gene 1 45 90 0.90762 0 1500 0.90762 1
gene 1 45 99 0.250862 0 1509 0.250862 1
gene 1 45 100 -0.634083 0 1510 -0.634083 1
gene 1 46 88 0.402478 0 1532 0.402478 1
gene 1 46 89 0.2772 0 1533 0.2772 1
gene 1 46 91 -0.518571 0 1535 -0.518571 1
gene 1 46 92 0.655171 0 1536 0.655171 1
gene 1 46 96 0.365795 0 1540 0.365795 1
gene 1 46 99 -0.298196 0 1543 -0.298196 1
gene 1 46 109 -0.385174 0 1553 -0.385174 1
gene 1 46 110 0.195746 0 1554 0.195746 1
gene 1 46 113 0.666738 0 1557 0.666738 1
gene 1 46 116 -0.819208 0 1560 -0.819208 1
gene 1 47 86 -0.402753 0 1564 -0.402753 1
gene 1 47 90 0.450972 0 1568 0.450972 1
gene 1 47 92 -0.100833 0 1570 -0.100833 1
gene 1 47 95 -0.351634 0 1573 -0.351634 1
gene 1 47 98 0.337901 0 1576 0.337901 1
gene 1 47 101 -0.796289 0 1579 -0.796289 1
gene 1 47 102 -0.336375 0 1580 -0.336375 1
gene 1 47 109 -0.511032 0 1587 -0.511032 1
gene 1 47 113 -0.14423 0 1591 -0.14423 1
gene 1 48 87 -0.541368 0 1599 -0.541368 1
gene 1 48 92 0.699393 0 1604 0.699393 1
gene 1 48 93 0.0833766 0 1605 0.0833766 1
gene 1 48 95 -0.560289 0 1607 -0.560289 1
gene 1 48 96 -0.309 0 1608 -0.309 1
gene 1 48 101 -0.58388 0 1613 -0.58388 1
gene 1 48 102 0.716727 0 1614 0.716727 1
gene 1 48 105 0.331889 0 1617 0.331889 1
gene 1 48 106 0.0389721 0 1618 0.0389721 1
gene 1 48 109 0.487075 0 1621 0.487075 1
gene 1 48 113 0.237342 0 1625 0.237342 1
gene 1 48 115 0.0601215 0 1627 0.0601215 1
gene 1 48 119 0.616993 0 1631 0.616993 1
gene 1 49 87 0.669454 0 1633 0.669454 1
gene 1 49 92 -0.591357 0 1638 -0.591357 1
gene 1 49 99 0.673788 0 1645 0.673788 1
gene 1 49 100 0.128605 0 1646 0.128605 1
gene 1 49 101 0.440016 0 1647 0.440016 1
gene 1 49 104 -0.410962 0 1650 -0.410962 1
gene 1 49 106 -0.526994 0 1652 -0.526994 1
gene 1 49 107 -0.738121 0 1653 -0.738121 1
gene 1 49 112 -0.0663167 0 1658 -0.0663167 1
gene 1 49 116 -0.206 0 1662 -0.206 1
gene 1 50 88 -0.122044 0 1668 -0.122044 1
gene 1 50 90 0.192389 0 1670 0.192389 1
gene 1 50 94 0.309732 0 1674 0.309732 1
gene 1 50 95 0.180212 0 1675 0.180212 1
gene 1 50 96 0.456923 0 1676 0.456923 1
gene 1 50 103 0.94998 0 1683 0.94998 1
gene 1 50 114 0.585559 0 1694 0.585559 1
gene 1 50 115 0.67275 0 1695 0.67275 1
gene 1 51 90 0.998047 0 1704 0.998047 1
gene 1 51 106 0.934721 0 1720 0.934721 1
gene 1 51 108 -0.748131 0 1722 -0.748131 1
gene 1 52 88 0.224525 0 1736 0.224525 1
gene 1 52 93 0.277749 0 1741 0.277749 1
gene 1 52 98 0.914975 0 1746 0.914975 1
gene 1 52 99 -0.501083 0 1747 -0.501083 1
gene 1 52 104 -0.269692 0 1752 -0.269692 1
gene 1 52 107 0.117161 0 1755 0.117161 1
gene 1 52 113 0.507218 0 1761 0.507218 1
gene 1 52 119 0.432417 0 1767 0.432417 1
gene 1 53 90 0.451949 0 1772 0.451949 1
gene 1 53 98 -0.47383 0 1780 -0.47383 1
gene 1 53 107 -0.805231 0 1789 -0.805231 1
gene 1 53 111 -0.674764 0 1793 -0.674764 1
gene 1 53 112 0.565996 0 1794 0.565996 1
gene 1 53 114 0.914121 0 1796 0.914121 1
gene 1 53 115 -0.633778 0 1797 -0.633778 1
gene 1 53 119 -0.190313 0 1801 -0.190313 1
gene 1 54 89 0.123936 0 1805 0.123936 1
gene 1 54 91 -0.711234 0 1807 -0.711234 1
gene 1 54 93 -0.427656 0 1809 -0.427656 1
gene 1 54 95 0.681326 0 1811 0.681326 1
gene 1 54 105 -0.54677 0 1821 -0.54677 1
gene 1 54 106 0.567553 0 1822 0.567553 1
gene 1 54 110 -0.735588 0 1826 -0.735588 1
gene 1 55 86 -0.124851 0 1836 -0.124851 1
gene 1 55 92 0.98056 0 1842 0.98056 1
gene 1 55 95 0.962615 0 1845 0.962615 1
gene 1 55 97 0.348979 0 1847 0.348979 1
gene 1 55 112 0.933409 0 1862 0.933409 1
gene 1 55 113 -0.738151 0 1863 -0.738151 1
gene 1 55 114 -0.125401 0 1864 -0.125401 1
gene 1 55 119 -0.0560625 0 1869 -0.0560625 1
gene 1 56 88 -0.739525 0 1872 -0.739525 1
gene 1 56 96 -0.365307 0 1880 -0.365307 1
gene 1 56 108 -0.632344 0 1892 -0.632344 1
gene 1 56 111 -0.0206 0 1895 -0.0206 1
gene 1 56 118 -0.806513 0 1902 -0.806513 1
gene 1 57 108 -0.332316 0 1926 -0.332316 1
gene 1 57 112 -0.629688 0 1930 -0.629688 1
gene 1 57 114 -0.785974 0 1932 -0.785974 1
gene 1 57 115 0.0631123 0 1933 0.0631123 1
gene 1 58 88 -0.350261 0 1940 -0.350261 1
gene 1 58 91 0.681356 0 1943 0.681356 1
gene 1 58 92 0.903806 0 1944 0.903806 1
gene 1 58 93 0.764061 0 1945 0.764061 1
gene 1 58 94 0.312449 0 1946 0.312449 1
gene 1 58 95 0.241523 0 1947 0.241523 1
gene 1 58 96 0.188208 0 1948 0.188208 1
gene 1 58 97 -0.774895 0 1949 -0.774895 1
gene 1 58 101 0.860958 0 1953 0.860958 1
gene 1 58 103 -0.752281 0 1955 -0.752281 1
gene 1 58 104 0.594501 0 1956 0.594501 1
gene 1 58 116 -0.482345 0 1968 -0.482345 1
gene 1 59 87 0.577807 0 1973 0.577807 1
gene 1 59 88 0.366253 0 1974 0.366253 1
gene 1 59 90 0.723075 0 1976 0.723075 1
gene 1 59 91 0.329447 0 1977 0.329447 1
gene 1 59 96 -0.801508 0 1982 -0.801508 1
gene 1 59 97 0.294351 0 1983 0.294351 1
gene 1 59 102 -0.948424 0 1988 -0.948424 1
gene 1 59 104 0.975616 0 1990 0.975616 1
gene 1 59 110 -0.0685141 0 1996 -0.0685141 1
gene 1 59 111 0.778344 0 1997 0.778344 1
gene 1 59 114 0.173009 0 2000 0.173009 1
gene 1 59 115 -0.0817896 0 2001 -0.0817896 1
gene 1 59 116 -0.17951 0 2002 -0.17951 1
gene 1 59 119 -0.688498 0 2005 -0.688498 1
gene 1 60 86 -0.206122 0 2006 -0.206122 1
gene 1 60 87 0.720847 0 2007 0.720847 1
gene 1 60 91 0.890866 0 2011 0.890866 1
gene 1 60 92 0.74633 0 2012 0.74633 1
gene 1 60 94 0.767815 0 2014 0.767815 1
gene 1 60 98 0.412366 0 2018 0.412366 1
gene 1 60 99 0.231056 0 2019 0.231056 1
gene 1 60 101 -0.372204 0 2021 -0.372204 1
gene 1 60 103 0.117832 0 2023 0.117832 1
gene 1 60 113 -0.783105 0 2033 -0.783105 1
gene 1 60 115 -0.442091 0 2035 -0.442091 1
gene 1 61 86 -0.157964 0 2040 -0.157964 1
gene 1 61 88 -0.309519 0 2042 -0.309519 1
gene 1 61 91 0.851955 0 2045 0.851955 1
gene 1 61 92 -0.545824 0 2046 -0.545824 1
gene 1 61 97 0.96466 0 2051 0.96466 1
gene 1 61 101 0.0686361 0 2055 0.0686361 1
gene 1 61 102 -0.940184 0 2056 -0.940184 1
gene 1 61 106 -0.535447 0 2060 -0.535447 1
gene 1 61 108 0.645131 0 2062 0.645131 1
gene 1 61 110 -0.297433 0 2064 -0.297433 1
gene 1 61 111 -0.206671 0 2065 -0.206671 1
gene 1 61 115 -0.1919 0 2069 -0.1919 1
gene 1 62 90 0.391675 0 2078 0.391675 1
gene 1 62 95 -0.203345 0 2083 -0.203345 1
gene 1 62 97 0.807886 0 2085 0.807886 1
gene 1 62 99 -0.525224 0 2087 -0.525224 1
gene 1 62 101 -0.708792 0 2089 -0.708792 1
gene 1 62 103 -0.0531022 0 2091 -0.0531022 1
gene 1 62 104 -0.683157 0 2092 -0.683157 1
gene 1 62 115 -0.840999 0 2103 -0.840999 1
gene 1 62 116 -0.0106815 0 2104 -0.0106815 1
gene 1 63 94 -0.5515 0 2116 -0.5515 1
gene 1 63 96 -0.964843 0 2118 -0.964843 1
gene 1 63 108 -0.431684 0 2130 -0.431684 1
gene 1 63 110 -0.844111 0 2132 -0.844111 1
gene 1 63 111 0.845363 0 2133 0.845363 1
gene 1 63 112 -0.0133366 0 2134 -0.0133366 1
gene 1 64 88 -0.893246 0 2144 -0.893246 1
gene 1 64 91 0.735832 0 2147 0.735832 1
gene 1 64 94 0.15244 0 2150 0.15244 1
gene 1 64 98 0.0775475 0 2154 0.0775475 1
gene 1 64 101 0.0661946 0 2157 0.0661946 1
gene 1 64 104 -0.665395 0 2160 -0.665395 1
gene 1 64 105 -0.0152898 0 2161 -0.0152898 1
gene 1 64 109 -0.579638 0 2165 -0.579638 1
gene 1 64 112 -0.602374 0 2168 -0.602374 1
gene 1 64 115 -0.162786 0 2171 -0.162786 1
gene 1 64 118 0.180242 0 2174 0.180242 1
gene 1 65 88 -0.025483 0 2178 -0.025483 1
gene 1 65 95 0.156041 0 2185 0.156041 1
gene 1 65 100 0.0310373 0 2190 0.0310373 1
gene 1 65 111 -0.10126 0 2201 -0.10126 1
gene 1 65 113 -0.53975 0 2203 -0.53975 1
gene 1 65 117 -0.200537 0 2207 -0.200537 1
gene 1 66 88 0.69396 0 2212 0.69396 1
gene 1 66 89 -0.0688498 0 2213 -0.0688498 1
gene 1 66 91 -0.0259407 0 2215 -0.0259407 1
gene 1 66 98 -0.469558 0 2222 -0.469558 1
gene 1 66 100 -0.168676 0 2224 -0.168676 1
gene 1 66 108 -0.963958 0 2232 -0.963958 1
gene 1 66 111 -0.951811 0 2235 -0.951811 1
gene 1 66 112 -0.0235298 0 2236 -0.0235298 1
gene 1 66 115 -0.663381 0 2239 -0.663381 1
gene 1 66 117 -0.63686 0 2241 -0.63686 1
gene 1 66 118 0.759148 0 2242 0.759148 1
gene 1 67 86 0.94116 0 2244 0.94116 1
gene 1 67 103 0.799951 0 2261 0.799951 1
gene 1 67 106 0.911161 0 2264 0.911161 1
gene 1 67 109 0.899319 0 2267 0.899319 1
gene 1 67 112 0.635578 0 2270 0.635578 1
gene 1 67 116 0.461653 0 2274 0.461653 1
gene 1 67 119 0.212622 0 2277 0.212622 1
gene 1 68 87 0.493149 0 2279 0.493149 1
gene 1 68 91 0.796136 0 2283 0.796136 1
gene 1 68 93 0.265755 0 2285 0.265755 1
gene 1 68 105 0.823115 0 2297 0.823115 1
gene 1 68 110 -0.61623 0 2302 -0.61623 1
gene 1 68 112 0.954405 0 2304 0.954405 1
gene 1 69 88 0.661122 0 2314 0.661122 1
gene 1 69 89 0.759392 0 2315 0.759392 1
gene 1 69 91 -0.20896 0 2317 -0.20896 1
gene 1 69 94 -0.675924 0 2320 -0.675924 1
gene 1 69 96 0.651051 0 2322 0.651051 1
gene 1 69 97 0.277169 0 2323 0.277169 1
gene 1 69 98 -0.611866 0 2324 -0.611866 1
gene 1 69 104 0.376293 0 2330 0.376293 1
gene 1 69 108 -0.14069 0 2334 -0.14069 1
gene 1 69 113 -0 0 2339 -0 1
gene 1 69 115 0.725517 0 2341 0.725517 1
gene 1 70 88 0.762902 0 2348 0.762902 1
gene 1 70 89 -0.910001 0 2349 -0.910001 1
gene 1 70 93 0.673086 0 2353 0.673086 1
gene 1 70 95 -0.795892 0 2355 -0.795892 1
gene 1 70 96 0.901059 0 2356 0.901059 1
gene 1 70 98 -0.210974 0 2358 -0.210974 1
gene 1 70 109 -0.542253 0 2369 -0.542253 1
gene 1 70 114 -0.824488 0 2374 -0.824488 1
gene 1 70 115 0.905515 0 2375 0.905515 1
gene 1 70 119 0.990844 0 2379 0.990844 1
gene 1 71 86 -0.357799 0 2380 -0.357799 1
gene 1 71 87 -0.603412 0 2381 -0.603412 1
gene 1 71 88 -0.256935 0 2382 -0.256935 1
gene 1 71 91 0.739189 0 2385 0.739189 1
gene 1 71 97 -0.00350963 0 2391 -0.00350963 1
gene 1 71 98 0.375591 0 2392 0.375591 1
gene 1 71 100 0.743187 0 2394 0.743187 1
gene 1 71 106 -0.960997 0 2400 -0.960997 1
gene 1 71 108 0.750511 0 2402 0.750511 1
gene 1 71 110 0.119877 0 2404 0.119877 1
gene 1 71 111 0.0257881 0 2405 0.0257881 1
gene 1 71 112 -0.274117 0 2406 -0.274117 1
gene 1 72 86 0.136052 0 2414 0.136052 1
gene 1 72 94 -0.461348 0 2422 -0.461348 1
gene 1 72 97 -0.831385 0 2425 -0.831385 1
gene 1 72 101 -0.132023 0 2429 -0.132023 1
gene 1 72 105 0.467696 0 2433 0.467696 1
gene 1 72 107 -0.206214 0 2435 -0.206214 1
gene 1 72 112 0.767968 0 2440 0.767968 1
gene 1 72 114 0.171361 0 2442 0.171361 1
gene 1 73 95 0.951903 0 2457 0.951903 1
gene 1 73 97 -0.502243 0 2459 -0.502243 1
gene 1 73 100 0.766533 0 2462 0.766533 1
gene 1 73 111 -0.184637 0 2473 -0.184637 1
gene 1 73 113 0.448134 0 2475 0.448134 1
gene 1 73 115 0.623676 0 2477 0.623676 1
gene 1 73 116 0.147252 0 2478 0.147252 1
gene 1 73 117 0.718009 0 2479 0.718009 1
gene 1 74 89 0.847774 0 2485 0.847774 1
gene 1 74 95 0.381542 0 2491 0.381542 1
gene 1 74 100 -0.311136 0 2496 -0.311136 1
gene 1 74 101 -0.293649 0 2497 -0.293649 1
gene 1 74 107 0.0778222 0 2503 0.0778222 1
gene 1 74 111 0.158849 0 2507 0.158849 1
gene 1 74 116 -0.056093 0 2512 -0.056093 1
gene 1 75 91 0.25782 0 2521 0.25782 1
gene 1 75 95 -0.730186 0 2525 -0.730186 1
gene 1 75 100 0.570544 0 2530 0.570544 1
gene 1 75 103 -0.518723 0 2533 -0.518723 1
gene 1 75 107 -0.253059 0 2537 -0.253059 1
gene 1 75 108 -0.315073 0 2538 -0.315073 1
gene 1 75 111 0.748863 0 2541 0.748863 1
gene 1 75 114 -0.740349 0 2544 -0.740349 1
gene 1 75 117 -0.316233 0 2547 -0.316233 1
gene 1 76 86 -0.140416 0 2550 -0.140416 1
gene 1 76 87 0.253304 0 2551 0.253304 1
gene 1 76 94 -0.85876 0 2558 -0.85876 1
gene 1 76 99 0.60097 0 2563 0.60097 1
gene 1 76 104 -0.815424 0 2568 -0.815424 1
gene 1 76 106 0.606067 0 2570 0.606067 1
gene 1 76 112 0.924375 0 2576 0.924375 1
gene 1 76 118 -0.725364 0 2582 -0.725364 1
gene 1 77 87 -0.379589 0 2585 -0.379589 1
gene 1 77 90 0.451857 0 2588 0.451857 1
gene 1 77 93 -0.341777 0 2591 -0.341777 1
gene 1 77 95 0.744652 0 2593 0.744652 1
gene 1 77 100 -0.0566424 0 2598 -0.0566424 1
gene 1 77 102 -0.343333 0 2600 -0.343333 1
gene 1 77 104 -0.936125 0 2602 -0.936125 1
gene 1 77 107 0.748833 0 2605 0.748833 1
gene 1 77 111 -0.633473 0 2609 -0.633473 1
gene 1 77 114 0.151067 0 2612 0.151067 1
gene 1 78 89 -0.644368 0 2621 -0.644368 1
gene 1 78 92 0.0854213 0 2624 0.0854213 1
gene 1 78 94 0.463881 0 2626 0.463881 1
gene 1 78 99 0.0988495 0 2631 0.0988495 1
gene 1 78 102 -0.831965 0 2634 -0.831965 1
gene 1 78 103 0.207038 0 2635 0.207038 1
gene 1 78 104 0.0976592 0 2636 0.0976592 1
gene 1 78 105 0.42375 0 2637 0.42375 1
gene 1 78 106 0.234016 0 2638 0.234016 1
gene 1 78 110 0.143925 0 2642 0.143925 1
gene 1 79 89 -0.53444 0 2655 -0.53444 1
gene 1 79 94 0.661275 0 2660 0.661275 1
gene 1 79 95 0.521897 0 2661 0.521897 1
gene 1 79 102 -0.601947 0 2668 -0.601947 1
gene 1 79 105 0.102512 0 2671 0.102512 1
gene 1 79 111 -0.555559 0 2677 -0.555559 1
gene 1 79 115 -0.4944 0 2681 -0.4944 1
gene 1 79 117 -0.684835 0 2683 -0.684835 1
gene 1 79 118 -0.962951 0 2684 -0.962951 1
gene 1 79 119 0.594562 0 2685 0.594562 1
gene 1 80 88 0.894375 0 2688 0.894375 1
gene 1 80 93 0.242164 0 2693 0.242164 1
gene 1 80 95 0.238166 0 2695 0.238166 1
gene 1 80 108 -0.17008 0 2708 -0.17008 1
gene 1 80 109 0.850032 0 2709 0.850032 1
gene 1 80 115 0.841884 0 2715 0.841884 1
gene 1 80 119 -0.766228 0 2719 -0.766228 1
gene 1 81 88 0.363079 0 2722 0.363079 1
gene 1 81 89 -0.941343 0 2723 -0.941343 1
gene 1 81 92 -0.367962 0 2726 -0.367962 1
gene 1 81 100 0.479476 0 2734 0.479476 1
gene 1 81 102 0.35374 0 2736 0.35374 1
gene 1 81 108 0.891507 0 2742 0.891507 1
gene 1 81 114 0.24308 0 2748 0.24308 1
gene 1 82 86 -0.40849 0 2754 -0.40849 1
gene 1 82 87 -0.456648 0 2755 -0.456648 1
gene 1 82 91 -0.883297 0 2759 -0.883297 1
gene 1 82 94 -0.276284 0 2762 -0.276284 1
gene 1 82 97 -0.311075 0 2765 -0.311075 1
gene 1 82 98 -0.780908 0 2766 -0.780908 1
gene 1 82 107 0.500473 0 2775 0.500473 1
gene 1 82 108 0.135563 0 2776 0.135563 1
gene 1 82 111 0.926145 0 2779 0.926145 1
gene 1 82 116 -0.515397 0 2784 -0.515397 1
gene 1 83 87 0.294259 0 2789 0.294259 1
gene 1 83 93 -0.445631 0 2795 -0.445631 1
gene 1 83 111 -0.852443 0 2813 -0.852443 1
gene 1 83 113 0.838832 0 2815 0.838832 1
gene 1 84 88 -0.974609 0 2824 -0.974609 1
gene 1 84 92 0.510514 0 2828 0.510514 1
gene 1 84 94 0.0527665 0 2830 0.0527665 1
gene 1 84 102 -0.454909 0 2838 -0.454909 1
gene 1 84 104 0.226753 0 2840 0.226753 1
gene 1 84 106 0.661214 0 2842 0.661214 1
gene 1 84 109 -0.982727 0 2845 -0.982727 1
gene 1 85 86 -0.752617 0 2856 -0.752617 1
gene 1 85 87 0.152501 0 2857 0.152501 1
gene 1 85 90 -0.228339 0 2860 -0.228339 1
gene 1 85 96 0.344432 0 2866 0.344432 1
gene 1 85 100 0.591144 0 2870 0.591144 1
gene 1 85 105 0.336772 0 2875 0.336772 1
gene 1 85 112 -0.139866 0 2882 -0.139866 1
gene 1 85 114 -0.465835 0 2884 -0.465835 1
gene 1 85 115 0.710257 0 2885 0.710257 1
gene 1 36 106 0.612751 0 2888 0.612751 1
genomeend 0

/* Organism #1 Fitness: 10 Error: 0 */
genomestart 1
trait 1 0.1 0 0 0.325663 0 0 0 0.544725 
node 1 1 1 3
node 2 1 1 1
node 3 1 1 1
node 4 1 1 1
node 5 1 1 1
node 6 1 1 1
node 7 1 1 1
node 8 1 1 1
node 9 1 1 1
node 10 1 1 1
node 11 1 1 1
node 12 1 1 1
node 13 1 1 1
node 14 1 1 1
node 15 1 1 1
node 16 1 1 1
node 17 1 1 1
node 18 1 1 1
node 19 1 1 1
node 20 1 1 1
node 21 1 1 1
node 22 1 1 1
node 23 1 1 1
node 24 1 1 1
node 25 1 1 1
node 26 1 1 1
node 27 1 1 1
node 28 1 1 1
node 29 1 1 1
node 30 1 1 1
node 31 1 1 1
node 32 1 1 1
node 33 1 1 1
node 34 1 1 1
node 35 1 1 1
node 36 1 1 1
node 37 1 1 1
node 38 1 1 1
node 39 1 1 1
node 40 1 1 1
node 41 1 1 1
node 42 1 1 1
node 43 1 1 1
node 44 1 1 1
node 45 1 1 1
node 46 1 1 1
node 47 1 1 1
node 48 1 1 1
node 49 1 1 1
node 50 1 1 1
node 51 1 1 1
node 52 1 1 1
node 53 1 1 1
node 54 1 1 1
node 55 1 1 1
node 56 1 1 1
node 57 1 1 1
node 58 1 1 1
node 59 1 1 1
node 60 1 1 1
node 61 1 1 1
node 62 1 1 1
node 63 1 1 1
node 64 1 1 1
node 65 1 1 1
node 66 1 1 1
node 67 1 1 1
node 68 1 1 1
node 69 1 1 1
node 70 1 1 1
node 71 1 1 1
node 72 1 1 1
node 73 1 1 1
node 74 1 1 1
node 75 1 1 1
node 76 1 1 1
node 77 1 1 1
node 78 1 1 1
node 79 1 1 1
node 80 1 1 1
node 81 1 1 1
node 82 1 1 1
node 83 1 1 1
node 84 1 1 1
node 85 1 1 1
node 86 1 0 2
node 87 1 0 2
node 88 1 0 2
node 89 1 0 2
node 90 1 0 2
node 91 1 0 2
node 92 1 0 2
node 93 1 0 2
node 94 1 0 2
node 95 1 0 2
node 96 1 0 2
node 97 1 0 2
node 98 1 0 2
node 99 1 0 2
node 100 1 0 2
node 101 1 0 2
node 102 1 0 2
node 103 1 0 2
node 104 1 0 2
node 105 1 0 2
node 106 1 0 2
node 107 1 0 2
node 108 1 0 2
node 109 1 0 2
node 110 1 0 2
node 111 1 0 2
node 112 1 0 2
node 113 1 0 2
node 114 1 0 2
node 115 1 0 2
node 116 1 0 2
node 117 1 0 2
node 118 1 0 2
node 119 1 0 2
gene 1 1 86 0.608112 0 0 0.608112 1
gene 1 1 90 -0.823359 0 4 -0.823359 1
gene 1 1 91 0.570925 0 5 0.570925 1
gene 1 1 94 0.253304 0 8 0.253304 1
gene 1 1 99 0.571581 0 13 0.571581 1
gene 1 1 102 0.708335 0 16 0.708335 1
gene 1 1 106 -0.753121 0 20 -0.753121 1
gene 1 1 109 0.148015 0 23 0.148015 1
gene 1 1 114 0.795343 0 28 0.795343 1
gene 1 1 115 -1.2949 0 29 -1.2949 1
gene 1 1 118 0.563677 0 32 0.563677 1
gene 1 1 119 -2.21024 0 33 -2.21024 1
gene 1 2 87 0.237678 0 35 0.237678 1
gene 1 2 93 0.303751 0 41 0.303751 1
gene 1 2 99 0.92822 0 47 0.92822 1
gene 1 2 103 -0.115787 0 51 -0.115787 1
gene 1 2 105 0.609714 0 53 0.609714 1
gene 1 2 108 -0.88525 0 56 -0.88525 1
gene 1 2 109 -0.971862 0 57 -0.971862 1
gene 1 2 110 1.98164 0 58 1.98164 1
gene 1 2 114 2.30868 0 62 2.30868 1
gene 1 3 88 -0.285775 0 70 -0.285775 1
gene 1 3 89 0.586566 0 71 0.586566 1
gene 1 3 101 -0.455977 0 83 -0.455977 1
gene 1 3 107 -0.696768 0 89 -0.696768 1
gene 1 3 109 0.222602 0 91 0.222602 1
gene 1 3 111 -0.704001 0 93 -0.704001 1
gene 1 3 114 0.451857 0 96 0.451857 1
gene 1 3 119 0.00302133 0 101 0.00302133 1
gene 1 4 90 1.22402 0 106 1.22402 1
gene 1 4 93 0.549272 0 109 0.549272 1
gene 1 4 98 0.0490585 0 114 0.0490585 1
gene 1 4 100 0.986724 0 116 0.986724 1
gene 1 4 102 0.0292367 0 118 0.0292367 1
gene 1 4 104 0.520127 0 120 0.520127 1
gene 1 4 106 0.834407 0 122 0.834407 1
gene 1 4 109 -1.04952 0 125 -1.04952 1
gene 1 4 110 0.608097 0 126 0.608097 1
gene 1 4 112 -0.690603 0 128 -0.690603 1
gene 1 4 113 -0.334101 0 129 -0.334101 1
gene 1 4 117 0.300943 0 133 0.300943 1
gene 1 5 91 -0.57213 0 141 -0.57213 1
gene 1 5 92 0.940062 0 142 0.940062 1
gene 1 5 98 -0.706839 0 148 -0.706839 1
gene 1 5 100 0.0326243 0 150 0.0326243 1
gene 1 5 102 0.0285043 0 152 0.0285043 1
gene 1 5 109 -0.515381 0 159 -0.515381 1
gene 1 5 114 -0.556383 0 164 -0.556383 1
gene 1 5 119 -0.585742 0 169 -0.585742 1
gene 1 6 87 -0.0134281 0 171 -0.0134281 1
gene 1 6 88 -0.368389 0 172 -0.368389 1
gene 1 6 90 0.0227668 0 174 0.0227668 1
gene 1 6 93 1.27589 0 177 1.27589 1
gene 1 6 94 0.920042 0 178 0.920042 1
gene 1 6 100 0.242592 0 184 0.242592 1
gene 1 6 105 1.08457 0 189 1.08457 1
gene 1 6 115 0.716727 0 199 0.716727 1
gene 1 6 119 -0.556322 0 203 -0.556322 1
gene 1 7 90 -0.219398 0 208 -0.219398 1
gene 1 7 93 -0.823847 0 211 -0.823847 1
gene 1 7 95 2.29011 0 213 2.29011 1
gene 1 7 101 0.370556 0 219 0.370556 1
gene 1 7 102 -0.813257 0 220 -0.813257 1
gene 1 7 104 -0.423261 0 222 -0.423261 1
gene 1 7 108 0.955718 0 226 0.955718 1
gene 1 7 111 -0.189642 0 229 -0.189642 1
gene 1 7 114 0.0422376 0 232 0.0422376 1
gene 1 8 86 0.170675 0 238 0.170675 1
gene 1 8 87 1.67591 0 239 1.67591 1
gene 1 8 91 -0.580615 0 243 -0.580615 1
gene 1 8 96 -0.586444 0 248 -0.586444 1
gene 1 8 100 0.318735 0 252 0.318735 1
gene 1 8 101 3.14255 0 253 3.14255 1
gene 1 8 105 -0.362774 0 257 -0.362774 1
gene 1 8 107 3.07649 0 259 3.07649 1
gene 1 8 109 1.22639 0 261 1.22639 1
gene 1 8 113 -1.71215 0 265 -1.71215 1
gene 1 8 117 -0.251473 0 269 -0.251473 1
gene 1 9 93 -0.235481 0 279 -0.235481 1
gene 1 9 94 -0.289453 0 280 -0.289453 1
gene 1 9 96 0.29017 0 282 0.29017 1
gene 1 9 100 1.76077 0 286 1.76077 1
gene 1 9 107 -0.223609 0 293 -0.223609 1
gene 1 9 108 -0.49617 0 294 -0.49617 1
gene 1 9 116 -1.64429 0 302 -1.64429 1
gene 1 9 117 -0.381146 0 303 -0.381146 1
gene 1 9 119 -2.93672 0 305 -2.93672 1
gene 1 10 86 -0.324503 0 306 -0.324503 1
gene 1 10 88 0.799707 0 308 0.799707 1
gene 1 10 99 -0.220985 0 319 -0.220985 1
gene 1 10 102 -0.479171 0 322 -0.479171 1
gene 1 10 104 0.785699 0 324 0.785699 1
gene 1 10 106 0.528703 0 326 0.528703 1
gene 1 10 107 0.718375 0 327 0.718375 1
gene 1 10 114 0.263817 0 334 0.263817 1
gene 1 11 90 -2.68429 0 344 -2.68429 1
gene 1 11 97 0.438978 0 351 0.438978 1
gene 1 11 107 1.29739 0 361 1.29739 1
gene 1 11 109 0.750633 0 363 0.750633 1
gene 1 11 110 2.64228 0 364 2.64228 1
gene 1 11 112 -0.926664 0 366 -0.926664 1
gene 1 11 113 -0.723136 0 367 -0.723136 1
gene 1 11 115 0.264809 0 369 0.264809 1
gene 1 11 116 0.550432 0 370 0.550432 1
gene 1 11 117 -0.271615 0 371 -0.271615 1
gene 1 11 118 0.121769 0 372 0.121769 1
gene 1 12 90 -0.135868 0 378 -0.135868 1
gene 1 12 98 0.724525 0 386 0.724525 1
gene 1 12 106 0.902173 0 394 0.902173 1
gene 1 12 113 1.28658 0 401 1.28658 1
gene 1 12 116 -0.280923 0 404 -0.280923 1
gene 1 13 93 -0.753838 0 415 -0.753838 1
gene 1 13 94 0.908261 0 416 0.908261 1
gene 1 13 95 -0.747703 0 417 -0.747703 1
gene 1 13 98 -0.617664 0 420 -0.617664 1
gene 1 13 99 0.709342 0 421 0.709342 1
gene 1 13 100 0.723807 0 422 0.723807 1
gene 1 13 109 -0.0459914 0 431 -0.0459914 1
gene 1 13 117 -0.0682699 0 439 -0.0682699 1
gene 1 14 87 3.21876 0 443 3.21876 1
gene 1 14 88 -0.452223 0 444 -0.452223 1
gene 1 14 91 0.406079 0 447 0.406079 1
gene 1 14 100 0.188391 0 456 0.188391 1
gene 1 14 103 0.683157 0 459 0.683157 1
gene 1 14 105 -0.303262 0 461 -0.303262 1
gene 1 14 114 0.129765 0 470 0.129765 1
gene 1 14 117 -0.421033 0 473 -0.421033 1
gene 1 14 119 2.49168 0 475 2.49168 1
gene 1 15 91 -0.860347 0 481 -0.860347 1
gene 1 15 94 -0.131809 0 484 -0.131809 1
gene 1 15 96 0.881375 0 486 0.881375 1
gene 1 15 103 1.13866 0 493 1.13866 1
gene 1 15 105 -1.80143 0 495 -1.80143 1
gene 1 15 107 -1.69094 0 497 -1.69094 1
gene 1 15 110 0.330699 0 500 0.330699 1
gene 1 15 111 2.4127 0 501 2.4127 1
gene 1 15 112 -0.0679342 0 502 -0.0679342 1
gene 1 16 86 -2.37866 0 510 -2.37866 1
gene 1 16 93 1.26603 0 517 1.26603 1
gene 1 16 100 -2.37487 0 524 -2.37487 1
gene 1 16 102 -0.0460829 0 526 -0.0460829 1
gene 1 16 105 -0.69982 0 529 -0.69982 1
gene 1 16 109 -0.111026 0 533 -0.111026 1
gene 1 16 118 -0.419568 0 542 -0.419568 1
gene 1 17 87 -0.113834 0 545 -0.113834 1
gene 1 17 88 -0.638844 0 546 -0.638844 1
gene 1 17 89 0.621815 0 547 0.621815 1
gene 1 17 91 2.05936 0 549 2.05936 1
gene 1 17 92 1.42552 0 550 1.42552 1
gene 1 17 96 -0.79162 0 554 -0.79162 1
gene 1 17 98 -0.523057 0 556 -0.523057 1
gene 1 17 99 -0.840663 0 557 -0.840663 1
gene 1 17 100 1.40414 0 558 1.40414 1
gene 1 17 102 0.80108 0 560 0.80108 1
gene 1 17 109 0.552141 0 567 0.552141 1
gene 1 17 111 1.84494 0 569 1.84494 1
gene 1 18 90 -0.956038 0 582 -0.956038 1
gene 1 18 97 -0.106784 0 589 -0.106784 1
gene 1 18 100 1.2541 0 592 1.2541 1
gene 1 18 102 -2.13398 0 594 -2.13398 1
gene 1 18 107 -1.87521 0 599 -1.87521 1
gene 1 18 108 -0.0424512 0 600 -0.0424512 1
gene 1 18 110 -0.546495 0 602 -0.546495 1
gene 1 19 91 2.05626 0 617 2.05626 1
gene 1 19 92 -0.707877 0 618 -0.707877 1
gene 1 19 94 -0.55855 0 620 -0.55855 1
gene 1 19 100 0.27253 0 626 0.27253 1
gene 1 19 103 -0.269967 0 629 -0.269967 1
gene 1 19 104 -0.847774 0 630 -0.847774 1
gene 1 19 105 -1.38356 0 631 -1.38356 1
gene 1 19 111 0.789636 0 637 0.789636 1
gene 1 19 112 -2.01355 0 638 -2.01355 1
gene 1 19 117 -1.53729 0 643 -1.53729 1
gene 1 19 118 0.579699 0 644 0.579699 1
gene 1 19 119 1.85389 0 645 1.85389 1
gene 1 20 88 -0.778603 0 648 -0.778603 1
gene 1 20 90 1.43559 0 650 1.43559 1
gene 1 20 94 0.0225837 0 654 0.0225837 1
gene 1 20 96 -0.842463 0 656 -0.842463 1
gene 1 20 102 0.737846 0 662 0.737846 1
gene 1 20 106 -0.792199 0 666 -0.792199 1
gene 1 20 116 -0.994873 0 676 -0.994873 1
gene 1 21 89 0.36259 0 683 0.36259 1
gene 1 21 102 1.70751 0 696 1.70751 1
gene 1 21 104 -2.20286 0 698 -2.20286 1
gene 1 21 105 1.85217 0 699 1.85217 1
gene 1 21 106 -0.27546 0 700 -0.27546 1
gene 1 21 107 1.77778 0 701 1.77778 1
gene 1 21 112 -0.220649 0 706 -0.220649 1
gene 1 21 117 -0.651357 0 711 -0.651357 1
gene 1 22 87 0.752586 0 715 0.752586 1
gene 1 22 88 1.49715 0 716 1.49715 1
gene 1 22 95 -0.712668 0 723 -0.712668 1
gene 1 22 97 -1.66082 0 725 -1.66082 1
gene 1 22 102 0.794122 0 730 0.794122 1
gene 1 22 103 -0.67568 0 731 -0.67568 1
gene 1 22 106 -0.970855 0 734 -0.970855 1
gene 1 22 108 0.0382702 0 736 0.0382702 1
gene 1 22 109 -0.732933 0 737 -0.732933 1
gene 1 23 87 -0.824274 0 749 -0.824274 1
gene 1 23 89 -0.659932 0 751 -0.659932 1
gene 1 23 92 -0.416334 0 754 -0.416334 1
gene 1 23 93 -0.363414 0 755 -0.363414 1
gene 1 23 94 0.315958 0 756 0.315958 1
gene 1 23 99 -0.329966 0 761 -0.329966 1
gene 1 23 107 -1.22481 0 769 -1.22481 1
gene 1 23 116 0.695486 0 778 0.695486 1
gene 1 23 118 0.171896 0 780 0.171896 1
gene 1 24 86 2.48772 0 782 2.48772 1
gene 1 24 87 -0.963408 0 783 -0.963408 1
gene 1 24 89 -2.071 0 785 -2.071 1
gene 1 24 91 0.494583 0 787 0.494583 1
gene 1 24 98 0.263619 0 794 0.263619 1
gene 1 24 105 -0.532792 0 801 -0.532792 1
gene 1 24 113 0.479446 0 809 0.479446 1
gene 1 24 115 -1.80187 0 811 -1.80187 1
gene 1 24 116 -0.776971 0 812 -0.776971 1
gene 1 24 117 0.409009 0 813 0.409009 1
gene 1 25 90 -0.652562 0 820 -0.652562 1
gene 1 25 91 -0.946043 0 821 -0.946043 1
gene 1 25 92 -0.979263 0 822 -0.979263 1
gene 1 25 102 0.265419 0 832 0.265419 1
gene 1 25 108 2.47563 0 838 2.47563 1
gene 1 25 109 -0.258309 0 839 -0.258309 1
gene 1 25 111 -0.75428 0 841 -0.75428 1
gene 1 25 113 0.845485 0 843 0.845485 1
gene 1 26 91 -1.02249 0 855 -1.02249 1
gene 1 26 93 0.432478 0 857 0.432478 1
gene 1 26 95 -1.96893 0 859 -1.96893 1
gene 1 26 99 0.228614 0 863 0.228614 1
gene 1 26 106 0.854396 0 870 0.854396 1
gene 1 26 109 0.719169 0 873 0.719169 1
gene 1 26 110 0.0531938 0 874 0.0531938 1
gene 1 26 116 -0.423688 0 880 -0.423688 1
gene 1 27 86 0.541917 0 884 0.541917 1
gene 1 27 88 -1.6489 0 886 -1.6489 1
gene 1 27 90 2.18108 0 888 2.18108 1
gene 1 27 96 0.657735 0 894 0.657735 1
gene 1 27 99 -1.70414 0 897 -1.70414 1
gene 1 27 101 1.62664 0 899 1.62664 1
gene 1 27 102 0.493912 0 900 0.493912 1
gene 1 27 103 -1.90349 0 901 -1.90349 1
gene 1 27 104 -0.68334 0 902 -0.68334 1
gene 1 27 105 0.873959 0 903 0.873959 1
gene 1 27 108 0.866482 0 906 0.866482 1
gene 1 27 110 0.192511 0 908 0.192511 1
gene 1 27 113 -0.266182 0 911 -0.266182 1
gene 1 27 114 -1.09323 0 912 -1.09323 1
gene 1 27 118 -0.572893 0 916 -0.572893 1
gene 1 28 86 0.673925 0 918 0.673925 1
gene 1 28 88 0.12125 0 920 0.12125 1
gene 1 28 95 0.0428175 0 927 0.0428175 1
gene 1 28 101 0.543153 0 933 0.543153 1
gene 1 28 103 -0.950957 0 935 -0.950957 1
gene 1 28 104 -0.148473 0 936 -0.148473 1
gene 1 28 105 0.592242 0 937 0.592242 1
gene 1 28 106 3.14827 0 938 3.14827 1
gene 1 28 109 -2.21076 0 941 -2.21076 1
gene 1 28 111 -0.139103 0 943 -0.139103 1
gene 1 28 115 -0.92465 0 947 -0.92465 1
gene 1 29 88 0.423078 0 954 0.423078 1
gene 1 29 89 -0.756523 0 955 -0.756523 1
gene 1 29 98 -0.27955 0 964 -0.27955 1
gene 1 29 100 -0.402615 0 966 -0.402615 1
gene 1 29 105 0.0764794 0 971 0.0764794 1
gene 1 29 114 -0.161351 0 980 -0.161351 1
gene 1 29 115 0.280221 0 981 0.280221 1
gene 1 30 89 -0.72103 0 989 -0.72103 1
gene 1 30 92 2.39509 0 992 2.39509 1
gene 1 30 103 0.634312 0 1003 0.634312 1
gene 1 30 106 2.25561 0 1006 2.25561 1
gene 1 30 117 -1.39274 0 1017 -1.39274 1
gene 1 31 96 2.06195 0 1030 2.06195 1
gene 1 31 97 0.273934 0 1031 0.273934 1
gene 1 31 100 -0.472518 0 1034 -0.472518 1
gene 1 31 102 -0.899808 0 1036 -0.899808 1
gene 1 31 105 0.713446 0 1039 0.713446 1
gene 1 31 110 -0.97499 0 1044 -0.97499 1
gene 1 31 111 -1.37623 0 1045 -1.37623 1
gene 1 31 115 -1.48241 0 1049 -1.48241 1
gene 1 31 119 0.960753 0 1053 0.960753 1
gene 1 32 86 0.334849 0 1054 0.334849 1
gene 1 32 93 1.8865 0 1061 1.8865 1
gene 1 32 95 0.00120548 0 1063 0.00120548 1
gene 1 32 97 2.91958 0 1065 2.91958 1
gene 1 32 100 0.309915 0 1068 0.309915 1
gene 1 32 104 0.325785 0 1072 0.325785 1
gene 1 32 108 0.16541 0 1076 0.16541 1
gene 1 32 109 1.02405 0 1077 1.02405 1
gene 1 32 110 0.0884274 0 1078 0.0884274 1
gene 1 32 112 -0.39668 0 1080 -0.39668 1
gene 1 32 113 -0.307932 0 1081 -0.307932 1
gene 1 32 118 -0.585009 0 1086 -0.585009 1
gene 1 33 87 1.00856 0 1089 1.00856 1
gene 1 33 88 0.150975 0 1090 0.150975 1
gene 1 33 90 -0.16361 0 1092 -0.16361 1
gene 1 33 93 -0.3193 0 1095 -0.3193 1
gene 1 33 99 -1.58112 0 1101 -1.58112 1
gene 1 33 100 0.0333567 0 1102 0.0333567 1
gene 1 33 105 0.56241 0 1107 0.56241 1
gene 1 33 107 -1.00435 0 1109 -1.00435 1
gene 1 33 110 1.23609 0 1112 1.23609 1
gene 1 33 117 -0.396466 0 1119 -0.396466 1
gene 1 33 119 0.266976 0 1121 0.266976 1
gene 1 34 97 2.59732 0 1133 2.59732 1
gene 1 34 99 0.207862 0 1135 0.207862 1
gene 1 34 109 -0.780999 0 1145 -0.780999 1
gene 1 34 111 -0.883236 0 1147 -0.883236 1
gene 1 34 112 -1.567 0 1148 -1.567 1
gene 1 34 115 1.847 0 1151 1.847 1
gene 1 35 86 0.919736 0 1156 0.919736 1
gene 1 35 91 -2.10097 0 1161 -2.10097 1
gene 1 35 100 -0.739311 0 1170 -0.739311 1
gene 1 35 105 -0.0549944 0 1175 -0.0549944 1
gene 1 35 110 -0.66686 0 1180 -0.66686 1
gene 1 36 87 -0.0744652 0 1191 -0.0744652 1
gene 1 36 88 0.6845 0 1192 0.6845 1
gene 1 36 98 1.65052 0 1202 1.65052 1
gene 1 36 99 0.749382 0 1203 0.749382 1
gene 1 36 101 0.245079 0 1205 0.245079 1
gene 1 36 105 0.822748 0 1209 0.822748 1
gene 1 36 108 -0.569536 0 1212 -0.569536 1
gene 1 36 110 -0.651051 0 1214 -0.651051 1
gene 1 36 111 -0.345103 0 1215 -0.345103 1
gene 1 36 113 0.519272 0 1217 0.519272 1
gene 1 37 86 -0.832789 0 1224 -0.832789 1
gene 1 37 88 -0.11127 0 1226 -0.11127 1
gene 1 37 91 -0.779595 0 1229 -0.779595 1
gene 1 37 92 -0.488372 0 1230 -0.488372 1
gene 1 37 105 1.62191 0 1243 1.62191 1
gene 1 37 108 -0.59212 0 1246 -0.59212 1
gene 1 37 110 2.45979 0 1248 2.45979 1
gene 1 37 113 -0.334544 0 1251 -0.334544 1
gene 1 37 116 0.204932 0 1254 0.204932 1
gene 1 37 118 -2.45946 0 1256 -2.45946 1
gene 1 37 119 0.627094 0 1257 0.627094 1
gene 1 38 86 0.419294 0 1258 0.419294 1
gene 1 38 87 0.0860622 0 1259 0.0860622 1
gene 1 38 88 -0.188757 0 1260 -0.188757 1
gene 1 38 92 0.454573 0 1264 0.454573 1
gene 1 38 100 0.227515 0 1272 0.227515 1
gene 1 38 106 0.695868 0 1278 0.695868 1
gene 1 38 112 -0.0716269 0 1284 -0.0716269 1
gene 1 38 113 0.930998 0 1285 0.930998 1
gene 1 38 119 1.71766 0 1291 1.71766 1
gene 1 39 88 0.18775 0 1294 0.18775 1
gene 1 39 91 0.963836 0 1297 0.963836 1
gene 1 39 104 0.20069 0 1310 0.20069 1
gene 1 39 106 0.68511 0 1312 0.68511 1
gene 1 39 107 0.955687 0 1313 0.955687 1
gene 1 39 112 0.233131 0 1318 0.233131 1
gene 1 39 116 -0.112674 0 1322 -0.112674 1
gene 1 40 88 0.677908 0 1328 0.677908 1
gene 1 40 90 0.470901 0 1330 0.470901 1
gene 1 40 92 -2.56294 0 1332 -2.56294 1
gene 1 40 95 2.24532 0 1335 2.24532 1
gene 1 40 98 -0.462172 0 1338 -0.462172 1
gene 1 40 99 0.135075 0 1339 0.135075 1
gene 1 40 108 -0.302988 0 1348 -0.302988 1
gene 1 40 109 0.868984 0 1349 0.868984 1
gene 1 40 110 0.914548 0 1350 0.914548 1
gene 1 40 112 -1.77023 0 1352 -1.77023 1
gene 1 40 114 0.90463 0 1354 0.90463 1
gene 1 40 117 0.519715 0 1357 0.519715 1
gene 1 40 119 -0.953276 0 1359 -0.953276 1
gene 1 41 89 -2.13561 0 1363 -2.13561 1
gene 1 41 93 -0.368358 0 1367 -0.368358 1
gene 1 41 100 0.297067 0 1374 0.297067 1
gene 1 41 105 -0.604602 0 1379 -0.604602 1
gene 1 41 111 0.278878 0 1385 0.278878 1
gene 1 41 117 -0.775994 0 1391 -0.775994 1
gene 1 41 119 0.531327 0 1393 0.531327 1
gene 1 42 89 -0.694296 0 1397 -0.694296 1
gene 1 42 94 -0.016007 0 1402 -0.016007 1
gene 1 42 97 -0.463759 0 1405 -0.463759 1
gene 1 42 98 2.19443 0 1406 2.19443 1
gene 1 42 101 0.124744 0 1409 0.124744 1
gene 1 42 102 2.32517 0 1410 2.32517 1
gene 1 42 105 0.651387 0 1413 0.651387 1
gene 1 42 106 0.0281381 0 1414 0.0281381 1
gene 1 42 107 -0.0122379 0 1415 -0.0122379 1
gene 1 42 108 -1.69195 0 1416 -1.69195 1
gene 1 42 110 1.54491 0 1418 1.54491 1
gene 1 42 111 0.309397 0 1419 0.309397 1
gene 1 42 112 -0.861782 0 1420 -0.861782 1
gene 1 42 113 -0.971313 0 1421 -0.971313 1
gene 1 43 86 0.970519 0 1428 0.970519 1
gene 1 43 87 1.13709 0 1429 1.13709 1
gene 1 43 88 -0.150029 0 1430 -0.150029 1
gene 1 43 100 -0.56917 0 1442 -0.56917 1
gene 1 43 101 -2.3405 0 1443 -2.3405 1
gene 1 43 104 -0.656148 0 1446 -0.656148 1
gene 1 43 110 -0.946043 0 1452 -0.946043 1
gene 1 43 114 1.36695 0 1456 1.36695 1
gene 1 44 86 -2.24235 0 1462 -2.24235 1
gene 1 44 89 0.0901822 0 1465 0.0901822 1
gene 1 44 90 -0.799265 0 1466 -0.799265 1
gene 1 44 94 -0.655919 0 1470 -0.655919 1
gene 1 44 98 -1.7958 0 1474 -1.7958 1
gene 1 44 99 -1.18455 0 1475 -1.18455 1
gene 1 44 102 -0.718146 0 1478 -0.718146 1
gene 1 44 103 -1.01587 0 1479 -1.01587 1
gene 1 44 104 1.10775 0 1480 1.10775 1
gene 1 44 106 -0.334178 0 1482 -0.334178 1
gene 1 44 111 0.187017 0 1487 0.187017 1
gene 1 44 113 0.896878 0 1489 0.896878 1
gene 1 44 115 -0.988708 0 1491 -0.988708 1
gene 1 44 117 1.43391 0 1493 1.43391 1
gene 1 45 90 0.90762 0 1500 0.90762 1
gene 1 45 99 -0.453276 0 1509 -0.453276 1
gene 1 45 100 -0.634083 0 1510 -0.634083 1
gene 1 46 88 1.89277 0 1532 1.89277 1
gene 1 46 89 2.72806 0 1533 2.72806 1
gene 1 46 91 -1.0528 0 1535 -1.0528 1
gene 1 46 92 0.655171 0 1536 0.655171 1
gene 1 46 96 0.804422 0 1540 0.804422 1
gene 1 46 99 0.315836 0 1543 0.315836 1
gene 1 46 109 1.70466 0 1553 1.70466 1
gene 1 46 110 0.195746 0 1554 0.195746 1
gene 1 46 113 0.666738 0 1557 0.666738 1
gene 1 46 116 -0.819208 0 1560 -0.819208 1
gene 1 47 86 1.64611 0 1564 1.64611 1
gene 1 47 90 0.450972 0 1568 0.450972 1
gene 1 47 92 -0.100833 0 1570 -0.100833 1
gene 1 47 95 -1.90121 0 1573 -1.90121 1
gene 1 47 98 -0.347316 0 1576 -0.347316 1
gene 1 47 101 0.116138 0 1579 0.116138 1
gene 1 47 102 -0.336375 0 1580 -0.336375 1
gene 1 47 109 -0.511032 0 1587 -0.511032 1
gene 1 47 113 -2.05977 0 1591 -2.05977 1
gene 1 48 87 -0.541368 0 1599 -0.541368 1
gene 1 48 92 0.699393 0 1604 0.699393 1
gene 1 48 93 0.877697 0 1605 0.877697 1
gene 1 48 95 0.898343 0 1607 0.898343 1
gene 1 48 96 -0.309 0 1608 -0.309 1
gene 1 48 101 -0.58388 0 1613 -0.58388 1
gene 1 48 102 0.716727 0 1614 0.716727 1
gene 1 48 105 0.707953 0 1617 0.707953 1
gene 1 48 106 0.0389721 0 1618 0.0389721 1
gene 1 48 109 0.487075 0 1621 0.487075 1
gene 1 48 113 0.237342 0 1625 0.237342 1
gene 1 48 115 0.898007 0 1627 0.898007 1
gene 1 48 119 0.616993 0 1631 0.616993 1
gene 1 49 87 0.669454 0 1633 0.669454 1
gene 1 49 92 -0.575106 0 1638 -0.575106 1
gene 1 49 99 0.673788 0 1645 0.673788 1
gene 1 49 100 1.34011 0 1646 1.34011 1
gene 1 49 101 1.25707 0 1647 1.25707 1
gene 1 49 104 2.34222 0 1650 2.34222 1
gene 1 49 106 -0.526994 0 1652 -0.526994 1
gene 1 49 107 -0.738121 0 1653 -0.738121 1
gene 1 49 112 -0.0663167 0 1658 -0.0663167 1
gene 1 49 116 -0.206 0 1662 -0.206 1
gene 1 50 88 -0.613468 0 1668 -0.613468 1
gene 1 50 90 0.192389 0 1670 0.192389 1
gene 1 50 94 2.12772 0 1674 2.12772 1
gene 1 50 95 0.180212 0 1675 0.180212 1
gene 1 50 96 1.318 0 1676 1.318 1
gene 1 50 103 0.94998 0 1683 0.94998 1
gene 1 50 114 -1.25623 0 1694 -1.25623 1
gene 1 50 115 1.68009 0 1695 1.68009 1
gene 1 51 90 0.998047 0 1704 0.998047 1
gene 1 51 106 0.934721 0 1720 0.934721 1
gene 1 51 108 -0.291574 0 1722 -0.291574 1
gene 1 52 88 1.29054 0 1736 1.29054 1
gene 1 52 93 0.277749 0 1741 0.277749 1
gene 1 52 98 0.914975 0 1746 0.914975 1
gene 1 52 99 -2.42673 0 1747 -2.42673 1
gene 1 52 104 -0.513169 0 1752 -0.513169 1
gene 1 52 107 -1.99709 0 1755 -1.99709 1
gene 1 52 113 0.507218 0 1761 0.507218 1
gene 1 52 119 0.432417 0 1767 0.432417 1
gene 1 53 90 0.614765 0 1772 0.614765 1
gene 1 53 98 1.75929 0 1780 1.75929 1
gene 1 53 107 -0.346309 0 1789 -0.346309 1
gene 1 53 111 -0.674764 0 1793 -0.674764 1
gene 1 53 112 -0.522141 0 1794 -0.522141 1
gene 1 53 114 -1.03006 0 1796 -1.03006 1
gene 1 53 115 -1.2559 0 1797 -1.2559 1
gene 1 53 119 2.24354 0 1801 2.24354 1
gene 1 54 89 1.8287 0 1805 1.8287 1
gene 1 54 91 -0.711234 0 1807 -0.711234 1
gene 1 54 93 -0.427656 0 1809 -0.427656 1
gene 1 54 95 0.681326 0 1811 0.681326 1
gene 1 54 105 -0.54677 0 1821 -0.54677 1
gene 1 54 106 0.567553 0 1822 0.567553 1
gene 1 54 110 -0.735588 0 1826 -0.735588 1
gene 1 55 86 0.282113 0 1836 0.282113 1
gene 1 55 92 0.98056 0 1842 0.98056 1
gene 1 55 95 1.11048 0 1845 1.11048 1
gene 1 55 97 0.348979 0 1847 0.348979 1
gene 1 55 112 0.933409 0 1862 0.933409 1
gene 1 55 113 -0.738151 0 1863 -0.738151 1
gene 1 55 114 -0.125401 0 1864 -0.125401 1
gene 1 55 119 1.53417 0 1869 1.53417 1
gene 1 56 88 -0.739525 0 1872 -0.739525 1
gene 1 56 96 -1.73093 0 1880 -1.73093 1
gene 1 56 108 -0.632344 0 1892 -0.632344 1
gene 1 56 111 -0.0206 0 1895 -0.0206 1
gene 1 56 118 -0.806513 0 1902 -0.806513 1
gene 1 57 108 -1.19774 0 1926 -1.19774 1
gene 1 57 112 -0.540559 0 1930 -0.540559 1
gene 1 57 114 -2.8166 0 1932 -2.8166 1
gene 1 57 115 -0.661397 0 1933 -0.661397 1
gene 1 58 88 1.01971 0 1940 1.01971 1
gene 1 58 91 0.681356 0 1943 0.681356 1
gene 1 58 92 -0.768609 0 1944 -0.768609 1
gene 1 58 93 0.764061 0 1945 0.764061 1
gene 1 58 94 0.312449 0 1946 0.312449 1
gene 1 58 95 0.241523 0 1947 0.241523 1
gene 1 58 96 -0.133915 0 1948 -0.133915 1
gene 1 58 97 -0.774895 0 1949 -0.774895 1
gene 1 58 101 0.860958 0 1953 0.860958 1
gene 1 58 103 -2.00514 0 1955 -2.00514 1
gene 1 58 104 0.594501 0 1956 0.594501 1
gene 1 58 116 -0.482345 0 1968 -0.482345 1
gene 1 59 87 -1.54598 0 1973 -1.54598 1
gene 1 59 88 0.366253 0 1974 0.366253 1
gene 1 59 90 0.350826 0 1976 0.350826 1
gene 1 59 91 1.75321 0 1977 1.75321 1
gene 1 59 96 2.29148 0 1982 2.29148 1
gene 1 59 97 -0.291681 0 1983 -0.291681 1
gene 1 59 102 -2.095 0 1988 -2.095 1
gene 1 59 104 0.0531175 0 1990 0.0531175 1
gene 1 59 110 -0.0685141 0 1996 -0.0685141 1
gene 1 59 111 0.0644398 0 1997 0.0644398 1
gene 1 59 114 0.173009 0 2000 0.173009 1
gene 1 59 115 -0.41467 0 2001 -0.41467 1
gene 1 59 116 -0.17951 0 2002 -0.17951 1
gene 1 59 119 -0.688498 0 2005 -0.688498 1
gene 1 60 86 -0.206122 0 2006 -0.206122 1
gene 1 60 87 -2.44751 0 2007 -2.44751 1
gene 1 60 91 0.890866 0 2011 0.890866 1
gene 1 60 92 0.74633 0 2012 0.74633 1
gene 1 60 94 0.767815 0 2014 0.767815 1
gene 1 60 98 0.412366 0 2018 0.412366 1
gene 1 60 99 0.231056 0 2019 0.231056 1
gene 1 60 101 -1.76405 0 2021 -1.76405 1
gene 1 60 103 0.431532 0 2023 0.431532 1
gene 1 60 113 1.40431 0 2033 1.40431 1
gene 1 60 115 -1.92221 0 2035 -1.92221 1
gene 1 61 86 -0.157964 0 2040 -0.157964 1
gene 1 61 88 -0.309519 0 2042 -0.309519 1
gene 1 61 91 -1.9776 0 2045 -1.9776 1
gene 1 61 92 -0.545824 0 2046 -0.545824 1
gene 1 61 97 0.96466 0 2051 0.96466 1
gene 1 61 101 0.0686361 0 2055 0.0686361 1
gene 1 61 102 -2.51471 0 2056 -2.51471 1
gene 1 61 106 -0.535447 0 2060 -0.535447 1
gene 1 61 108 0.645131 0 2062 0.645131 1
gene 1 61 110 1.56934 0 2064 1.56934 1
gene 1 61 111 -0.206671 0 2065 -0.206671 1
gene 1 61 115 -0.920148 0 2069 -0.920148 1
gene 1 62 90 -1.16901 0 2078 -1.16901 1
gene 1 62 95 -0.203345 0 2083 -0.203345 1
gene 1 62 97 0.807886 0 2085 0.807886 1
gene 1 62 99 -0.810877 0 2087 -0.810877 1
gene 1 62 101 -0.708792 0 2089 -0.708792 1
gene 1 62 103 0.144581 0 2091 0.144581 1
gene 1 62 104 -1.54691 0 2092 -1.54691 1
gene 1 62 115 -0.840999 0 2103 -0.840999 1
gene 1 62 116 -0.0106815 0 2104 -0.0106815 1
gene 1 63 94 -0.5515 0 2116 -0.5515 1
gene 1 63 96 -0.964843 0 2118 -0.964843 1
gene 1 63 108 -0.431684 0 2130 -0.431684 1
gene 1 63 110 -0.654363 0 2132 -0.654363 1
gene 1 63 111 -0.536668 0 2133 -0.536668 1
gene 1 63 112 -0.0133366 0 2134 -0.0133366 1
gene 1 64 88 0.744453 0 2144 0.744453 1
gene 1 64 91 0.735832 0 2147 0.735832 1
gene 1 64 94 0.15244 0 2150 0.15244 1
gene 1 64 98 0.0775475 0 2154 0.0775475 1
gene 1 64 101 1.18783 0 2157 1.18783 1
gene 1 64 104 0.484848 0 2160 0.484848 1
gene 1 64 105 1.57869 0 2161 1.57869 1
gene 1 64 109 -0.579638 0 2165 -0.579638 1
gene 1 64 112 -0.454131 0 2168 -0.454131 1
gene 1 64 115 -0.162786 0 2171 -0.162786 1
gene 1 64 118 0.304758 0 2174 0.304758 1
gene 1 65 88 -0.025483 0 2178 -0.025483 1
gene 1 65 95 0.156041 0 2185 0.156041 1
gene 1 65 100 0.0310373 0 2190 0.0310373 1
gene 1 65 111 -0.10126 0 2201 -0.10126 1
gene 1 65 113 -0.53975 0 2203 -0.53975 1
gene 1 65 117 -0.200537 0 2207 -0.200537 1
gene 1 66 88 0.350475 0 2212 0.350475 1
gene 1 66 89 2.00824 0 2213 2.00824 1
gene 1 66 91 0.520493 0 2215 0.520493 1
gene 1 66 98 -0.469558 0 2222 -0.469558 1
gene 1 66 100 -1.0515 0 2224 -1.0515 1
gene 1 66 108 2.04848 0 2232 2.04848 1
gene 1 66 111 -1.03282 0 2235 -1.03282 1
gene 1 66 112 -0.0235298 0 2236 -0.0235298 1
gene 1 66 115 -0.663381 0 2239 -0.663381 1
gene 1 66 117 -2.54747 0 2241 -2.54747 1
gene 1 66 118 0.759148 0 2242 0.759148 1
gene 1 67 86 0.94116 0 2244 0.94116 1
gene 1 67 103 0.799951 0 2261 0.799951 1
gene 1 67 106 -0.6124 0 2264 -0.6124 1
gene 1 67 109 -0.29191 0 2267 -0.29191 1
gene 1 67 112 0.635578 0 2270 0.635578 1
gene 1 67 116 0.461653 0 2274 0.461653 1
gene 1 67 119 1.29519 0 2277 1.29519 1
gene 1 68 87 -0.812357 0 2279 -0.812357 1
gene 1 68 91 0.796136 0 2283 0.796136 1
gene 1 68 93 -0.201193 0 2285 -0.201193 1
gene 1 68 105 3.2797 0 2297 3.2797 1
gene 1 68 110 -0.61623 0 2302 -0.61623 1
gene 1 68 112 0.954405 0 2304 0.954405 1
gene 1 69 88 -0.112598 0 2314 -0.112598 1
gene 1 69 89 2.67817 0 2315 2.67817 1
gene 1 69 91 -0.712287 0 2317 -0.712287 1
gene 1 69 94 -0.63068 0 2320 -0.63068 1
gene 1 69 96 0.0625782 0 2322 0.0625782 1
gene 1 69 97 0.277169 0 2323 0.277169 1
gene 1 69 98 -2.93738 0 2324 -2.93738 1
gene 1 69 104 0.376293 0 2330 0.376293 1
gene 1 69 108 -1.00925 0 2334 -1.00925 1
gene 1 69 113 -1.47053 0 2339 -1.47053 1
gene 1 69 115 -1.25842 0 2341 -1.25842 1
gene 1 70 88 0.762902 0 2348 0.762902 1
gene 1 70 89 -0.972564 0 2349 -0.972564 1
gene 1 70 93 1.79434 0 2353 1.79434 1
gene 1 70 95 1.19976 0 2355 1.19976 1
gene 1 70 96 0.599918 0 2356 0.599918 1
gene 1 70 98 -0.210974 0 2358 -0.210974 1
gene 1 70 109 -2.47697 0 2369 -2.47697 1
gene 1 70 114 -0.824488 0 2374 -0.824488 1
gene 1 70 115 2.41752 0 2375 2.41752 1
gene 1 70 119 0.990844 0 2379 0.990844 1
gene 1 71 86 -1.13144 0 2380 -1.13144 1
gene 1 71 87 -0.302499 0 2381 -0.302499 1
gene 1 71 88 -1.29182 0 2382 -1.29182 1
gene 1 71 91 -1.7235 0 2385 -1.7235 1
gene 1 71 97 -0.00350963 0 2391 -0.00350963 1
gene 1 71 98 0.375591 0 2392 0.375591 1
gene 1 71 100 0.25985 0 2394 0.25985 1
gene 1 71 106 -1.33485 0 2400 -1.33485 1
gene 1 71 108 2.19016 0 2402 2.19016 1
gene 1 71 110 -0.606616 0 2404 -0.606616 1
gene 1 71 111 0.0257881 0 2405 0.0257881 1
gene 1 71 112 0.796319 0 2406 0.796319 1
gene 1 72 86 -0.936903 0 2414 -0.936903 1
gene 1 72 94 -0.461348 0 2422 -0.461348 1
gene 1 72 97 -0.831385 0 2425 -0.831385 1
gene 1 72 101 1.73579 0 2429 1.73579 1
gene 1 72 105 -0.726722 0 2433 -0.726722 1
gene 1 72 107 1.52258 0 2435 1.52258 1
gene 1 72 112 2.69033 0 2440 2.69033 1
gene 1 72 114 0.171361 0 2442 0.171361 1
gene 1 73 95 0.951903 0 2457 0.951903 1
gene 1 73 97 -0.502243 0 2459 -0.502243 1
gene 1 73 100 0.766533 0 2462 0.766533 1
gene 1 73 111 2.18009 0 2473 2.18009 1
gene 1 73 113 0.448134 0 2475 0.448134 1
gene 1 73 115 0.623676 0 2477 0.623676 1
gene 1 73 116 0.524155 0 2478 0.524155 1
gene 1 73 117 0.718009 0 2479 0.718009 1
gene 1 74 89 2.56261 0 2485 2.56261 1
gene 1 74 95 -1.26164 0 2491 -1.26164 1
gene 1 74 100 -2.35244 0 2496 -2.35244 1
gene 1 74 101 -0.293649 0 2497 -0.293649 1
gene 1 74 107 0.0778222 0 2503 0.0778222 1
gene 1 74 111 0.158849 0 2507 0.158849 1
gene 1 74 116 -0.118564 0 2512 -0.118564 1
gene 1 75 91 0.879559 0 2521 0.879559 1
gene 1 75 95 0.329188 0 2525 0.329188 1
gene 1 75 100 -1.4742 0 2530 -1.4742 1
gene 1 75 103 -0.518723 0 2533 -0.518723 1
gene 1 75 107 -2.60421 0 2537 -2.60421 1
gene 1 75 108 -0.315073 0 2538 -0.315073 1
gene 1 75 111 -0.598529 0 2541 -0.598529 1
gene 1 75 114 -0.740349 0 2544 -0.740349 1
gene 1 75 117 -2.16771 0 2547 -2.16771 1
gene 1 76 86 -0.140416 0 2550 -0.140416 1
gene 1 76 87 0.253304 0 2551 0.253304 1
gene 1 76 94 -0.286538 0 2558 -0.286538 1
gene 1 76 99 0.0761437 0 2563 0.0761437 1
gene 1 76 104 -2.18029 0 2568 -2.18029 1
gene 1 76 106 2.64432 0 2570 2.64432 1
gene 1 76 112 0.924375 0 2576 0.924375 1
gene 1 76 118 -1.40471 0 2582 -1.40471 1
gene 1 77 87 -0.379589 0 2585 -0.379589 1
gene 1 77 90 1.15157 0 2588 1.15157 1
gene 1 77 93 -0.341777 0 2591 -0.341777 1
gene 1 77 95 0.744652 0 2593 0.744652 1
gene 1 77 100 1.09886 0 2598 1.09886 1
gene 1 77 102 -0.343333 0 2600 -0.343333 1
gene 1 77 104 -0.936125 0 2602 -0.936125 1
gene 1 77 107 0.748833 0 2605 0.748833 1
gene 1 77 111 -1.4919 0 2609 -1.4919 1
gene 1 77 114 0.151067 0 2612 0.151067 1
gene 1 78 89 0.508316 0 2621 0.508316 1
gene 1 78 92 0.0854213 0 2624 0.0854213 1
gene 1 78 94 1.58734 0 2626 1.58734 1
gene 1 78 99 0.0988495 0 2631 0.0988495 1
gene 1 78 102 -0.831965 0 2634 -0.831965 1
gene 1 78 103 -0.546999 0 2635 -0.546999 1
gene 1 78 104 0.0976592 0 2636 0.0976592 1
gene 1 78 105 0.42375 0 2637 0.42375 1
gene 1 78 106 0.234016 0 2638 0.234016 1
gene 1 78 110 0.162999 0 2642 0.162999 1
gene 1 79 89 -0.53444 0 2655 -0.53444 1
gene 1 79 94 -0.465773 0 2660 -0.465773 1
gene 1 79 95 1.05597 0 2661 1.05597 1
gene 1 79 102 -1.05217 0 2668 -1.05217 1
gene 1 79 105 -0.0575579 0 2671 -0.0575579 1
gene 1 79 111 -0.555559 0 2677 -0.555559 1
gene 1 79 115 -2.20435 0 2681 -2.20435 1
gene 1 79 117 -0.684835 0 2683 -0.684835 1
gene 1 79 118 -0.962951 0 2684 -0.962951 1
gene 1 79 119 2.1839 0 2685 2.1839 1
gene 1 80 88 0.894375 0 2688 0.894375 1
gene 1 80 93 -0.248878 0 2693 -0.248878 1
gene 1 80 95 2.55765 0 2695 2.55765 1
gene 1 80 108 -0.17008 0 2708 -0.17008 1
gene 1 80 109 2.84907 0 2709 2.84907 1
gene 1 80 115 0.772301 0 2715 0.772301 1
gene 1 80 119 0.250801 0 2719 0.250801 1
gene 1 81 88 0.363079 0 2722 0.363079 1
gene 1 81 89 -0.941343 0 2723 -0.941343 1
gene 1 81 92 -0.367962 0 2726 -0.367962 1
gene 1 81 100 0.479476 0 2734 0.479476 1
gene 1 81 102 0.35374 0 2736 0.35374 1
gene 1 81 108 0.891507 0 2742 0.891507 1
gene 1 81 114 0.24308 0 2748 0.24308 1
gene 1 82 86 0.27543 0 2754 0.27543 1
gene 1 82 87 1.21081 0 2755 1.21081 1
gene 1 82 91 -0.883297 0 2759 -0.883297 1
gene 1 82 94 -0.181143 0 2762 -0.181143 1
gene 1 82 97 -0.311075 0 2765 -0.311075 1
gene 1 82 98 -0.780908 0 2766 -0.780908 1
gene 1 82 107 0.500473 0 2775 0.500473 1
gene 1 82 108 0.602649 0 2776 0.602649 1
gene 1 82 111 -0.613208 0 2779 -0.613208 1
gene 1 82 116 1.35142 0 2784 1.35142 1
gene 1 83 87 0.294259 0 2789 0.294259 1
gene 1 83 93 -0.445631 0 2795 -0.445631 1
gene 1 83 111 -0.106357 0 2813 -0.106357 1
gene 1 83 113 0.838832 0 2815 0.838832 1
gene 1 84 88 1.19526 0 2824 1.19526 1
gene 1 84 92 0.991028 0 2828 0.991028 1
gene 1 84 94 0.776971 0 2830 0.776971 1
gene 1 84 102 -0.454909 0 2838 -0.454909 1
gene 1 84 104 -1.69477 0 2840 -1.69477 1
gene 1 84 106 2.44011 0 2842 2.44011 1
gene 1 84 109 -0.398068 0 2845 -0.398068 1
gene 1 85 86 -0.752617 0 2856 -0.752617 1
gene 1 85 87 0.152501 0 2857 0.152501 1
gene 1 85 90 -0.228339 0 2860 -0.228339 1
gene 1 85 96 0.344432 0 2866 0.344432 1
gene 1 85 100 0.457167 0 2870 0.457167 1
gene 1 85 105 0.336772 0 2875 0.336772 1
gene 1 85 112 -1.92451 0 2882 -1.92451 1
gene 1 85 114 -0.465835 0 2884 -0.465835 1
gene 1 85 115 0.710257 0 2885 0.710257 1
gene 1 36 106 -0.954833 0 2888 -0.954833 1
gene 1 59 107 0.461959 0 2897 0.461959 1
genomeend 1

/* Organism #2 Fitness: 10 Error: 0 */
genomestart 2
trait 1 0.1 0 0 0.325663 0 0 0 0.544725 
node 1 1 1 3
node 2 1 1 1
node 3 1 1 1
node 4 1 1 1
node 5 1 1 1
node 6 1 1 1
node 7 1 1 1
node 8 1 1 1
node 9 1 1 1
node 10 1 1 1
node 11 1 1 1
node 12 1 1 1
node 13 1 1 1
node 14 1 1 1
node 15 1 1 1
node 16 1 1 1
node 17 1 1 1
node 18 1 1 1
node 19 1 1 1
node 20 1 1 1
node 21 1 1 1
node 22 1 1 1
node 23 1 1 1
node 24 1 1 1
node 25 1 1 1
node 26 1 1 1
node 27 1 1 1
node 28 1 1 1
node 29 1 1 1
node 30 1 1 1
node 31 1 1 1
node 32 1 1 1
node 33 1 1 1
node 34 1 1 1
node 35 1 1 1
node 36 1 1 1
node 37 1 1 1
node 38 1 1 1
node 39 1 1 1
node 40 1 1 1
node 41 1 1 1
node 42 1 1 1
node 43 1 1 1
node 44 1 1 1
node 45 1 1 1
node 46 1 1 1
node 47 1 1 1
node 48 1 1 1
node 49 1 1 1
node 50 1 1 1
node 51 1 1 1
node 52 1 1 1
node 53 1 1 1
node 54 1 1 1
node 55 1 1 1
node 56 1 1 1
node 57 1 1 1
node 58 1 1 1
node 59 1 1 1
node 60 1 1 1
node 61 1 1 1
node 62 1 1 1
node 63 1 1 1
node 64 1 1 1
node 65 1 1 1
node 66 1 1 1
node 67 1 1 1
node 68 1 1 1
node 69 1 1 1
node 70 1 1 1
node 71 1 1 1
node 72 1 1 1
node 73 1 1 1
node 74 1 1 1
node 75 1 1 1
node 76 1 1 1
node 77 1 1 1
node 78 1 1 1
node 79 1 1 1
node 80 1 1 1
node 81 1 1 1
node 82 1 1 1
node 83 1 1 1
node 84 1 1 1
node 85 1 1 1
node 86 1 0 2
node 87 1 0 2
node 88 1 0 2
node 89 1 0 2
node 90 1 0 2
node 91 1 0 2
node 92 1 0 2
node 93 1 0 2
node 94 1 0 2
node 95 1 0 2
node 96 1 0 2
node 97 1 0 2
node 98 1 0 2
node 99 1 0 2
node 100 1 0 2
node 101 1 0 2
node 102 1 0 2
node 103 1 0 2
node 104 1 0 2
node 105 1 0 2
node 106 1 0 2
node 107 1 0 2
node 108 1 0 2
node 109 1 0 2
node 110 1 0 2
node 111 1 0 2
node 112 1 0 2
node 113 1 0 2
node 114 1 0 2
node 115 1 0 2
node 116 1 0 2
node 117 1 0 2
node 118 1 0 2
node 119 1 0 2
gene 1 1 86 2.08444 0 0 2.08444 1
gene 1 1 90 1.46912 0 4 1.46912 1
gene 1 1 91 -1.37043 0 5 -1.37043 1
gene 1 1 94 -2.10021 0 8 -2.10021 1
gene 1 1 99 -0.692343 0 13 -0.692343 1
gene 1 1 102 3.1418 0 16 3.1418 1
gene 1 1 106 1.38401 0 20 1.38401 1
gene 1 1 109 -0.291452 0 23 -0.291452 1
gene 1 1 114 1.82977 0 28 1.82977 1
gene 1 1 115 -2.24548 0 29 -2.24548 1
gene 1 1 118 0.563677 0 32 0.563677 1
gene 1 1 119 -4.08255 0 33 -4.08255 1
gene 1 2 87 -1.51065 0 35 -1.51065 1
gene 1 2 93 0.303751 0 41 0.303751 1
gene 1 2 99 0.0555437 0 47 0.0555437 1
gene 1 2 103 1.22791 0 51 1.22791 1
gene 1 2 105 -1.22097 0 53 -1.22097 1
gene 1 2 108 -2.37539 0 56 -2.37539 1
gene 1 2 109 -0.812708 0 57 -0.812708 1
gene 1 2 110 -0.267342 0 58 -0.267342 1
gene 1 2 114 2.4367 0 62 2.4367 1
gene 1 3 88 -0.285775 0 70 -0.285775 1
gene 1 3 89 2.23998 0 71 2.23998 1
gene 1 3 101 -0.756813 0 83 -0.756813 1
gene 1 3 107 -0.985214 0 89 -0.985214 1
gene 1 3 109 1.93281 0 91 1.93281 1
gene 1 3 111 -0.704001 0 93 -0.704001 1
gene 1 3 114 -1.58563 0 96 -1.58563 1
gene 1 3 119 0.025071 0 101 0.025071 1
gene 1 4 90 1.22402 0 106 1.22402 1
gene 1 4 93 1.30819 0 109 1.30819 1
gene 1 4 98 -0.605029 0 114 -0.605029 1
gene 1 4 100 1.61151 0 116 1.61151 1
gene 1 4 102 -2.34283 0 118 -2.34283 1
gene 1 4 104 -0.64156 0 120 -0.64156 1
gene 1 4 106 0.903607 0 122 0.903607 1
gene 1 4 109 -1.81675 0 125 -1.81675 1
gene 1 4 110 2.69404 0 126 2.69404 1
gene 1 4 112 -0.690603 0 128 -0.690603 1
gene 1 4 113 -1.98866 0 129 -1.98866 1
gene 1 4 117 0.603427 0 133 0.603427 1
gene 1 5 91 -2.30345 0 141 -2.30345 1
gene 1 5 92 -0.514832 0 142 -0.514832 1
gene 1 5 98 0.662679 0 148 0.662679 1
gene 1 5 100 -0.143132 0 150 -0.143132 1
gene 1 5 102 0.0285043 0 152 0.0285043 1
gene 1 5 109 1.5598 0 159 1.5598 1
gene 1 5 114 -0.00262459 0 164 -0.00262459 1
gene 1 5 119 -1.26791 0 169 -1.26791 1
gene 1 6 87 -0.0134281 0 171 -0.0134281 1
gene 1 6 88 -0.368389 0 172 -0.368389 1
gene 1 6 90 1.88295 0 174 1.88295 1
gene 1 6 93 -2.40928 0 177 -2.40928 1
gene 1 6 94 -1.02939 0 178 -1.02939 1
gene 1 6 100 -1.14783 0 184 -1.14783 1
gene 1 6 105 0.520051 0 189 0.520051 1
gene 1 6 115 -1.86239 0 199 -1.86239 1
gene 1 6 119 0.0293283 0 203 0.0293283 1
gene 1 7 90 -2.66866 0 208 -2.66866 1
gene 1 7 93 -0.823847 0 211 -0.823847 1
gene 1 7 95 1.65433 0 213 1.65433 1
gene 1 7 101 1.67896 0 219 1.67896 1
gene 1 7 102 0.844127 0 220 0.844127 1
gene 1 7 104 0.0759453 0 222 0.0759453 1
gene 1 7 108 -0.186285 0 226 -0.186285 1
gene 1 7 111 -2.01129 0 229 -2.01129 1
gene 1 7 114 1.045 0 232 1.045 1
gene 1 8 86 1.05327 0 238 1.05327 1
gene 1 8 87 1.21722 0 239 1.21722 1
gene 1 8 91 0.350276 0 243 0.350276 1
gene 1 8 96 0.868297 0 248 0.868297 1
gene 1 8 100 1.28976 0 252 1.28976 1
gene 1 8 101 1.58368 0 253 1.58368 1
gene 1 8 105 -0.685049 0 257 -0.685049 1
gene 1 8 107 3.07649 0 259 3.07649 1
gene 1 8 109 0.363399 0 261 0.363399 1
gene 1 8 113 -1.36883 0 265 -1.36883 1
gene 1 8 117 -2.14606 0 269 -2.14606 1
gene 1 9 93 -0.235481 0 279 -0.235481 1
gene 1 9 94 -2.44711 0 280 -2.44711 1
gene 1 9 96 0.29017 0 282 0.29017 1
gene 1 9 100 2.34573 0 286 2.34573 1
gene 1 9 107 1.29391 0 293 1.29391 1
gene 1 9 108 0.462035 0 294 0.462035 1
gene 1 9 116 -2.82871 0 302 -2.82871 1
gene 1 9 117 -2.67843 0 303 -2.67843 1
gene 1 9 119 -3.09702 0 305 -3.09702 1
gene 1 10 86 -0.951888 0 306 -0.951888 1
gene 1 10 88 1.92515 0 308 1.92515 1
gene 1 10 99 0.291986 0 319 0.291986 1
gene 1 10 102 -0.930235 0 322 -0.930235 1
gene 1 10 104 0.00869778 0 324 0.00869778 1
gene 1 10 106 -0.029252 0 326 -0.029252 1
gene 1 10 107 -1.42929 0 327 -1.42929 1
gene 1 10 114 1.41543 0 334 1.41543 1
gene 1 11 90 -2.45608 0 344 -2.45608 1
gene 1 11 97 0.438978 0 351 0.438978 1
gene 1 11 107 1.95003 0 361 1.95003 1
gene 1 11 109 -0.898968 0 363 -0.898968 1
gene 1 11 110 -0.425275 0 364 -0.425275 1
gene 1 11 112 0.480392 0 366 0.480392 1
gene 1 11 113 0.0147252 0 367 0.0147252 1
gene 1 11 115 2.3825 0 369 2.3825 1
gene 1 11 116 -1.4879 0 370 -1.4879 1
gene 1 11 117 -1.34091 0 371 -1.34091 1
gene 1 11 118 0.929212 0 372 0.929212 1
gene 1 12 90 -0.135868 0 378 -0.135868 1
gene 1 12 98 1.96281 0 386 1.96281 1
gene 1 12 106 3.04083 0 394 3.04083 1
gene 1 12 113 0.706885 0 401 0.706885 1
gene 1 12 116 1.70537 0 404 1.70537 1
gene 1 13 93 -1.63392 0 415 -1.63392 1
gene 1 13 94 -1.27976 0 416 -1.27976 1
gene 1 13 95 1.29498 0 417 1.29498 1
gene 1 13 98 -0.617664 0 420 -0.617664 1
gene 1 13 99 1.28538 0 421 1.28538 1
gene 1 13 100 0.723807 0 422 0.723807 1
gene 1 13 109 0.356014 0 431 0.356014 1
gene 1 13 117 -2.48389 0 439 -2.48389 1
gene 1 14 87 4.11531 0 443 4.11531 1
gene 1 14 88 -0.907773 0 444 -0.907773 1
gene 1 14 91 -1.17486 0 447 -1.17486 1
gene 1 14 100 -1.81889 0 456 -1.81889 1
gene 1 14 103 0.00289926 0 459 0.00289926 1
gene 1 14 105 -0.663686 0 461 -0.663686 1
gene 1 14 114 2.34159 0 470 2.34159 1
gene 1 14 117 -2.72831 0 473 -2.72831 1
gene 1 14 119 2.30216 0 475 2.30216 1
gene 1 15 91 0.0483413 0 481 0.0483413 1
gene 1 15 94 1.51848 0 484 1.51848 1
gene 1 15 96 0.64127 0 486 0.64127 1
gene 1 15 103 1.59459 0 493 1.59459 1
gene 1 15 105 -2.81053 0 495 -2.81053 1
gene 1 15 107 0.725898 0 497 0.725898 1
gene 1 15 110 -0.829691 0 500 -0.829691 1
gene 1 15 111 2.02124 0 501 2.02124 1
gene 1 15 112 1.16448 0 502 1.16448 1
gene 1 16 86 -2.53995 0 510 -2.53995 1
gene 1 16 93 1.39474 0 517 1.39474 1
gene 1 16 100 0.646764 0 524 0.646764 1
gene 1 16 102 0.493789 0 526 0.493789 1
gene 1 16 105 -2.71107 0 529 -2.71107 1
gene 1 16 109 -0.111026 0 533 -0.111026 1
gene 1 16 118 -0.341975 0 542 -0.341975 1
gene 1 17 87 -1.77686 0 545 -1.77686 1
gene 1 17 88 1.0238 0 546 1.0238 1
gene 1 17 89 -0.28222 0 547 -0.28222 1
gene 1 17 91 3.05319 0 549 3.05319 1
gene 1 17 92 2.90155 0 550 2.90155 1
gene 1 17 96 0.0323801 0 554 0.0323801 1
gene 1 17 98 0.288736 0 556 0.288736 1
gene 1 17 99 -0.54593 0 557 -0.54593 1
gene 1 17 100 2.32473 0 558 2.32473 1
gene 1 17 102 0.372173 0 560 0.372173 1
gene 1 17 109 0.96025 0 567 0.96025 1
gene 1 17 111 3.57434 0 569 3.57434 1
gene 1 18 90 -1.97307 0 582 -1.97307 1
gene 1 18 97 -0.106784 0 589 -0.106784 1
gene 1 18 100 2.6475 0 592 2.6475 1
gene 1 18 102 1.74741 0 594 1.74741 1
gene 1 18 107 0.166784 0 599 0.166784 1
gene 1 18 108 -0.5618 0 600 -0.5618 1
gene 1 18 110 -1.41215 0 602 -1.41215 1
gene 1 19 91 0.00274667 0 617 0.00274667 1
gene 1 19 92 -1.1977 0 618 -1.1977 1
gene 1 19 94 -1.57688 0 620 -1.57688 1
gene 1 19 100 2.31849 0 626 2.31849 1
gene 1 19 103 -1.87043 0 629 -1.87043 1
gene 1 19 104 -2.67125 0 630 -2.67125 1
gene 1 19 105 -2.13248 0 631 -2.13248 1
gene 1 19 111 -2.46811 0 637 -2.46811 1
gene 1 19 112 -0.00833155 0 638 -0.00833155 1
gene 1 19 117 -2.34123 0 643 -2.34123 1
gene 1 19 118 1.91733 0 644 1.91733 1
gene 1 19 119 2.03655 0 645 2.03655 1
gene 1 20 88 -1.62206 0 648 -1.62206 1
gene 1 20 90 2.63886 0 650 2.63886 1
gene 1 20 94 0.110858 0 654 0.110858 1
gene 1 20 96 -0.842463 0 656 -0.842463 1
gene 1 20 102 -1.51953 0 662 -1.51953 1
gene 1 20 106 -1.23457 0 666 -1.23457 1
gene 1 20 116 -0.310648 0 676 -0.310648 1
gene 1 21 89 -1.20785 0 683 -1.20785 1
gene 1 21 102 1.26026 0 696 1.26026 1
gene 1 21 104 -1.24953 0 698 -1.24953 1
gene 1 21 105 0.476318 0 699 0.476318 1
gene 1 21 106 -1.17263 0 700 -1.17263 1
gene 1 21 107 2.25181 0 701 2.25181 1
gene 1 21 112 1.09073 0 706 1.09073 1
gene 1 21 117 -2.1193 0 711 -2.1193 1
gene 1 22 87 1.13445 0 715 1.13445 1
gene 1 22 88 -0.784494 0 716 -0.784494 1
gene 1 22 95 -1.52332 0 723 -1.52332 1
gene 1 22 97 -2.51633 0 725 -2.51633 1
gene 1 22 102 2.86465 0 730 2.86465 1
gene 1 22 103 1.05495 0 731 1.05495 1
gene 1 22 106 1.43156 0 734 1.43156 1
gene 1 22 108 0.0382702 0 736 0.0382702 1
gene 1 22 109 -3.23225 0 737 -3.23225 1
gene 1 23 87 1.6478 0 749 1.6478 1
gene 1 23 89 -0.830836 0 751 -0.830836 1
gene 1 23 92 -0.0903195 0 754 -0.0903195 1
gene 1 23 93 -0.363414 0 755 -0.363414 1
gene 1 23 94 0.315958 0 756 0.315958 1
gene 1 23 99 0.936781 0 761 0.936781 1
gene 1 23 107 -1.22481 0 769 -1.22481 1
gene 1 23 116 -1.18316 0 778 -1.18316 1
gene 1 23 118 0.900983 0 780 0.900983 1
gene 1 24 86 1.51837 0 782 1.51837 1
gene 1 24 87 -0.362789 0 783 -0.362789 1
gene 1 24 89 -0.351741 0 785 -0.351741 1
gene 1 24 91 -1.18332 0 787 -1.18332 1
gene 1 24 98 1.06633 0 794 1.06633 1
gene 1 24 105 -0.532792 0 801 -0.532792 1
gene 1 24 113 0.313883 0 809 0.313883 1
gene 1 24 115 -2.24715 0 811 -2.24715 1
gene 1 24 116 -1.65041 0 812 -1.65041 1
gene 1 24 117 1.50333 0 813 1.50333 1
gene 1 25 90 0.01854 0 820 0.01854 1
gene 1 25 91 -0.946043 0 821 -0.946043 1
gene 1 25 92 -2.33451 0 822 -2.33451 1
gene 1 25 102 2.00322 0 832 2.00322 1
gene 1 25 108 4.42378 0 838 4.42378 1
gene 1 25 109 -0.187307 0 839 -0.187307 1
gene 1 25 111 1.03555 0 841 1.03555 1
gene 1 25 113 -0.799539 0 843 -0.799539 1
gene 1 26 91 -2.87451 0 855 -2.87451 1
gene 1 26 93 0.432478 0 857 0.432478 1
gene 1 26 95 -1.34101 0 859 -1.34101 1
gene 1 26 99 2.62378 0 863 2.62378 1
gene 1 26 106 1.53832 0 870 1.53832 1
gene 1 26 109 -1.6287 0 873 -1.6287 1
gene 1 26 110 -1.12833 0 874 -1.12833 1
gene 1 26 116 -2.46278 0 880 -2.46278 1
gene 1 27 86 -0.167714 0 884 -0.167714 1
gene 1 27 88 -0.581286 0 886 -0.581286 1
gene 1 27 90 3.5889 0 888 3.5889 1
gene 1 27 96 2.47101 0 894 2.47101 1
gene 1 27 99 -4.14508 0 897 -4.14508 1
gene 1 27 101 -0.191046 0 899 -0.191046 1
gene 1 27 102 -0.705847 0 900 -0.705847 1
gene 1 27 103 -1.90349 0 901 -1.90349 1
gene 1 27 104 1.97668 0 902 1.97668 1
gene 1 27 105 2.20655 0 903 2.20655 1
gene 1 27 108 0.866482 0 906 0.866482 1
gene 1 27 110 -0.213691 0 908 -0.213691 1
gene 1 27 113 -2.71628 0 911 -2.71628 1
gene 1 27 114 -1.31816 0 912 -1.31816 1
gene 1 27 118 0.0538804 0 916 0.0538804 1
gene 1 28 86 -1.14391 0 918 -1.14391 1
gene 1 28 88 -1.37967 0 920 -1.37967 1
gene 1 28 95 -1.03388 0 927 -1.03388 1
gene 1 28 101 0.0882748 0 933 0.0882748 1
gene 1 28 103 -1.83935 0 935 -1.83935 1
gene 1 28 104 -2.11875 0 936 -2.11875 1
gene 1 28 105 2.96811 0 937 2.96811 1
gene 1 28 106 5.28022 0 938 5.28022 1
gene 1 28 109 -2.26455 0 941 -2.26455 1
gene 1 28 111 0.160756 0 943 0.160756 1
gene 1 28 115 1.35737 0 947 1.35737 1
gene 1 29 88 0.79899 0 954 0.79899 1
gene 1 29 89 0.218238 0 955 0.218238 1
gene 1 29 98 0.18685 0 964 0.18685 1
gene 1 29 100 2.05267 0 966 2.05267 1
gene 1 29 105 2.41633 0 971 2.41633 1
gene 1 29 114 1.7636 0 980 1.7636 1
gene 1 29 115 -2.1312 0 981 -2.1312 1
gene 1 30 89 -0.72103 0 989 -0.72103 1
gene 1 30 92 0.313883 0 992 0.313883 1
gene 1 30 103 0.356594 0 1003 0.356594 1
gene 1 30 106 2.25561 0 1006 2.25561 1
gene 1 30 117 0.398083 0 1017 0.398083 1
gene 1 31 96 4.2734 0 1030 4.2734 1
gene 1 31 97 1.34895 0 1031 1.34895 1
gene 1 31 100 -0.253548 0 1034 -0.253548 1
gene 1 31 102 -1.46387 0 1036 -1.46387 1
gene 1 31 105 0.92761 0 1039 0.92761 1
gene 1 31 110 -1.18801 0 1044 -1.18801 1
gene 1 31 111 1.02931 0 1045 1.02931 1
gene 1 31 115 -2.16137 0 1049 -2.16137 1
gene 1 31 119 0.237053 0 1053 0.237053 1
gene 1 32 86 0.464019 0 1054 0.464019 1
gene 1 32 93 0.260704 0 1061 0.260704 1
gene 1 32 95 -2.36108 0 1063 -2.36108 1
gene 1 32 97 2.64095 0 1065 2.64095 1
gene 1 32 100 -2.00041 0 1068 -2.00041 1
gene 1 32 104 -2.02971 0 1072 -2.02971 1
gene 1 32 108 -1.77366 0 1076 -1.77366 1
gene 1 32 109 1.02405 0 1077 1.02405 1
gene 1 32 110 2.48177 0 1078 2.48177 1
gene 1 32 112 -1.40049 0 1080 -1.40049 1
gene 1 32 113 1.53356 0 1081 1.53356 1
gene 1 32 118 -0.683691 0 1086 -0.683691 1
gene 1 33 87 1.59444 0 1089 1.59444 1
gene 1 33 88 -1.26547 0 1090 -1.26547 1
gene 1 33 90 -0.126301 0 1092 -0.126301 1
gene 1 33 93 0.889538 0 1095 0.889538 1
gene 1 33 99 -1.58112 0 1101 -1.58112 1
gene 1 33 100 2.15546 0 1102 2.15546 1
gene 1 33 105 0.56241 0 1107 0.56241 1
gene 1 33 107 -0.535661 0 1109 -0.535661 1
gene 1 33 110 0.757332 0 1112 0.757332 1
gene 1 33 117 -1.18369 0 1119 -1.18369 1
gene 1 33 119 -1.75504 0 1121 -1.75504 1
gene 1 34 97 -1.89909 0 1133 -1.89909 1
gene 1 34 99 1.25556 0 1135 1.25556 1
gene 1 34 109 -0.204505 0 1145 -0.204505 1
gene 1 34 111 -0.883236 0 1147 -0.883236 1
gene 1 34 112 0.773385 0 1148 0.773385 1
gene 1 34 115 -0.00128178 0 1151 -0.00128178 1
gene 1 35 86 -1.15491 0 1156 -1.15491 1
gene 1 35 91 -2.21099 0 1161 -2.21099 1
gene 1 35 100 -0.739311 0 1170 -0.739311 1
gene 1 35 105 1.34634 0 1175 1.34634 1
gene 1 35 110 1.29861 0 1180 1.29861 1
gene 1 36 87 -0.198294 0 1191 -0.198294 1
gene 1 36 88 -0.337794 0 1192 -0.337794 1
gene 1 36 98 2.68517 0 1202 2.68517 1
gene 1 36 99 0.749382 0 1203 0.749382 1
gene 1 36 101 2.56807 0 1205 2.56807 1
gene 1 36 105 3.22967 0 1209 3.22967 1
gene 1 36 108 1.88499 0 1212 1.88499 1
gene 1 36 110 -0.651051 0 1214 -0.651051 1
gene 1 36 111 0.489746 0 1215 0.489746 1
gene 1 36 113 -1.39767 0 1217 -1.39767 1
gene 1 37 86 1.98241 0 1224 1.98241 1
gene 1 37 88 -1.41823 0 1226 -1.41823 1
gene 1 37 91 -1.63228 0 1229 -1.63228 1
gene 1 37 92 -0.488372 0 1230 -0.488372 1
gene 1 37 105 -0.694449 0 1243 -0.694449 1
gene 1 37 108 0.782205 0 1246 0.782205 1
gene 1 37 110 -1.23127 0 1248 -1.23127 1
gene 1 37 113 -0.334544 0 1251 -0.334544 1
gene 1 37 116 0.204932 0 1254 0.204932 1
gene 1 37 118 -0.640355 0 1256 -0.640355 1
gene 1 37 119 1.78733 0 1257 1.78733 1
gene 1 38 86 1.15517 0 1258 1.15517 1
gene 1 38 87 0.0860622 0 1259 0.0860622 1
gene 1 38 88 -1.82142 0 1260 -1.82142 1
gene 1 38 92 1.91076 0 1264 1.91076 1
gene 1 38 100 -1.78289 0 1272 -1.78289 1
gene 1 38 106 1.33172 0 1278 1.33172 1
gene 1 38 112 -0.0716269 0 1284 -0.0716269 1
gene 1 38 113 1.03458 0 1285 1.03458 1
gene 1 38 119 3.73211 0 1291 3.73211 1
gene 1 39 88 -1.21 0 1294 -1.21 1
gene 1 39 91 2.40791 0 1297 2.40791 1
gene 1 39 104 2.66346 0 1310 2.66346 1
gene 1 39 106 0.441801 0 1312 0.441801 1
gene 1 39 107 -0.27749 0 1313 -0.27749 1
gene 1 39 112 2.33517 0 1318 2.33517 1
gene 1 39 116 -1.59442 0 1322 -1.59442 1
gene 1 40 88 1.46353 0 1328 1.46353 1
gene 1 40 90 0.239265 0 1330 0.239265 1
gene 1 40 92 -2.50984 0 1332 -2.50984 1
gene 1 40 95 4.22895 0 1335 4.22895 1
gene 1 40 98 -1.23154 0 1338 -1.23154 1
gene 1 40 99 0.193594 0 1339 0.193594 1
gene 1 40 108 -1.41668 0 1348 -1.41668 1
gene 1 40 109 2.54476 0 1349 2.54476 1
gene 1 40 110 1.13535 0 1350 1.13535 1
gene 1 40 112 -3.61919 0 1352 -3.61919 1
gene 1 40 114 2.05838 0 1354 2.05838 1
gene 1 40 117 -1.89918 0 1357 -1.89918 1
gene 1 40 119 -1.70853 0 1359 -1.70853 1
gene 1 41 89 -2.13561 0 1363 -2.13561 1
gene 1 41 93 0.629749 0 1367 0.629749 1
gene 1 41 100 -0.17513 0 1374 -0.17513 1
gene 1 41 105 -2.3775 0 1379 -2.3775 1
gene 1 41 111 1.99316 0 1385 1.99316 1
gene 1 41 117 0.647923 0 1391 0.647923 1
gene 1 41 119 -0.0988037 0 1393 -0.0988037 1
gene 1 42 89 -2.27622 0 1397 -2.27622 1
gene 1 42 94 1.0246 0 1402 1.0246 1
gene 1 42 97 1.80056 0 1405 1.80056 1
gene 1 42 98 2.19443 0 1406 2.19443 1
gene 1 42 101 -2.11966 0 1409 -2.11966 1
gene 1 42 102 1.27262 0 1410 1.27262 1
gene 1 42 105 3.06677 0 1413 3.06677 1
gene 1 42 106 1.79884 0 1414 1.79884 1
gene 1 42 107 2.18204 0 1415 2.18204 1
gene 1 42 108 -2.91017 0 1416 -2.91017 1
gene 1 42 110 2.83821 0 1418 2.83821 1
gene 1 42 111 -0.223472 0 1419 -0.223472 1
gene 1 42 112 -1.28126 0 1420 -1.28126 1
gene 1 42 113 0.781213 0 1421 0.781213 1
gene 1 43 86 2.0096 0 1428 2.0096 1
gene 1 43 87 -2.34535 0 1429 -2.34535 1
gene 1 43 88 0.262764 0 1430 0.262764 1
gene 1 43 100 -0.56917 0 1442 -0.56917 1
gene 1 43 101 -2.35644 0 1443 -2.35644 1
gene 1 43 104 0.296258 0 1446 0.296258 1
gene 1 43 110 -0.0658132 0 1452 -0.0658132 1
gene 1 43 114 -0.10857 0 1456 -0.10857 1
gene 1 44 86 -0.343028 0 1462 -0.343028 1
gene 1 44 89 2.00224 0 1465 2.00224 1
gene 1 44 90 -1.15879 0 1466 -1.15879 1
gene 1 44 94 2.16521 0 1470 2.16521 1
gene 1 44 98 -0.893063 0 1474 -0.893063 1
gene 1 44 99 -0.0122532 0 1475 -0.0122532 1
gene 1 44 102 -1.35759 0 1478 -1.35759 1
gene 1 44 103 -3.36045 0 1479 -3.36045 1
gene 1 44 104 3.54762 0 1480 3.54762 1
gene 1 44 106 1.57369 0 1482 1.57369 1
gene 1 44 111 -2.05403 0 1487 -2.05403 1
gene 1 44 113 -0.771035 0 1489 -0.771035 1
gene 1 44 115 1.27805 0 1491 1.27805 1
gene 1 44 117 1.44215 0 1493 1.44215 1
gene 1 45 90 0.449385 0 1500 0.449385 1
gene 1 45 99 -0.524079 0 1509 -0.524079 1
gene 1 45 100 0.269112 0 1510 0.269112 1
gene 1 46 88 1.89277 0 1532 1.89277 1
gene 1 46 89 5.18351 0 1533 5.18351 1
gene 1 46 91 -1.0528 0 1535 -1.0528 1
gene 1 46 92 -0.723731 0 1536 -0.723731 1
gene 1 46 96 0.804422 0 1540 0.804422 1
gene 1 46 99 0.726798 0 1543 0.726798 1
gene 1 46 109 1.70466 0 1553 1.70466 1
gene 1 46 110 2.10196 0 1554 2.10196 1
gene 1 46 113 -1.69616 0 1557 -1.69616 1
gene 1 46 116 1.4281 0 1560 1.4281 1
gene 1 47 86 -1.53088 0 1564 -1.53088 1
gene 1 47 90 -0.395825 0 1568 -0.395825 1
gene 1 47 92 -0.620716 0 1570 -0.620716 1
gene 1 47 95 0.282983 0 1573 0.282983 1
gene 1 47 98 -0.347316 0 1576 -0.347316 1
gene 1 47 101 1.11898 0 1579 1.11898 1
gene 1 47 102 0.752586 0 1580 0.752586 1
gene 1 47 109 -1.2859 0 1587 -1.2859 1
gene 1 47 113 1.86407 0 1591 1.86407 1
gene 1 48 87 -0.441649 0 1599 -0.441649 1
gene 1 48 92 -0.757393 0 1604 -0.757393 1
gene 1 48 93 1.42062 0 1605 1.42062 1
gene 1 48 95 -1.12023 0 1607 -1.12023 1
gene 1 48 96 -1.93228 0 1608 -1.93228 1
gene 1 48 101 -1.54376 0 1613 -1.54376 1
gene 1 48 102 2.21839 0 1614 2.21839 1
gene 1 48 105 0.971557 0 1617 0.971557 1
gene 1 48 106 -1.45161 0 1618 -1.45161 1
gene 1 48 109 -0.181433 0 1621 -0.181433 1
gene 1 48 113 -2.44476 0 1625 -2.44476 1
gene 1 48 115 0.898007 0 1627 0.898007 1
gene 1 48 119 0.616993 0 1631 0.616993 1
gene 1 49 87 1.75759 0 1633 1.75759 1
gene 1 49 92 0.435347 0 1638 0.435347 1
gene 1 49 99 2.00064 0 1645 2.00064 1
gene 1 49 100 -2.4559 0 1646 -2.4559 1
gene 1 49 101 0.828974 0 1647 0.828974 1
gene 1 49 104 1.13819 0 1650 1.13819 1
gene 1 49 106 -2.26273 0 1652 -2.26273 1
gene 1 49 107 1.67299 0 1653 1.67299 1
gene 1 49 112 0.023484 0 1658 0.023484 1
gene 1 49 116 2.19489 0 1662 2.19489 1
gene 1 50 88 -0.194601 0 1668 -0.194601 1
gene 1 50 90 0.338603 0 1670 0.338603 1
gene 1 50 94 2.12772 0 1674 2.12772 1
gene 1 50 95 1.56278 0 1675 1.56278 1
gene 1 50 96 1.47815 0 1676 1.47815 1
gene 1 50 103 0.94998 0 1683 0.94998 1
gene 1 50 114 -3.50446 0 1694 -3.50446 1
gene 1 50 115 4.13927 0 1695 4.13927 1
gene 1 51 90 2.12065 0 1704 2.12065 1
gene 1 51 106 2.47255 0 1720 2.47255 1
gene 1 51 108 -0.531602 0 1722 -0.531602 1
gene 1 52 88 3.55943 0 1736 3.55943 1
gene 1 52 93 -0.153249 0 1741 -0.153249 1
gene 1 52 98 0.545015 0 1746 0.545015 1
gene 1 52 99 -1.70397 0 1747 -1.70397 1
gene 1 52 104 0.192724 0 1752 0.192724 1
gene 1 52 107 -3.21149 0 1755 -3.21149 1
gene 1 52 113 2.51297 0 1761 2.51297 1
gene 1 52 119 0.976867 0 1767 0.976867 1
gene 1 53 90 1.68642 0 1772 1.68642 1
gene 1 53 98 1.68986 0 1780 1.68986 1
gene 1 53 107 -1.59368 0 1789 -1.59368 1
gene 1 53 111 -0.518433 0 1793 -0.518433 1
gene 1 53 112 -2.393 0 1794 -2.393 1
gene 1 53 114 -0.904248 0 1796 -0.904248 1
gene 1 53 115 -0.931639 0 1797 -0.931639 1
gene 1 53 119 0.827479 0 1801 0.827479 1
gene 1 54 89 0.402875 0 1805 0.402875 1
gene 1 54 91 -2.24113 0 1807 -2.24113 1
gene 1 54 93 0.161275 0 1809 0.161275 1
gene 1 54 95 1.52669 0 1811 1.52669 1
gene 1 54 105 -0.229652 0 1821 -0.229652 1
gene 1 54 106 1.9705 0 1822 1.9705 1
gene 1 54 110 -0.735588 0 1826 -0.735588 1
gene 1 55 86 1.35873 0 1836 1.35873 1
gene 1 55 92 -2.21068 0 1842 -2.21068 1
gene 1 55 95 2.71476 0 1845 2.71476 1
gene 1 55 97 -0.768609 0 1847 -0.768609 1
gene 1 55 112 -1.03839 0 1862 -1.03839 1
gene 1 55 113 -3.06748 0 1863 -3.06748 1
gene 1 55 114 -2.1149 0 1864 -2.1149 1
gene 1 55 119 1.36868 0 1869 1.36868 1
gene 1 56 88 0.909009 0 1872 0.909009 1
gene 1 56 96 -3.41182 0 1880 -3.41182 1
gene 1 56 108 1.75626 0 1892 1.75626 1
gene 1 56 111 -0.0206 0 1895 -0.0206 1
gene 1 56 118 -0.806513 0 1902 -0.806513 1
gene 1 57 108 -1.17356 0 1926 -1.17356 1
gene 1 57 112 -0.547502 0 1930 -0.547502 1
gene 1 57 114 1.81921 0 1932 1.81921 1
gene 1 57 115 1.56935 0 1933 1.56935 1
gene 1 58 88 2.92933 0 1940 2.92933 1
gene 1 58 91 1.3126 0 1943 1.3126 1
gene 1 58 92 -0.0684378 0 1944 -0.0684378 1
gene 1 58 93 2.02635 0 1945 2.02635 1
gene 1 58 94 -1.01419 0 1946 -1.01419 1
gene 1 58 95 0.434858 0 1947 0.434858 1
gene 1 58 96 1.35356 0 1948 1.35356 1
gene 1 58 97 0.262352 0 1949 0.262352 1
gene 1 58 101 -0.183767 0 1953 -0.183767 1
gene 1 58 103 -2.00514 0 1955 -2.00514 1
gene 1 58 104 -1.61657 0 1956 -1.61657 1
gene 1 58 116 -2.69677 0 1968 -2.69677 1
gene 1 59 87 -3.11425 0 1973 -3.11425 1
gene 1 59 88 -1.78327 0 1974 -1.78327 1
gene 1 59 90 0.350826 0 1976 0.350826 1
gene 1 59 91 3.35223 0 1977 3.35223 1
gene 1 59 96 3.16843 0 1982 3.16843 1
gene 1 59 97 0.787835 0 1983 0.787835 1
gene 1 59 102 -0.416639 0 1988 -0.416639 1
gene 1 59 104 0.315271 0 1990 0.315271 1
gene 1 59 110 -2.44377 0 1996 -2.44377 1
gene 1 59 111 2.23034 0 1997 2.23034 1
gene 1 59 114 0.173009 0 2000 0.173009 1
gene 1 59 115 -0.941343 0 2001 -0.941343 1
gene 1 59 116 2.04125 0 2002 2.04125 1
gene 1 59 119 -1.27674 0 2005 -1.27674 1
gene 1 60 86 -0.206122 0 2006 -0.206122 1
gene 1 60 87 -1.99286 0 2007 -1.99286 1
gene 1 60 91 1.84579 0 2011 1.84579 1
gene 1 60 92 -0.184332 0 2012 -0.184332 1
gene 1 60 94 -1.21726 0 2014 -1.21726 1
gene 1 60 98 -1.42508 0 2018 -1.42508 1
gene 1 60 99 -0.376415 0 2019 -0.376415 1
gene 1 60 101 -0.199591 0 2021 -0.199591 1
gene 1 60 103 -1.32626 0 2023 -1.32626 1
gene 1 60 113 2.07381 0 2033 2.07381 1
gene 1 60 115 0.273522 0 2035 0.273522 1
gene 1 61 86 1.06079 0 2040 1.06079 1
gene 1 61 88 0.342357 0 2042 0.342357 1
gene 1 61 91 -0.343333 0 2045 -0.343333 1
gene 1 61 92 -2.29179 0 2046 -2.29179 1
gene 1 61 97 -0.732444 0 2051 -0.732444 1
gene 1 61 101 2.37469 0 2055 2.37469 1
gene 1 61 102 -4.06207 0 2056 -4.06207 1
gene 1 61 106 -1.61443 0 2060 -1.61443 1
gene 1 61 108 2.74046 0 2062 2.74046 1
gene 1 61 110 3.01431 0 2064 3.01431 1
gene 1 61 111 1.39616 0 2065 1.39616 1
gene 1 61 115 -1.48947 0 2069 -1.48947 1
gene 1 62 90 -1.80769 0 2078 -1.80769 1
gene 1 62 95 -2.39969 0 2083 -2.39969 1
gene 1 62 97 3.03169 0 2085 3.03169 1
gene 1 62 99 -0.810877 0 2087 -0.810877 1
gene 1 62 101 1.77671 0 2089 1.77671 1
gene 1 62 103 -1.68661 0 2091 -1.68661 1
gene 1 62 104 -1.54691 0 2092 -1.54691 1
gene 1 62 115 -0.840999 0 2103 -0.840999 1
gene 1 62 116 -0.628529 0 2104 -0.628529 1
gene 1 63 94 1.69436 0 2116 1.69436 1
gene 1 63 96 0.124592 0 2118 0.124592 1
gene 1 63 108 -1.32458 0 2130 -1.32458 1
gene 1 63 110 1.0182 0 2132 1.0182 1
gene 1 63 111 -2.33634 0 2133 -2.33634 1
gene 1 63 112 1.49052 0 2134 1.49052 1
gene 1 64 88 0.352367 0 2144 0.352367 1
gene 1 64 91 -1.08712 0 2147 -1.08712 1
gene 1 64 94 1.95914 0 2150 1.95914 1
gene 1 64 98 -2.3233 0 2154 -2.3233 1
gene 1 64 101 -1.69912 0 2157 -1.69912 1
gene 1 64 104 -0.873226 0 2160 -0.873226 1
gene 1 64 105 0.727103 0 2161 0.727103 1
gene 1 64 109 -1.98128 0 2165 -1.98128 1
gene 1 64 112 2.02161 0 2168 2.02161 1
gene 1 64 115 1.15363 0 2171 1.15363 1
gene 1 64 118 -0.051088 0 2174 -0.051088 1
gene 1 65 88 -0.025483 0 2178 -0.025483 1
gene 1 65 95 -2.09645 0 2185 -2.09645 1
gene 1 65 100 -1.75437 0 2190 -1.75437 1
gene 1 65 111 -0.10126 0 2201 -0.10126 1
gene 1 65 113 1.9321 0 2203 1.9321 1
gene 1 65 117 1.85328 0 2207 1.85328 1
gene 1 66 88 0.350475 0 2212 0.350475 1
gene 1 66 89 4.33726 0 2213 4.33726 1
gene 1 66 91 -0.226524 0 2215 -0.226524 1
gene 1 66 98 0.0809961 0 2222 0.0809961 1
gene 1 66 100 0.873455 0 2224 0.873455 1
gene 1 66 108 2.83044 0 2232 2.83044 1
gene 1 66 111 -1.47794 0 2235 -1.47794 1
gene 1 66 112 -0.86523 0 2236 -0.86523 1
gene 1 66 115 -0.95584 0 2239 -0.95584 1
gene 1 66 117 2.26722 0 2241 2.26722 1
gene 1 66 118 3.16645 0 2242 3.16645 1
gene 1 67 86 1.22895 0 2244 1.22895 1
gene 1 67 103 -1.22204 0 2261 -1.22204 1
gene 1 67 106 0.649998 0 2264 0.649998 1
gene 1 67 109 -2.1234 0 2267 -2.1234 1
gene 1 67 112 2.70428 0 2270 2.70428 1
gene 1 67 116 1.43832 0 2274 1.43832 1
gene 1 67 119 1.01961 0 2277 1.01961 1
gene 1 68 87 -1.30256 0 2279 -1.30256 1
gene 1 68 91 -0.0898923 0 2283 -0.0898923 1
gene 1 68 93 -0.609302 0 2285 -0.609302 1
gene 1 68 105 3.60541 0 2297 3.60541 1
gene 1 68 110 -2.91122 0 2302 -2.91122 1
gene 1 68 112 -0.529405 0 2304 -0.529405 1
gene 1 69 88 -0.112598 0 2314 -0.112598 1
gene 1 69 89 0.295343 0 2315 0.295343 1
gene 1 69 91 -2.33505 0 2317 -2.33505 1
gene 1 69 94 -0.63068 0 2320 -0.63068 1
gene 1 69 96 -1.31045 0 2322 -1.31045 1
gene 1 69 97 -0.425062 0 2323 -0.425062 1
gene 1 69 98 1.60527 0 2324 1.60527 1
gene 1 69 104 1.55072 0 2330 1.55072 1
gene 1 69 108 0.172124 0 2334 0.172124 1
gene 1 69 113 1.18717 0 2339 1.18717 1
gene 1 69 115 0.147649 0 2341 0.147649 1
gene 1 70 88 1.54135 0 2348 1.54135 1
gene 1 70 89 -2.07367 0 2349 -2.07367 1
gene 1 70 93 -0.469375 0 2353 -0.469375 1
gene 1 70 95 1.19976 0 2355 1.19976 1
gene 1 70 96 1.79693 0 2356 1.79693 1
gene 1 70 98 -0.682104 0 2358 -0.682104 1
gene 1 70 109 -1.8489 0 2369 -1.8489 1
gene 1 70 114 0.742637 0 2374 0.742637 1
gene 1 70 115 1.59009 0 2375 1.59009 1
gene 1 70 119 -1.17818 0 2379 -1.17818 1
gene 1 71 86 -1.0757 0 2380 -1.0757 1
gene 1 71 87 1.71493 0 2381 1.71493 1
gene 1 71 88 0.228385 0 2382 0.228385 1
gene 1 71 91 0.804773 0 2385 0.804773 1
gene 1 71 97 -1.82379 0 2391 -1.82379 1
gene 1 71 98 1.31449 0 2392 1.31449 1
gene 1 71 100 -1.874 0 2394 -1.874 1
gene 1 71 106 -2.30621 0 2400 -2.30621 1
gene 1 71 108 0.926542 0 2402 0.926542 1
gene 1 71 110 1.51518 0 2404 1.51518 1
gene 1 71 111 1.807 0 2405 1.807 1
gene 1 71 112 0.478164 0 2406 0.478164 1
gene 1 72 86 -1.44946 0 2414 -1.44946 1
gene 1 72 94 1.85752 0 2422 1.85752 1
gene 1 72 97 -1.02205 0 2425 -1.02205 1
gene 1 72 101 1.21766 0 2429 1.21766 1
gene 1 72 105 -2.1897 0 2433 -2.1897 1
gene 1 72 107 1.52258 0 2435 1.52258 1
gene 1 72 112 4.0439 0 2440 4.0439 1
gene 1 72 114 0.171361 0 2442 0.171361 1
gene 1 73 95 -1.38276 0 2457 -1.38276 1
gene 1 73 97 -0.665899 0 2459 -0.665899 1
gene 1 73 100 0.766533 0 2462 0.766533 1
gene 1 73 111 -2.27187 0 2473 -2.27187 1
gene 1 73 113 -0.943632 0 2475 -0.943632 1
gene 1 73 115 2.78233 0 2477 2.78233 1
gene 1 73 116 2.75269 0 2478 2.75269 1
gene 1 73 117 0.923414 0 2479 0.923414 1
gene 1 74 89 0.443129 0 2485 0.443129 1
gene 1 74 95 -2.89598 0 2491 -2.89598 1
gene 1 74 100 -2.2544 0 2496 -2.2544 1
gene 1 74 101 -1.53735 0 2497 -1.53735 1
gene 1 74 107 -0.0673696 0 2503 -0.0673696 1
gene 1 74 111 2.37983 0 2507 2.37983 1
gene 1 74 116 -2.32673 0 2512 -2.32673 1
gene 1 75 91 -0.0975677 0 2521 -0.0975677 1
gene 1 75 95 1.31021 0 2525 1.31021 1
gene 1 75 100 -1.70331 0 2530 -1.70331 1
gene 1 75 103 -2.16672 0 2533 -2.16672 1
gene 1 75 107 -2.47389 0 2537 -2.47389 1
gene 1 75 108 0.74453 0 2538 0.74453 1
gene 1 75 111 0.397824 0 2541 0.397824 1
gene 1 75 114 0.170858 0 2544 0.170858 1
gene 1 75 117 -4.42303 0 2547 -4.42303 1
gene 1 76 86 -1.48918 0 2550 -1.48918 1
gene 1 76 87 -2.07137 0 2551 -2.07137 1
gene 1 76 94 0.577258 0 2558 0.577258 1
gene 1 76 99 0.597552 0 2563 0.597552 1
gene 1 76 104 2.0249 0 2568 2.0249 1
gene 1 76 106 4.48512 0 2570 4.48512 1
gene 1 76 112 2.01579 0 2576 2.01579 1
gene 1 76 118 1.93815 0 2582 1.93815 1
gene 1 77 87 -1.668 0 2585 -1.668 1
gene 1 77 90 1.81771 0 2588 1.81771 1
gene 1 77 93 2.12954 0 2591 2.12954 1
gene 1 77 95 -1.83538 0 2593 -1.83538 1
gene 1 77 100 -1.09359 0 2598 -1.09359 1
gene 1 77 102 2.08907 0 2600 2.08907 1
gene 1 77 104 -1.20476 0 2602 -1.20476 1
gene 1 77 107 1.96303 0 2605 1.96303 1
gene 1 77 111 -1.4919 0 2609 -1.4919 1
gene 1 77 114 0.151067 0 2612 0.151067 1
gene 1 78 89 0.300714 0 2621 0.300714 1
gene 1 78 92 0.0854213 0 2624 0.0854213 1
gene 1 78 94 1.00749 0 2626 1.00749 1
gene 1 78 99 1.22948 0 2631 1.22948 1
gene 1 78 102 -1.00378 0 2634 -1.00378 1
gene 1 78 103 -2.101 0 2635 -2.101 1
gene 1 78 104 1.75153 0 2636 1.75153 1
gene 1 78 105 1.00696 0 2637 1.00696 1
gene 1 78 106 -1.72794 0 2638 -1.72794 1
gene 1 78 110 1.2622 0 2642 1.2622 1
gene 1 79 89 -0.970244 0 2655 -0.970244 1
gene 1 79 94 -0.465773 0 2660 -0.465773 1
gene 1 79 95 1.05597 0 2661 1.05597 1
gene 1 79 102 1.31382 0 2668 1.31382 1
gene 1 79 105 0.0405591 0 2671 0.0405591 1
gene 1 79 111 0.475509 0 2677 0.475509 1
gene 1 79 115 0.165944 0 2681 0.165944 1
gene 1 79 117 -1.82424 0 2683 -1.82424 1
gene 1 79 118 -0.962951 0 2684 -0.962951 1
gene 1 79 119 0.319529 0 2685 0.319529 1
gene 1 80 88 -0.572192 0 2688 -0.572192 1
gene 1 80 93 -1.62656 0 2693 -1.62656 1
gene 1 80 95 2.03914 0 2695 2.03914 1
gene 1 80 108 -0.17008 0 2708 -0.17008 1
gene 1 80 109 1.34558 0 2709 1.34558 1
gene 1 80 115 0.772301 0 2715 0.772301 1
gene 1 80 119 -1.83285 0 2719 -1.83285 1
gene 1 81 88 1.94325 0 2722 1.94325 1
gene 1 81 89 0.786538 0 2723 0.786538 1
gene 1 81 92 -1.13071 0 2726 -1.13071 1
gene 1 81 100 2.13961 0 2734 2.13961 1
gene 1 81 102 1.93953 0 2736 1.93953 1
gene 1 81 108 0.891507 0 2742 0.891507 1
gene 1 81 114 0.24308 0 2748 0.24308 1
gene 1 82 86 0.466704 0 2754 0.466704 1
gene 1 82 87 0.260537 0 2755 0.260537 1
gene 1 82 91 0.645604 0 2759 0.645604 1
gene 1 82 94 -0.667684 0 2762 -0.667684 1
gene 1 82 97 -0.232719 0 2765 -0.232719 1
gene 1 82 98 -0.637089 0 2766 -0.637089 1
gene 1 82 107 -1.93747 0 2775 -1.93747 1
gene 1 82 108 2.17473 0 2776 2.17473 1
gene 1 82 111 0.204154 0 2779 0.204154 1
gene 1 82 116 2.77458 0 2784 2.77458 1
gene 1 83 87 1.52728 0 2789 1.52728 1
gene 1 83 93 -0.229804 0 2795 -0.229804 1
gene 1 83 111 -0.106357 0 2813 -0.106357 1
gene 1 83 113 -1.88238 0 2815 -1.88238 1
gene 1 84 88 1.19526 0 2824 1.19526 1
gene 1 84 92 -0.51735 0 2828 -0.51735 1
gene 1 84 94 -1.50589 0 2830 -1.50589 1
gene 1 84 102 1.36132 0 2838 1.36132 1
gene 1 84 104 -0.559099 0 2840 -0.559099 1
gene 1 84 106 1.02016 0 2842 1.02016 1
gene 1 84 109 -2.34637 0 2845 -2.34637 1
gene 1 85 86 1.64888 0 2856 1.64888 1
gene 1 85 87 0.152501 0 2857 0.152501 1
gene 1 85 90 -2.66562 0 2860 -2.66562 1
gene 1 85 96 -2.04952 0 2866 -2.04952 1
gene 1 85 100 -0.327998 0 2870 -0.327998 1
gene 1 85 105 -0.594806 0 2875 -0.594806 1
gene 1 85 112 -0.566439 0 2882 -0.566439 1
gene 1 85 114 -2.02274 0 2884 -2.02274 1
gene 1 85 115 2.27616 0 2885 2.27616 1
gene 1 36 106 -3.34481 0 2888 -3.34481 1
genomeend 2

/* Organism #3 Fitness: 20 Error: 0 */
genomestart 3
trait 1 0.1 0 0 0.162832 0 0 0 0.272362 
node 1 1 1 3
node 2 1 1 1
node 3 1 1 1
node 4 1 1 1
node 5 1 1 1
node 6 1 1 1
node 7 1 1 1
node 8 1 1 1
