genomestart 1
trait 1 0.1 0 0 0 0 0 0 0
node 1 0 1 3
node 2 0 1 1
node 3 0 1 1
node 4 0 1 1
node 5 0 1 1
node 6 0 1 1
node 7 0 1 1
node 8 0 1 1
node 9 0 1 1
node 10 0 1 1
node 11 0 1 1
node 12 0 1 1
node 13 0 1 1
node 14 0 1 1
node 15 0 1 1
node 16 0 1 1
node 17 0 1 1
node 18 0 1 1
node 19 0 1 1
node 20 0 1 1
node 21 0 1 1
node 22 0 1 1
node 23 0 1 1
node 24 0 1 1
node 25 0 1 1
node 26 0 1 1
node 27 0 1 1
node 28 0 1 1
node 29 0 1 1
node 30 0 1 1
node 31 0 1 1
node 32 0 1 1
node 33 0 1 1
node 34 0 1 1
node 35 0 1 1
node 36 0 1 1
node 37 0 1 1
node 38 0 1 1
node 39 0 1 1
node 40 0 1 1
node 41 0 1 1
node 42 0 1 1
node 43 0 1 1
node 44 0 1 1
node 45 0 1 1
node 46 0 1 1
node 47 0 1 1
node 48 0 1 1
node 49 0 1 1
node 50 0 1 1
node 51 0 1 1
node 52 0 1 1
node 53 0 1 1
node 54 0 1 1
node 55 0 1 1
node 56 0 1 1
node 57 0 1 1
node 58 0 1 1
node 59 0 1 1
node 60 0 1 1
node 61 0 1 1
node 62 0 1 1
node 63 0 1 1
node 64 0 1 1
node 65 0 1 1
node 66 0 1 1
node 67 0 1 1
node 68 0 1 1
node 69 0 1 1
node 70 0 1 1
node 71 0 1 1
node 72 0 1 1
node 73 0 1 1
node 74 0 1 1
node 75 0 1 1
node 76 0 1 1
node 77 0 1 1
node 78 0 1 1
node 79 0 1 1
node 80 0 1 1
node 81 0 1 1
node 82 0 1 1
node 83 0 1 1
node 84 0 1 1
node 85 0 1 1
node 86 0 0 2
node 87 0 0 2
node 88 0 0 2
node 89 0 0 2
node 90 0 0 2
node 91 0 0 2
node 92 0 0 2
node 93 0 0 2
node 94 0 0 2
node 95 0 0 2
node 96 0 0 2
node 97 0 0 2
node 98 0 0 2
node 99 0 0 2
node 100 0 0 2
node 101 0 0 2
node 102 0 0 2
node 103 0 0 2
node 104 0 0 2
node 105 0 0 2
node 106 0 0 2
node 107 0 0 2
node 108 0 0 2
node 109 0 0 2
node 110 0 0 2
node 111 0 0 2
node 112 0 0 2
node 113 0 0 2
node 114 0 0 2
node 115 0 0 2
node 116 0 0 2
node 117 0 0 2
node 118 0 0 2
node 119 0 0 2
gene 1 1 86 0.0 0 0 0 1
gene 1 1 90 0.0 0 4 0 1
gene 1 1 91 0.0 0 5 0 1
gene 1 1 94 0.0 0 8 0 1
gene 1 1 99 0.0 0 13 0 1
gene 1 1 102 0.0 0 16 0 1
gene 1 1 106 0.0 0 20 0 1
gene 1 1 109 0.0 0 23 0 1
gene 1 1 114 0.0 0 28 0 1
gene 1 1 115 0.0 0 29 0 1
gene 1 1 118 0.0 0 32 0 1
gene 1 1 119 0.0 0 33 0 1
gene 1 2 87 0.0 0 35 0 1
gene 1 2 93 0.0 0 41 0 1
gene 1 2 99 0.0 0 47 0 1
gene 1 2 103 0.0 0 51 0 1
gene 1 2 105 0.0 0 53 0 1
gene 1 2 108 0.0 0 56 0 1
gene 1 2 109 0.0 0 57 0 1
gene 1 2 110 0.0 0 58 0 1
gene 1 2 114 0.0 0 62 0 1
gene 1 3 88 0.0 0 70 0 1
gene 1 3 89 0.0 0 71 0 1
gene 1 3 101 0.0 0 83 0 1
gene 1 3 107 0.0 0 89 0 1
gene 1 3 109 0.0 0 91 0 1
gene 1 3 111 0.0 0 93 0 1
gene 1 3 114 0.0 0 96 0 1
gene 1 3 119 0.0 0 101 0 1
gene 1 4 90 0.0 0 106 0 1
gene 1 4 93 0.0 0 109 0 1
gene 1 4 98 0.0 0 114 0 1
gene 1 4 100 0.0 0 116 0 1
gene 1 4 102 0.0 0 118 0 1
gene 1 4 104 0.0 0 120 0 1
gene 1 4 106 0.0 0 122 0 1
gene 1 4 109 0.0 0 125 0 1
gene 1 4 110 0.0 0 126 0 1
gene 1 4 112 0.0 0 128 0 1
gene 1 4 113 0.0 0 129 0 1
gene 1 4 117 0.0 0 133 0 1
gene 1 5 91 0.0 0 141 0 1
gene 1 5 92 0.0 0 142 0 1
gene 1 5 98 0.0 0 148 0 1
gene 1 5 100 0.0 0 150 0 1
gene 1 5 102 0.0 0 152 0 1
gene 1 5 109 0.0 0 159 0 1
gene 1 5 114 0.0 0 164 0 1
gene 1 5 119 0.0 0 169 0 1
gene 1 6 87 0.0 0 171 0 1
gene 1 6 88 0.0 0 172 0 1
gene 1 6 90 0.0 0 174 0 1
gene 1 6 93 0.0 0 177 0 1
gene 1 6 94 0.0 0 178 0 1
gene 1 6 100 0.0 0 184 0 1
gene 1 6 105 0.0 0 189 0 1
gene 1 6 115 0.0 0 199 0 1
gene 1 6 119 0.0 0 203 0 1
gene 1 7 90 0.0 0 208 0 1
gene 1 7 93 0.0 0 211 0 1
gene 1 7 95 0.0 0 213 0 1
gene 1 7 101 0.0 0 219 0 1
gene 1 7 102 0.0 0 220 0 1
gene 1 7 104 0.0 0 222 0 1
gene 1 7 108 0.0 0 226 0 1
gene 1 7 111 0.0 0 229 0 1
gene 1 7 114 0.0 0 232 0 1
gene 1 8 86 0.0 0 238 0 1
gene 1 8 87 0.0 0 239 0 1
gene 1 8 91 0.0 0 243 0 1
gene 1 8 96 0.0 0 248 0 1
gene 1 8 100 0.0 0 252 0 1
gene 1 8 101 0.0 0 253 0 1
gene 1 8 105 0.0 0 257 0 1
gene 1 8 107 0.0 0 259 0 1
gene 1 8 109 0.0 0 261 0 1
gene 1 8 113 0.0 0 265 0 1
gene 1 8 117 0.0 0 269 0 1
gene 1 9 93 0.0 0 279 0 1
gene 1 9 94 0.0 0 280 0 1
gene 1 9 96 0.0 0 282 0 1
gene 1 9 100 0.0 0 286 0 1
gene 1 9 107 0.0 0 293 0 1
gene 1 9 108 0.0 0 294 0 1
gene 1 9 116 0.0 0 302 0 1
gene 1 9 117 0.0 0 303 0 1
gene 1 9 119 0.0 0 305 0 1
gene 1 10 86 0.0 0 306 0 1
gene 1 10 88 0.0 0 308 0 1
gene 1 10 99 0.0 0 319 0 1
gene 1 10 102 0.0 0 322 0 1
gene 1 10 104 0.0 0 324 0 1
gene 1 10 106 0.0 0 326 0 1
gene 1 10 107 0.0 0 327 0 1
gene 1 10 114 0.0 0 334 0 1
gene 1 11 90 0.0 0 344 0 1
gene 1 11 97 0.0 0 351 0 1
gene 1 11 107 0.0 0 361 0 1
gene 1 11 109 0.0 0 363 0 1
gene 1 11 110 0.0 0 364 0 1
gene 1 11 112 0.0 0 366 0 1
gene 1 11 113 0.0 0 367 0 1
gene 1 11 115 0.0 0 369 0 1
gene 1 11 116 0.0 0 370 0 1
gene 1 11 117 0.0 0 371 0 1
gene 1 11 118 0.0 0 372 0 1
gene 1 12 90 0.0 0 378 0 1
gene 1 12 98 0.0 0 386 0 1
gene 1 12 106 0.0 0 394 0 1
gene 1 12 113 0.0 0 401 0 1
gene 1 12 116 0.0 0 404 0 1
gene 1 13 93 0.0 0 415 0 1
gene 1 13 94 0.0 0 416 0 1
gene 1 13 95 0.0 0 417 0 1
gene 1 13 98 0.0 0 420 0 1
gene 1 13 99 0.0 0 421 0 1
gene 1 13 100 0.0 0 422 0 1
gene 1 13 109 0.0 0 431 0 1
gene 1 13 117 0.0 0 439 0 1
gene 1 14 87 0.0 0 443 0 1
gene 1 14 88 0.0 0 444 0 1
gene 1 14 91 0.0 0 447 0 1
gene 1 14 100 0.0 0 456 0 1
gene 1 14 103 0.0 0 459 0 1
gene 1 14 105 0.0 0 461 0 1
gene 1 14 114 0.0 0 470 0 1
gene 1 14 117 0.0 0 473 0 1
gene 1 14 119 0.0 0 475 0 1
gene 1 15 91 0.0 0 481 0 1
gene 1 15 94 0.0 0 484 0 1
gene 1 15 96 0.0 0 486 0 1
gene 1 15 103 0.0 0 493 0 1
gene 1 15 105 0.0 0 495 0 1
gene 1 15 107 0.0 0 497 0 1
gene 1 15 110 0.0 0 500 0 1
gene 1 15 111 0.0 0 501 0 1
gene 1 15 112 0.0 0 502 0 1
gene 1 16 86 0.0 0 510 0 1
gene 1 16 93 0.0 0 517 0 1
gene 1 16 100 0.0 0 524 0 1
gene 1 16 102 0.0 0 526 0 1
gene 1 16 105 0.0 0 529 0 1
gene 1 16 109 0.0 0 533 0 1
gene 1 16 118 0.0 0 542 0 1
gene 1 17 87 0.0 0 545 0 1
gene 1 17 88 0.0 0 546 0 1
gene 1 17 89 0.0 0 547 0 1
gene 1 17 91 0.0 0 549 0 1
gene 1 17 92 0.0 0 550 0 1
gene 1 17 96 0.0 0 554 0 1
gene 1 17 98 0.0 0 556 0 1
gene 1 17 99 0.0 0 557 0 1
gene 1 17 100 0.0 0 558 0 1
gene 1 17 102 0.0 0 560 0 1
gene 1 17 109 0.0 0 567 0 1
gene 1 17 111 0.0 0 569 0 1
gene 1 18 90 0.0 0 582 0 1
gene 1 18 97 0.0 0 589 0 1
gene 1 18 100 0.0 0 592 0 1
gene 1 18 102 0.0 0 594 0 1
gene 1 18 107 0.0 0 599 0 1
gene 1 18 108 0.0 0 600 0 1
gene 1 18 110 0.0 0 602 0 1
gene 1 19 91 0.0 0 617 0 1
gene 1 19 92 0.0 0 618 0 1
gene 1 19 94 0.0 0 620 0 1
gene 1 19 100 0.0 0 626 0 1
gene 1 19 103 0.0 0 629 0 1
gene 1 19 104 0.0 0 630 0 1
gene 1 19 105 0.0 0 631 0 1
gene 1 19 111 0.0 0 637 0 1
gene 1 19 112 0.0 0 638 0 1
gene 1 19 117 0.0 0 643 0 1
gene 1 19 118 0.0 0 644 0 1
gene 1 19 119 0.0 0 645 0 1
gene 1 20 88 0.0 0 648 0 1
gene 1 20 90 0.0 0 650 0 1
gene 1 20 94 0.0 0 654 0 1
gene 1 20 96 0.0 0 656 0 1
gene 1 20 102 0.0 0 662 0 1
gene 1 20 106 0.0 0 666 0 1
gene 1 20 116 0.0 0 676 0 1
gene 1 21 89 0.0 0 683 0 1
gene 1 21 102 0.0 0 696 0 1
gene 1 21 104 0.0 0 698 0 1
gene 1 21 105 0.0 0 699 0 1
gene 1 21 106 0.0 0 700 0 1
gene 1 21 107 0.0 0 701 0 1
gene 1 21 112 0.0 0 706 0 1
gene 1 21 117 0.0 0 711 0 1
gene 1 22 87 0.0 0 715 0 1
gene 1 22 88 0.0 0 716 0 1
gene 1 22 95 0.0 0 723 0 1
gene 1 22 97 0.0 0 725 0 1
gene 1 22 102 0.0 0 730 0 1
gene 1 22 103 0.0 0 731 0 1
gene 1 22 106 0.0 0 734 0 1
gene 1 22 108 0.0 0 736 0 1
gene 1 22 109 0.0 0 737 0 1
gene 1 23 87 0.0 0 749 0 1
gene 1 23 89 0.0 0 751 0 1
gene 1 23 92 0.0 0 754 0 1
gene 1 23 93 0.0 0 755 0 1
gene 1 23 94 0.0 0 756 0 1
gene 1 23 99 0.0 0 761 0 1
gene 1 23 107 0.0 0 769 0 1
gene 1 23 116 0.0 0 778 0 1
gene 1 23 118 0.0 0 780 0 1
gene 1 24 86 0.0 0 782 0 1
gene 1 24 87 0.0 0 783 0 1
gene 1 24 89 0.0 0 785 0 1
gene 1 24 91 0.0 0 787 0 1
gene 1 24 98 0.0 0 794 0 1
gene 1 24 105 0.0 0 801 0 1
gene 1 24 113 0.0 0 809 0 1
gene 1 24 115 0.0 0 811 0 1
gene 1 24 116 0.0 0 812 0 1
gene 1 24 117 0.0 0 813 0 1
gene 1 25 90 0.0 0 820 0 1
gene 1 25 91 0.0 0 821 0 1
gene 1 25 92 0.0 0 822 0 1
gene 1 25 102 0.0 0 832 0 1
gene 1 25 108 0.0 0 838 0 1
gene 1 25 109 0.0 0 839 0 1
gene 1 25 111 0.0 0 841 0 1
gene 1 25 113 0.0 0 843 0 1
gene 1 26 91 0.0 0 855 0 1
gene 1 26 93 0.0 0 857 0 1
gene 1 26 95 0.0 0 859 0 1
gene 1 26 99 0.0 0 863 0 1
gene 1 26 106 0.0 0 870 0 1
gene 1 26 109 0.0 0 873 0 1
gene 1 26 110 0.0 0 874 0 1
gene 1 26 116 0.0 0 880 0 1
gene 1 27 86 0.0 0 884 0 1
gene 1 27 88 0.0 0 886 0 1
gene 1 27 90 0.0 0 888 0 1
gene 1 27 96 0.0 0 894 0 1
gene 1 27 99 0.0 0 897 0 1
gene 1 27 101 0.0 0 899 0 1
gene 1 27 102 0.0 0 900 0 1
gene 1 27 103 0.0 0 901 0 1
gene 1 27 104 0.0 0 902 0 1
gene 1 27 105 0.0 0 903 0 1
gene 1 27 108 0.0 0 906 0 1
gene 1 27 110 0.0 0 908 0 1
gene 1 27 113 0.0 0 911 0 1
gene 1 27 114 0.0 0 912 0 1
gene 1 27 118 0.0 0 916 0 1
gene 1 28 86 0.0 0 918 0 1
gene 1 28 88 0.0 0 920 0 1
gene 1 28 95 0.0 0 927 0 1
gene 1 28 101 0.0 0 933 0 1
gene 1 28 103 0.0 0 935 0 1
gene 1 28 104 0.0 0 936 0 1
gene 1 28 105 0.0 0 937 0 1
gene 1 28 106 0.0 0 938 0 1
gene 1 28 109 0.0 0 941 0 1
gene 1 28 111 0.0 0 943 0 1
gene 1 28 115 0.0 0 947 0 1
gene 1 29 88 0.0 0 954 0 1
gene 1 29 89 0.0 0 955 0 1
gene 1 29 98 0.0 0 964 0 1
gene 1 29 100 0.0 0 966 0 1
gene 1 29 105 0.0 0 971 0 1
gene 1 29 114 0.0 0 980 0 1
gene 1 29 115 0.0 0 981 0 1
gene 1 30 89 0.0 0 989 0 1
gene 1 30 92 0.0 0 992 0 1
gene 1 30 103 0.0 0 1003 0 1
gene 1 30 106 0.0 0 1006 0 1
gene 1 30 117 0.0 0 1017 0 1
gene 1 31 96 0.0 0 1030 0 1
gene 1 31 97 0.0 0 1031 0 1
gene 1 31 100 0.0 0 1034 0 1
gene 1 31 102 0.0 0 1036 0 1
gene 1 31 105 0.0 0 1039 0 1
gene 1 31 110 0.0 0 1044 0 1
gene 1 31 111 0.0 0 1045 0 1
gene 1 31 115 0.0 0 1049 0 1
gene 1 31 119 0.0 0 1053 0 1
gene 1 32 86 0.0 0 1054 0 1
gene 1 32 93 0.0 0 1061 0 1
gene 1 32 95 0.0 0 1063 0 1
gene 1 32 97 0.0 0 1065 0 1
gene 1 32 100 0.0 0 1068 0 1
gene 1 32 104 0.0 0 1072 0 1
gene 1 32 108 0.0 0 1076 0 1
gene 1 32 109 0.0 0 1077 0 1
gene 1 32 110 0.0 0 1078 0 1
gene 1 32 112 0.0 0 1080 0 1
gene 1 32 113 0.0 0 1081 0 1
gene 1 32 118 0.0 0 1086 0 1
gene 1 33 87 0.0 0 1089 0 1
gene 1 33 88 0.0 0 1090 0 1
gene 1 33 90 0.0 0 1092 0 1
gene 1 33 93 0.0 0 1095 0 1
gene 1 33 99 0.0 0 1101 0 1
gene 1 33 100 0.0 0 1102 0 1
gene 1 33 105 0.0 0 1107 0 1
gene 1 33 107 0.0 0 1109 0 1
gene 1 33 110 0.0 0 1112 0 1
gene 1 33 117 0.0 0 1119 0 1
gene 1 33 119 0.0 0 1121 0 1
gene 1 34 97 0.0 0 1133 0 1
gene 1 34 99 0.0 0 1135 0 1
gene 1 34 109 0.0 0 1145 0 1
gene 1 34 111 0.0 0 1147 0 1
gene 1 34 112 0.0 0 1148 0 1
gene 1 34 115 0.0 0 1151 0 1
gene 1 35 86 0.0 0 1156 0 1
gene 1 35 91 0.0 0 1161 0 1
gene 1 35 100 0.0 0 1170 0 1
gene 1 35 105 0.0 0 1175 0 1
gene 1 35 110 0.0 0 1180 0 1
gene 1 36 87 0.0 0 1191 0 1
gene 1 36 88 0.0 0 1192 0 1
gene 1 36 98 0.0 0 1202 0 1
gene 1 36 99 0.0 0 1203 0 1
gene 1 36 101 0.0 0 1205 0 1
gene 1 36 105 0.0 0 1209 0 1
gene 1 36 108 0.0 0 1212 0 1
gene 1 36 110 0.0 0 1214 0 1
gene 1 36 111 0.0 0 1215 0 1
gene 1 36 113 0.0 0 1217 0 1
gene 1 37 86 0.0 0 1224 0 1
gene 1 37 88 0.0 0 1226 0 1
gene 1 37 91 0.0 0 1229 0 1
gene 1 37 92 0.0 0 1230 0 1
gene 1 37 105 0.0 0 1243 0 1
gene 1 37 108 0.0 0 1246 0 1
gene 1 37 110 0.0 0 1248 0 1
gene 1 37 113 0.0 0 1251 0 1
gene 1 37 116 0.0 0 1254 0 1
gene 1 37 118 0.0 0 1256 0 1
gene 1 37 119 0.0 0 1257 0 1
gene 1 38 86 0.0 0 1258 0 1
gene 1 38 87 0.0 0 1259 0 1
gene 1 38 88 0.0 0 1260 0 1
gene 1 38 92 0.0 0 1264 0 1
gene 1 38 100 0.0 0 1272 0 1
gene 1 38 106 0.0 0 1278 0 1
gene 1 38 112 0.0 0 1284 0 1
gene 1 38 113 0.0 0 1285 0 1
gene 1 38 119 0.0 0 1291 0 1
gene 1 39 88 0.0 0 1294 0 1
gene 1 39 91 0.0 0 1297 0 1
gene 1 39 104 0.0 0 1310 0 1
gene 1 39 106 0.0 0 1312 0 1
gene 1 39 107 0.0 0 1313 0 1
gene 1 39 112 0.0 0 1318 0 1
gene 1 39 116 0.0 0 1322 0 1
gene 1 40 88 0.0 0 1328 0 1
gene 1 40 90 0.0 0 1330 0 1
gene 1 40 92 0.0 0 1332 0 1
gene 1 40 95 0.0 0 1335 0 1
gene 1 40 98 0.0 0 1338 0 1
gene 1 40 99 0.0 0 1339 0 1
gene 1 40 108 0.0 0 1348 0 1
gene 1 40 109 0.0 0 1349 0 1
gene 1 40 110 0.0 0 1350 0 1
gene 1 40 112 0.0 0 1352 0 1
gene 1 40 114 0.0 0 1354 0 1
gene 1 40 117 0.0 0 1357 0 1
gene 1 40 119 0.0 0 1359 0 1
gene 1 41 89 0.0 0 1363 0 1
gene 1 41 93 0.0 0 1367 0 1
gene 1 41 100 0.0 0 1374 0 1
gene 1 41 105 0.0 0 1379 0 1
gene 1 41 111 0.0 0 1385 0 1
gene 1 41 117 0.0 0 1391 0 1
gene 1 41 119 0.0 0 1393 0 1
gene 1 42 89 0.0 0 1397 0 1
gene 1 42 94 0.0 0 1402 0 1
gene 1 42 97 0.0 0 1405 0 1
gene 1 42 98 0.0 0 1406 0 1
gene 1 42 101 0.0 0 1409 0 1
gene 1 42 102 0.0 0 1410 0 1
gene 1 42 105 0.0 0 1413 0 1
gene 1 42 106 0.0 0 1414 0 1
gene 1 42 107 0.0 0 1415 0 1
gene 1 42 108 0.0 0 1416 0 1
gene 1 42 110 0.0 0 1418 0 1
gene 1 42 111 0.0 0 1419 0 1
gene 1 42 112 0.0 0 1420 0 1
gene 1 42 113 0.0 0 1421 0 1
gene 1 43 86 0.0 0 1428 0 1
gene 1 43 87 0.0 0 1429 0 1
gene 1 43 88 0.0 0 1430 0 1
gene 1 43 100 0.0 0 1442 0 1
gene 1 43 101 0.0 0 1443 0 1
gene 1 43 104 0.0 0 1446 0 1
gene 1 43 110 0.0 0 1452 0 1
gene 1 43 114 0.0 0 1456 0 1
gene 1 44 86 0.0 0 1462 0 1
gene 1 44 89 0.0 0 1465 0 1
gene 1 44 90 0.0 0 1466 0 1
gene 1 44 94 0.0 0 1470 0 1
gene 1 44 98 0.0 0 1474 0 1
gene 1 44 99 0.0 0 1475 0 1
gene 1 44 102 0.0 0 1478 0 1
gene 1 44 103 0.0 0 1479 0 1
gene 1 44 104 0.0 0 1480 0 1
gene 1 44 106 0.0 0 1482 0 1
gene 1 44 111 0.0 0 1487 0 1
gene 1 44 113 0.0 0 1489 0 1
gene 1 44 115 0.0 0 1491 0 1
gene 1 44 117 0.0 0 1493 0 1
gene 1 45 90 0.0 0 1500 0 1
gene 1 45 99 0.0 0 1509 0 1
gene 1 45 100 0.0 0 1510 0 1
gene 1 46 88 0.0 0 1532 0 1
gene 1 46 89 0.0 0 1533 0 1
gene 1 46 91 0.0 0 1535 0 1
gene 1 46 92 0.0 0 1536 0 1
gene 1 46 96 0.0 0 1540 0 1
gene 1 46 99 0.0 0 1543 0 1
gene 1 46 109 0.0 0 1553 0 1
gene 1 46 110 0.0 0 1554 0 1
gene 1 46 113 0.0 0 1557 0 1
gene 1 46 116 0.0 0 1560 0 1
gene 1 47 86 0.0 0 1564 0 1
gene 1 47 90 0.0 0 1568 0 1
gene 1 47 92 0.0 0 1570 0 1
gene 1 47 95 0.0 0 1573 0 1
gene 1 47 98 0.0 0 1576 0 1
gene 1 47 101 0.0 0 1579 0 1
gene 1 47 102 0.0 0 1580 0 1
gene 1 47 109 0.0 0 1587 0 1
gene 1 47 113 0.0 0 1591 0 1
gene 1 48 87 0.0 0 1599 0 1
gene 1 48 92 0.0 0 1604 0 1
gene 1 48 93 0.0 0 1605 0 1
gene 1 48 95 0.0 0 1607 0 1
gene 1 48 96 0.0 0 1608 0 1
gene 1 48 101 0.0 0 1613 0 1
gene 1 48 102 0.0 0 1614 0 1
gene 1 48 105 0.0 0 1617 0 1
gene 1 48 106 0.0 0 1618 0 1
gene 1 48 109 0.0 0 1621 0 1
gene 1 48 113 0.0 0 1625 0 1
gene 1 48 115 0.0 0 1627 0 1
gene 1 48 119 0.0 0 1631 0 1
gene 1 49 87 0.0 0 1633 0 1
gene 1 49 92 0.0 0 1638 0 1
gene 1 49 99 0.0 0 1645 0 1
gene 1 49 100 0.0 0 1646 0 1
gene 1 49 101 0.0 0 1647 0 1
gene 1 49 104 0.0 0 1650 0 1
gene 1 49 106 0.0 0 1652 0 1
gene 1 49 107 0.0 0 1653 0 1
gene 1 49 112 0.0 0 1658 0 1
gene 1 49 116 0.0 0 1662 0 1
gene 1 50 88 0.0 0 1668 0 1
gene 1 50 90 0.0 0 1670 0 1
gene 1 50 94 0.0 0 1674 0 1
gene 1 50 95 0.0 0 1675 0 1
gene 1 50 96 0.0 0 1676 0 1
gene 1 50 103 0.0 0 1683 0 1
gene 1 50 114 0.0 0 1694 0 1
gene 1 50 115 0.0 0 1695 0 1
gene 1 51 90 0.0 0 1704 0 1
gene 1 51 106 0.0 0 1720 0 1
gene 1 51 108 0.0 0 1722 0 1
gene 1 52 88 0.0 0 1736 0 1
gene 1 52 93 0.0 0 1741 0 1
gene 1 52 98 0.0 0 1746 0 1
gene 1 52 99 0.0 0 1747 0 1
gene 1 52 104 0.0 0 1752 0 1
gene 1 52 107 0.0 0 1755 0 1
gene 1 52 113 0.0 0 1761 0 1
gene 1 52 119 0.0 0 1767 0 1
gene 1 53 90 0.0 0 1772 0 1
gene 1 53 98 0.0 0 1780 0 1
gene 1 53 107 0.0 0 1789 0 1
gene 1 53 111 0.0 0 1793 0 1
gene 1 53 112 0.0 0 1794 0 1
gene 1 53 114 0.0 0 1796 0 1
gene 1 53 115 0.0 0 1797 0 1
gene 1 53 119 0.0 0 1801 0 1
gene 1 54 89 0.0 0 1805 0 1
gene 1 54 91 0.0 0 1807 0 1
gene 1 54 93 0.0 0 1809 0 1
gene 1 54 95 0.0 0 1811 0 1
gene 1 54 105 0.0 0 1821 0 1
gene 1 54 106 0.0 0 1822 0 1
gene 1 54 110 0.0 0 1826 0 1
gene 1 55 86 0.0 0 1836 0 1
gene 1 55 92 0.0 0 1842 0 1
gene 1 55 95 0.0 0 1845 0 1
gene 1 55 97 0.0 0 1847 0 1
gene 1 55 112 0.0 0 1862 0 1
gene 1 55 113 0.0 0 1863 0 1
gene 1 55 114 0.0 0 1864 0 1
gene 1 55 119 0.0 0 1869 0 1
gene 1 56 88 0.0 0 1872 0 1
gene 1 56 96 0.0 0 1880 0 1
gene 1 56 108 0.0 0 1892 0 1
gene 1 56 111 0.0 0 1895 0 1
gene 1 56 118 0.0 0 1902 0 1
gene 1 57 108 0.0 0 1926 0 1
gene 1 57 112 0.0 0 1930 0 1
gene 1 57 114 0.0 0 1932 0 1
gene 1 57 115 0.0 0 1933 0 1
gene 1 58 88 0.0 0 1940 0 1
gene 1 58 91 0.0 0 1943 0 1
gene 1 58 92 0.0 0 1944 0 1
gene 1 58 93 0.0 0 1945 0 1
gene 1 58 94 0.0 0 1946 0 1
gene 1 58 95 0.0 0 1947 0 1
gene 1 58 96 0.0 0 1948 0 1
gene 1 58 97 0.0 0 1949 0 1
gene 1 58 101 0.0 0 1953 0 1
gene 1 58 103 0.0 0 1955 0 1
gene 1 58 104 0.0 0 1956 0 1
gene 1 58 116 0.0 0 1968 0 1
gene 1 59 87 0.0 0 1973 0 1
gene 1 59 88 0.0 0 1974 0 1
gene 1 59 90 0.0 0 1976 0 1
gene 1 59 91 0.0 0 1977 0 1
gene 1 59 96 0.0 0 1982 0 1
gene 1 59 97 0.0 0 1983 0 1
gene 1 59 102 0.0 0 1988 0 1
gene 1 59 104 0.0 0 1990 0 1
gene 1 59 110 0.0 0 1996 0 1
gene 1 59 111 0.0 0 1997 0 1
gene 1 59 114 0.0 0 2000 0 1
gene 1 59 115 0.0 0 2001 0 1
gene 1 59 116 0.0 0 2002 0 1
gene 1 59 119 0.0 0 2005 0 1
gene 1 60 86 0.0 0 2006 0 1
gene 1 60 87 0.0 0 2007 0 1
gene 1 60 91 0.0 0 2011 0 1
gene 1 60 92 0.0 0 2012 0 1
gene 1 60 94 0.0 0 2014 0 1
gene 1 60 98 0.0 0 2018 0 1
gene 1 60 99 0.0 0 2019 0 1
gene 1 60 101 0.0 0 2021 0 1
gene 1 60 103 0.0 0 2023 0 1
gene 1 60 113 0.0 0 2033 0 1
gene 1 60 115 0.0 0 2035 0 1
gene 1 61 86 0.0 0 2040 0 1
gene 1 61 88 0.0 0 2042 0 1
gene 1 61 91 0.0 0 2045 0 1
gene 1 61 92 0.0 0 2046 0 1
gene 1 61 97 0.0 0 2051 0 1
gene 1 61 101 0.0 0 2055 0 1
gene 1 61 102 0.0 0 2056 0 1
gene 1 61 106 0.0 0 2060 0 1
gene 1 61 108 0.0 0 2062 0 1
gene 1 61 110 0.0 0 2064 0 1
gene 1 61 111 0.0 0 2065 0 1
gene 1 61 115 0.0 0 2069 0 1
gene 1 62 90 0.0 0 2078 0 1
gene 1 62 95 0.0 0 2083 0 1
gene 1 62 97 0.0 0 2085 0 1
gene 1 62 99 0.0 0 2087 0 1
gene 1 62 101 0.0 0 2089 0 1
gene 1 62 103 0.0 0 2091 0 1
gene 1 62 104 0.0 0 2092 0 1
gene 1 62 115 0.0 0 2103 0 1
gene 1 62 116 0.0 0 2104 0 1
gene 1 63 94 0.0 0 2116 0 1
gene 1 63 96 0.0 0 2118 0 1
gene 1 63 108 0.0 0 2130 0 1
gene 1 63 110 0.0 0 2132 0 1
gene 1 63 111 0.0 0 2133 0 1
gene 1 63 112 0.0 0 2134 0 1
gene 1 64 88 0.0 0 2144 0 1
gene 1 64 91 0.0 0 2147 0 1
gene 1 64 94 0.0 0 2150 0 1
gene 1 64 98 0.0 0 2154 0 1
gene 1 64 101 0.0 0 2157 0 1
gene 1 64 104 0.0 0 2160 0 1
gene 1 64 105 0.0 0 2161 0 1
gene 1 64 109 0.0 0 2165 0 1
gene 1 64 112 0.0 0 2168 0 1
gene 1 64 115 0.0 0 2171 0 1
gene 1 64 118 0.0 0 2174 0 1
gene 1 65 88 0.0 0 2178 0 1
gene 1 65 95 0.0 0 2185 0 1
gene 1 65 100 0.0 0 2190 0 1
gene 1 65 111 0.0 0 2201 0 1
gene 1 65 113 0.0 0 2203 0 1
gene 1 65 117 0.0 0 2207 0 1
gene 1 66 88 0.0 0 2212 0 1
gene 1 66 89 0.0 0 2213 0 1
gene 1 66 91 0.0 0 2215 0 1
gene 1 66 98 0.0 0 2222 0 1
gene 1 66 100 0.0 0 2224 0 1
gene 1 66 108 0.0 0 2232 0 1
gene 1 66 111 0.0 0 2235 0 1
gene 1 66 112 0.0 0 2236 0 1
gene 1 66 115 0.0 0 2239 0 1
gene 1 66 117 0.0 0 2241 0 1
gene 1 66 118 0.0 0 2242 0 1
gene 1 67 86 0.0 0 2244 0 1
gene 1 67 103 0.0 0 2261 0 1
gene 1 67 106 0.0 0 2264 0 1
gene 1 67 109 0.0 0 2267 0 1
gene 1 67 112 0.0 0 2270 0 1
gene 1 67 116 0.0 0 2274 0 1
gene 1 67 119 0.0 0 2277 0 1
gene 1 68 87 0.0 0 2279 0 1
gene 1 68 91 0.0 0 2283 0 1
gene 1 68 93 0.0 0 2285 0 1
gene 1 68 105 0.0 0 2297 0 1
gene 1 68 110 0.0 0 2302 0 1
gene 1 68 112 0.0 0 2304 0 1
gene 1 69 88 0.0 0 2314 0 1
gene 1 69 89 0.0 0 2315 0 1
gene 1 69 91 0.0 0 2317 0 1
gene 1 69 94 0.0 0 2320 0 1
gene 1 69 96 0.0 0 2322 0 1
gene 1 69 97 0.0 0 2323 0 1
gene 1 69 98 0.0 0 2324 0 1
gene 1 69 104 0.0 0 2330 0 1
gene 1 69 108 0.0 0 2334 0 1
gene 1 69 113 0.0 0 2339 0 1
gene 1 69 115 0.0 0 2341 0 1
gene 1 70 88 0.0 0 2348 0 1
gene 1 70 89 0.0 0 2349 0 1
gene 1 70 93 0.0 0 2353 0 1
gene 1 70 95 0.0 0 2355 0 1
gene 1 70 96 0.0 0 2356 0 1
gene 1 70 98 0.0 0 2358 0 1
gene 1 70 109 0.0 0 2369 0 1
gene 1 70 114 0.0 0 2374 0 1
gene 1 70 115 0.0 0 2375 0 1
gene 1 70 119 0.0 0 2379 0 1
gene 1 71 86 0.0 0 2380 0 1
gene 1 71 87 0.0 0 2381 0 1
gene 1 71 88 0.0 0 2382 0 1
gene 1 71 91 0.0 0 2385 0 1
gene 1 71 97 0.0 0 2391 0 1
gene 1 71 98 0.0 0 2392 0 1
gene 1 71 100 0.0 0 2394 0 1
gene 1 71 106 0.0 0 2400 0 1
gene 1 71 108 0.0 0 2402 0 1
gene 1 71 110 0.0 0 2404 0 1
gene 1 71 111 0.0 0 2405 0 1
gene 1 71 112 0.0 0 2406 0 1
gene 1 72 86 0.0 0 2414 0 1
gene 1 72 94 0.0 0 2422 0 1
gene 1 72 97 0.0 0 2425 0 1
gene 1 72 101 0.0 0 2429 0 1
gene 1 72 105 0.0 0 2433 0 1
gene 1 72 107 0.0 0 2435 0 1
gene 1 72 112 0.0 0 2440 0 1
gene 1 72 114 0.0 0 2442 0 1
gene 1 73 95 0.0 0 2457 0 1
gene 1 73 97 0.0 0 2459 0 1
gene 1 73 100 0.0 0 2462 0 1
gene 1 73 111 0.0 0 2473 0 1
gene 1 73 113 0.0 0 2475 0 1
gene 1 73 115 0.0 0 2477 0 1
gene 1 73 116 0.0 0 2478 0 1
gene 1 73 117 0.0 0 2479 0 1
gene 1 74 89 0.0 0 2485 0 1
gene 1 74 95 0.0 0 2491 0 1
gene 1 74 100 0.0 0 2496 0 1
gene 1 74 101 0.0 0 2497 0 1
gene 1 74 107 0.0 0 2503 0 1
gene 1 74 111 0.0 0 2507 0 1
gene 1 74 116 0.0 0 2512 0 1
gene 1 75 91 0.0 0 2521 0 1
gene 1 75 95 0.0 0 2525 0 1
gene 1 75 100 0.0 0 2530 0 1
gene 1 75 103 0.0 0 2533 0 1
gene 1 75 107 0.0 0 2537 0 1
gene 1 75 108 0.0 0 2538 0 1
gene 1 75 111 0.0 0 2541 0 1
gene 1 75 114 0.0 0 2544 0 1
gene 1 75 117 0.0 0 2547 0 1
gene 1 76 86 0.0 0 2550 0 1
gene 1 76 87 0.0 0 2551 0 1
gene 1 76 94 0.0 0 2558 0 1
gene 1 76 99 0.0 0 2563 0 1
gene 1 76 104 0.0 0 2568 0 1
gene 1 76 106 0.0 0 2570 0 1
gene 1 76 112 0.0 0 2576 0 1
gene 1 76 118 0.0 0 2582 0 1
gene 1 77 87 0.0 0 2585 0 1
gene 1 77 90 0.0 0 2588 0 1
gene 1 77 93 0.0 0 2591 0 1
gene 1 77 95 0.0 0 2593 0 1
gene 1 77 100 0.0 0 2598 0 1
gene 1 77 102 0.0 0 2600 0 1
gene 1 77 104 0.0 0 2602 0 1
gene 1 77 107 0.0 0 2605 0 1
gene 1 77 111 0.0 0 2609 0 1
gene 1 77 114 0.0 0 2612 0 1
gene 1 78 89 0.0 0 2621 0 1
gene 1 78 92 0.0 0 2624 0 1
gene 1 78 94 0.0 0 2626 0 1
gene 1 78 99 0.0 0 2631 0 1
gene 1 78 102 0.0 0 2634 0 1
gene 1 78 103 0.0 0 2635 0 1
gene 1 78 104 0.0 0 2636 0 1
gene 1 78 105 0.0 0 2637 0 1
gene 1 78 106 0.0 0 2638 0 1
gene 1 78 110 0.0 0 2642 0 1
gene 1 79 89 0.0 0 2655 0 1
gene 1 79 94 0.0 0 2660 0 1
gene 1 79 95 0.0 0 2661 0 1
gene 1 79 102 0.0 0 2668 0 1
gene 1 79 105 0.0 0 2671 0 1
gene 1 79 111 0.0 0 2677 0 1
gene 1 79 115 0.0 0 2681 0 1
gene 1 79 117 0.0 0 2683 0 1
gene 1 79 118 0.0 0 2684 0 1
gene 1 79 119 0.0 0 2685 0 1
gene 1 80 88 0.0 0 2688 0 1
gene 1 80 93 0.0 0 2693 0 1
gene 1 80 95 0.0 0 2695 0 1
gene 1 80 108 0.0 0 2708 0 1
gene 1 80 109 0.0 0 2709 0 1
gene 1 80 115 0.0 0 2715 0 1
gene 1 80 119 0.0 0 2719 0 1
gene 1 81 88 0.0 0 2722 0 1
gene 1 81 89 0.0 0 2723 0 1
gene 1 81 92 0.0 0 2726 0 1
gene 1 81 100 0.0 0 2734 0 1
gene 1 81 102 0.0 0 2736 0 1
gene 1 81 108 0.0 0 2742 0 1
gene 1 81 114 0.0 0 2748 0 1
gene 1 82 86 0.0 0 2754 0 1
gene 1 82 87 0.0 0 2755 0 1
gene 1 82 91 0.0 0 2759 0 1
gene 1 82 94 0.0 0 2762 0 1
gene 1 82 97 0.0 0 2765 0 1
gene 1 82 98 0.0 0 2766 0 1
gene 1 82 107 0.0 0 2775 0 1
gene 1 82 108 0.0 0 2776 0 1
gene 1 82 111 0.0 0 2779 0 1
gene 1 82 116 0.0 0 2784 0 1
gene 1 83 87 0.0 0 2789 0 1
gene 1 83 93 0.0 0 2795 0 1
gene 1 83 111 0.0 0 2813 0 1
gene 1 83 113 0.0 0 2815 0 1
gene 1 84 88 0.0 0 2824 0 1
gene 1 84 92 0.0 0 2828 0 1
gene 1 84 94 0.0 0 2830 0 1
gene 1 84 102 0.0 0 2838 0 1
gene 1 84 104 0.0 0 2840 0 1
gene 1 84 106 0.0 0 2842 0 1
gene 1 84 109 0.0 0 2845 0 1
gene 1 85 86 0.0 0 2856 0 1
gene 1 85 87 0.0 0 2857 0 1
gene 1 85 90 0.0 0 2860 0 1
gene 1 85 96 0.0 0 2866 0 1
gene 1 85 100 0.0 0 2870 0 1
gene 1 85 105 0.0 0 2875 0 1
gene 1 85 112 0.0 0 2882 0 1
gene 1 85 114 0.0 0 2884 0 1
gene 1 85 115 0.0 0 2885 0 1
genomeend 1
