genomestart 1
trait 1 0.1 0 0 0 0 0 0 0
node 1 0 1 3
node 2 0 1 1
node 3 0 1 1
node 4 0 1 1
node 5 0 1 1
node 6 0 1 1
node 7 0 1 1
node 8 0 1 1
node 9 0 1 1
node 10 0 1 1
node 11 0 1 1
node 12 0 1 1
node 13 0 1 1
node 14 0 1 1
node 15 0 1 1
node 16 0 1 1
node 17 0 1 1
node 18 0 1 1
node 19 0 1 1
node 20 0 1 1
node 21 0 1 1
node 22 0 1 1
node 23 0 1 1
node 24 0 1 1
node 25 0 1 1
node 26 0 1 1
node 27 0 1 1
node 28 0 1 1
node 29 0 1 1
node 30 0 1 1
node 31 0 1 1
node 32 0 1 1
node 33 0 1 1
node 34 0 1 1
node 35 0 1 1
node 36 0 1 1
node 37 0 1 1
node 38 0 1 1
node 39 0 1 1
node 40 0 1 1
node 41 0 1 1
node 42 0 1 1
node 43 0 1 1
node 44 0 1 1
node 45 0 1 1
node 46 0 1 1
node 47 0 1 1
node 48 0 1 1
node 49 0 1 1
node 50 0 1 1
node 51 0 1 1
node 52 0 1 1
node 53 0 1 1
node 54 0 1 1
node 55 0 1 1
node 56 0 1 1
node 57 0 1 1
node 58 0 1 1
node 59 0 1 1
node 60 0 1 1
node 61 0 1 1
node 62 0 1 1
node 63 0 1 1
node 64 0 1 1
node 65 0 1 1
node 66 0 1 1
node 67 0 1 1
node 68 0 1 1
node 69 0 1 1
node 70 0 1 1
node 71 0 1 1
node 72 0 1 1
node 73 0 1 1
node 74 0 1 1
node 75 0 1 1
node 76 0 1 1
node 77 0 1 1
node 78 0 1 1
node 79 0 1 1
node 80 0 1 1
node 81 0 1 1
node 82 0 1 1
node 83 0 1 1
node 84 0 1 1
node 85 0 1 1
node 86 0 0 2
node 87 0 0 2
node 88 0 0 2
node 89 0 0 2
node 90 0 0 2
node 91 0 0 2
node 92 0 0 2
node 93 0 0 2
node 94 0 0 2
node 95 0 0 2
node 96 0 0 2
node 97 0 0 2
node 98 0 0 2
node 99 0 0 2
node 100 0 0 2
node 101 0 0 2
node 102 0 0 2
node 103 0 0 2
node 104 0 0 2
node 105 0 0 2
node 106 0 0 2
node 107 0 0 2
node 108 0 0 2
node 109 0 0 2
node 110 0 0 2
node 111 0 0 2
node 112 0 0 2
node 113 0 0 2
node 114 0 0 2
node 115 0 0 2
node 116 0 0 2
node 117 0 0 2
node 118 0 0 2
node 119 0 0 2
gene 1 75 95 0.0 0 2525 0 1
genomeend 1
